<?xml version="1.0" encoding="UTF-8" standalone="yes"?>
<PMML xmlns="http://www.dmg.org/PMML-4_4" xmlns:data="http://jpmml.org/jpmml-model/InlineTable" version="4.4">
	<Header>
		<Application name="SkLearn2PMML package" version="0.103.1"/>
		<Timestamp>2024-02-18T13:04:35Z</Timestamp>
	</Header>
	<MiningBuildTask>
		<Extension name="repr">PMMLPipeline(steps=[('classifier', RandomForestClassifier(max_depth=16, n_estimators=20))])</Extension>
	</MiningBuildTask>
	<DataDictionary>
		<DataField name="y" optype="categorical" dataType="string">
			<Value value="BENIGN"/>
			<Value value="DDoS-HOIC"/>
			<Value value="DDoS-LOIC-HTTP"/>
			<Value value="DDoS-LOIC-UDP"/>
			<Value value="DoS GoldenEye"/>
			<Value value="DoS Hulk"/>
			<Value value="DoS Slowloris"/>
		</DataField>
		<DataField name="Bwd Packet Length Max" optype="continuous" dataType="float"/>
		<DataField name="Bwd Packet Length Mean" optype="continuous" dataType="float"/>
		<DataField name="Bwd Packet Length Std" optype="continuous" dataType="float"/>
		<DataField name="Fwd IAT Min" optype="continuous" dataType="float"/>
		<DataField name="Bwd IAT Total" optype="continuous" dataType="float"/>
		<DataField name="Bwd Header Length" optype="continuous" dataType="float"/>
		<DataField name="FIN Flag Count" optype="continuous" dataType="float"/>
		<DataField name="CWR Flag Count" optype="continuous" dataType="float"/>
		<DataField name="Bwd Segment Size Avg" optype="continuous" dataType="float"/>
		<DataField name="FWD Init Win Bytes" optype="continuous" dataType="float"/>
		<DataField name="Bwd Init Win Bytes" optype="continuous" dataType="float"/>
		<DataField name="Fwd Seg Size Min" optype="continuous" dataType="float"/>
	</DataDictionary>
	<MiningModel functionName="classification" algorithmName="sklearn.ensemble._forest.RandomForestClassifier">
		<MiningSchema>
			<MiningField name="y" usageType="target"/>
			<MiningField name="Bwd Init Win Bytes"/>
			<MiningField name="Fwd Seg Size Min"/>
			<MiningField name="Bwd Packet Length Mean"/>
			<MiningField name="FWD Init Win Bytes"/>
			<MiningField name="Fwd IAT Min"/>
			<MiningField name="Bwd IAT Total"/>
			<MiningField name="Bwd Header Length"/>
			<MiningField name="Bwd Packet Length Max"/>
			<MiningField name="Bwd Segment Size Avg"/>
			<MiningField name="CWR Flag Count"/>
			<MiningField name="Bwd Packet Length Std"/>
			<MiningField name="FIN Flag Count"/>
		</MiningSchema>
		<Output>
			<OutputField name="probability(BENIGN)" optype="continuous" dataType="double" feature="probability" value="BENIGN"/>
			<OutputField name="probability(DDoS-HOIC)" optype="continuous" dataType="double" feature="probability" value="DDoS-HOIC"/>
			<OutputField name="probability(DDoS-LOIC-HTTP)" optype="continuous" dataType="double" feature="probability" value="DDoS-LOIC-HTTP"/>
			<OutputField name="probability(DDoS-LOIC-UDP)" optype="continuous" dataType="double" feature="probability" value="DDoS-LOIC-UDP"/>
			<OutputField name="probability(DoS GoldenEye)" optype="continuous" dataType="double" feature="probability" value="DoS GoldenEye"/>
			<OutputField name="probability(DoS Hulk)" optype="continuous" dataType="double" feature="probability" value="DoS Hulk"/>
			<OutputField name="probability(DoS Slowloris)" optype="continuous" dataType="double" feature="probability" value="DoS Slowloris"/>
		</Output>
		<LocalTransformations>
			<DerivedField name="double(Bwd Init Win Bytes)" optype="continuous" dataType="double">
				<FieldRef field="Bwd Init Win Bytes"/>
			</DerivedField>
			<DerivedField name="double(Fwd Seg Size Min)" optype="continuous" dataType="double">
				<FieldRef field="Fwd Seg Size Min"/>
			</DerivedField>
			<DerivedField name="double(Bwd Packet Length Mean)" optype="continuous" dataType="double">
				<FieldRef field="Bwd Packet Length Mean"/>
			</DerivedField>
			<DerivedField name="double(FWD Init Win Bytes)" optype="continuous" dataType="double">
				<FieldRef field="FWD Init Win Bytes"/>
			</DerivedField>
			<DerivedField name="double(Fwd IAT Min)" optype="continuous" dataType="double">
				<FieldRef field="Fwd IAT Min"/>
			</DerivedField>
			<DerivedField name="double(Bwd IAT Total)" optype="continuous" dataType="double">
				<FieldRef field="Bwd IAT Total"/>
			</DerivedField>
			<DerivedField name="double(Bwd Header Length)" optype="continuous" dataType="double">
				<FieldRef field="Bwd Header Length"/>
			</DerivedField>
			<DerivedField name="double(Bwd Packet Length Max)" optype="continuous" dataType="double">
				<FieldRef field="Bwd Packet Length Max"/>
			</DerivedField>
			<DerivedField name="double(Bwd Segment Size Avg)" optype="continuous" dataType="double">
				<FieldRef field="Bwd Segment Size Avg"/>
			</DerivedField>
			<DerivedField name="double(CWR Flag Count)" optype="continuous" dataType="double">
				<FieldRef field="CWR Flag Count"/>
			</DerivedField>
			<DerivedField name="double(Bwd Packet Length Std)" optype="continuous" dataType="double">
				<FieldRef field="Bwd Packet Length Std"/>
			</DerivedField>
			<DerivedField name="double(FIN Flag Count)" optype="continuous" dataType="double">
				<FieldRef field="FIN Flag Count"/>
			</DerivedField>
		</LocalTransformations>
		<Segmentation multipleModelMethod="average" missingPredictionTreatment="returnMissing">
			<Segment id="1">
				<True/>
				<TreeModel functionName="classification" missingValueStrategy="nullPrediction">
					<MiningSchema>
						<MiningField name="double(Bwd Init Win Bytes)"/>
						<MiningField name="double(Fwd Seg Size Min)"/>
						<MiningField name="double(Bwd Packet Length Mean)"/>
						<MiningField name="double(FWD Init Win Bytes)"/>
						<MiningField name="double(Fwd IAT Min)"/>
						<MiningField name="double(Bwd IAT Total)"/>
						<MiningField name="double(Bwd Header Length)"/>
						<MiningField name="double(Bwd Packet Length Max)"/>
						<MiningField name="double(Bwd Segment Size Avg)"/>
						<MiningField name="double(CWR Flag Count)"/>
						<MiningField name="double(Bwd Packet Length Std)"/>
						<MiningField name="double(FIN Flag Count)"/>
					</MiningSchema>
					<Node>
						<True/>
						<Node>
							<SimplePredicate field="double(Bwd Init Win Bytes)" operator="lessOrEqual" value="210.5"/>
							<Node>
								<SimplePredicate field="double(Fwd Seg Size Min)" operator="lessOrEqual" value="30.0"/>
								<Node>
									<SimplePredicate field="double(Bwd Packet Length Mean)" operator="lessOrEqual" value="0.125"/>
									<Node>
										<SimplePredicate field="double(FWD Init Win Bytes)" operator="lessOrEqual" value="30.0"/>
										<Node>
											<SimplePredicate field="double(Fwd IAT Min)" operator="lessOrEqual" value="8.0"/>
											<Node>
												<SimplePredicate field="double(Bwd IAT Total)" operator="lessOrEqual" value="0.5"/>
												<Node>
													<SimplePredicate field="double(Bwd Init Win Bytes)" operator="lessOrEqual" value="81.0"/>
													<Node>
														<SimplePredicate field="double(Bwd Header Length)" operator="lessOrEqual" value="10.0"/>
														<Node>
															<SimplePredicate field="double(Fwd IAT Min)" operator="lessOrEqual" value="0.5"/>
															<Node score="BENIGN" recordCount="1126">
																<SimplePredicate field="double(Fwd Seg Size Min)" operator="lessOrEqual" value="4.0"/>
																<ScoreDistribution value="BENIGN" recordCount="1126"/>
																<ScoreDistribution value="DDoS-HOIC" recordCount="0"/>
																<ScoreDistribution value="DDoS-LOIC-HTTP" recordCount="0"/>
																<ScoreDistribution value="DDoS-LOIC-UDP" recordCount="0"/>
																<ScoreDistribution value="DoS GoldenEye" recordCount="0"/>
																<ScoreDistribution value="DoS Hulk" recordCount="0"/>
																<ScoreDistribution value="DoS Slowloris" recordCount="0"/>
															</Node>
															<Node score="DDoS-LOIC-UDP" recordCount="1375">
																<SimplePredicate field="double(Fwd Seg Size Min)" operator="lessOrEqual" value="14.0"/>
																<ScoreDistribution value="BENIGN" recordCount="23"/>
																<ScoreDistribution value="DDoS-HOIC" recordCount="0"/>
																<ScoreDistribution value="DDoS-LOIC-HTTP" recordCount="0"/>
																<ScoreDistribution value="DDoS-LOIC-UDP" recordCount="1352"/>
																<ScoreDistribution value="DoS GoldenEye" recordCount="0"/>
																<ScoreDistribution value="DoS Hulk" recordCount="0"/>
																<ScoreDistribution value="DoS Slowloris" recordCount="0"/>
															</Node>
															<Node score="BENIGN" recordCount="1">
																<True/>
																<ScoreDistribution value="BENIGN" recordCount="1"/>
																<ScoreDistribution value="DDoS-HOIC" recordCount="0"/>
																<ScoreDistribution value="DDoS-LOIC-HTTP" recordCount="0"/>
																<ScoreDistribution value="DDoS-LOIC-UDP" recordCount="0"/>
																<ScoreDistribution value="DoS GoldenEye" recordCount="0"/>
																<ScoreDistribution value="DoS Hulk" recordCount="0"/>
																<ScoreDistribution value="DoS Slowloris" recordCount="0"/>
															</Node>
														</Node>
														<Node score="BENIGN" recordCount="64">
															<SimplePredicate field="double(Fwd Seg Size Min)" operator="lessOrEqual" value="4.0"/>
															<ScoreDistribution value="BENIGN" recordCount="64"/>
															<ScoreDistribution value="DDoS-HOIC" recordCount="0"/>
															<ScoreDistribution value="DDoS-LOIC-HTTP" recordCount="0"/>
															<ScoreDistribution value="DDoS-LOIC-UDP" recordCount="0"/>
															<ScoreDistribution value="DoS GoldenEye" recordCount="0"/>
															<ScoreDistribution value="DoS Hulk" recordCount="0"/>
															<ScoreDistribution value="DoS Slowloris" recordCount="0"/>
														</Node>
														<Node score="DDoS-LOIC-UDP" recordCount="676">
															<SimplePredicate field="double(Fwd IAT Min)" operator="lessOrEqual" value="1.5"/>
															<ScoreDistribution value="BENIGN" recordCount="33"/>
															<ScoreDistribution value="DDoS-HOIC" recordCount="0"/>
															<ScoreDistribution value="DDoS-LOIC-HTTP" recordCount="0"/>
															<ScoreDistribution value="DDoS-LOIC-UDP" recordCount="643"/>
															<ScoreDistribution value="DoS GoldenEye" recordCount="0"/>
															<ScoreDistribution value="DoS Hulk" recordCount="0"/>
															<ScoreDistribution value="DoS Slowloris" recordCount="0"/>
														</Node>
														<Node score="DDoS-LOIC-UDP" recordCount="2">
															<True/>
															<ScoreDistribution value="BENIGN" recordCount="0"/>
															<ScoreDistribution value="DDoS-HOIC" recordCount="0"/>
															<ScoreDistribution value="DDoS-LOIC-HTTP" recordCount="0"/>
															<ScoreDistribution value="DDoS-LOIC-UDP" recordCount="2"/>
															<ScoreDistribution value="DoS GoldenEye" recordCount="0"/>
															<ScoreDistribution value="DoS Hulk" recordCount="0"/>
															<ScoreDistribution value="DoS Slowloris" recordCount="0"/>
														</Node>
													</Node>
													<Node score="BENIGN" recordCount="4">
														<True/>
														<ScoreDistribution value="BENIGN" recordCount="4"/>
														<ScoreDistribution value="DDoS-HOIC" recordCount="0"/>
														<ScoreDistribution value="DDoS-LOIC-HTTP" recordCount="0"/>
														<ScoreDistribution value="DDoS-LOIC-UDP" recordCount="0"/>
														<ScoreDistribution value="DoS GoldenEye" recordCount="0"/>
														<ScoreDistribution value="DoS Hulk" recordCount="0"/>
														<ScoreDistribution value="DoS Slowloris" recordCount="0"/>
													</Node>
												</Node>
												<Node score="BENIGN" recordCount="29">
													<True/>
													<ScoreDistribution value="BENIGN" recordCount="29"/>
													<ScoreDistribution value="DDoS-HOIC" recordCount="0"/>
													<ScoreDistribution value="DDoS-LOIC-HTTP" recordCount="0"/>
													<ScoreDistribution value="DDoS-LOIC-UDP" recordCount="0"/>
													<ScoreDistribution value="DoS GoldenEye" recordCount="0"/>
													<ScoreDistribution value="DoS Hulk" recordCount="0"/>
													<ScoreDistribution value="DoS Slowloris" recordCount="0"/>
												</Node>
											</Node>
											<Node score="BENIGN" recordCount="79">
												<True/>
												<ScoreDistribution value="BENIGN" recordCount="79"/>
												<ScoreDistribution value="DDoS-HOIC" recordCount="0"/>
												<ScoreDistribution value="DDoS-LOIC-HTTP" recordCount="0"/>
												<ScoreDistribution value="DDoS-LOIC-UDP" recordCount="0"/>
												<ScoreDistribution value="DoS GoldenEye" recordCount="0"/>
												<ScoreDistribution value="DoS Hulk" recordCount="0"/>
												<ScoreDistribution value="DoS Slowloris" recordCount="0"/>
											</Node>
										</Node>
										<Node>
											<SimplePredicate field="double(Bwd IAT Total)" operator="lessOrEqual" value="5876.0"/>
											<Node>
												<SimplePredicate field="double(Fwd IAT Min)" operator="lessOrEqual" value="13921.0"/>
												<Node>
													<SimplePredicate field="double(Fwd IAT Min)" operator="lessOrEqual" value="2600.0"/>
													<Node score="BENIGN" recordCount="3098">
														<SimplePredicate field="double(Fwd IAT Min)" operator="lessOrEqual" value="1787.5"/>
														<ScoreDistribution value="BENIGN" recordCount="3098"/>
														<ScoreDistribution value="DDoS-HOIC" recordCount="0"/>
														<ScoreDistribution value="DDoS-LOIC-HTTP" recordCount="0"/>
														<ScoreDistribution value="DDoS-LOIC-UDP" recordCount="0"/>
														<ScoreDistribution value="DoS GoldenEye" recordCount="0"/>
														<ScoreDistribution value="DoS Hulk" recordCount="0"/>
														<ScoreDistribution value="DoS Slowloris" recordCount="0"/>
													</Node>
													<Node score="BENIGN" recordCount="115">
														<SimplePredicate field="double(Fwd Seg Size Min)" operator="lessOrEqual" value="4.0"/>
														<ScoreDistribution value="BENIGN" recordCount="115"/>
														<ScoreDistribution value="DDoS-HOIC" recordCount="0"/>
														<ScoreDistribution value="DDoS-LOIC-HTTP" recordCount="0"/>
														<ScoreDistribution value="DDoS-LOIC-UDP" recordCount="0"/>
														<ScoreDistribution value="DoS GoldenEye" recordCount="0"/>
														<ScoreDistribution value="DoS Hulk" recordCount="0"/>
														<ScoreDistribution value="DoS Slowloris" recordCount="0"/>
													</Node>
													<Node score="DDoS-LOIC-UDP" recordCount="4">
														<SimplePredicate field="double(Fwd IAT Min)" operator="lessOrEqual" value="1893.0"/>
														<ScoreDistribution value="BENIGN" recordCount="0"/>
														<ScoreDistribution value="DDoS-HOIC" recordCount="0"/>
														<ScoreDistribution value="DDoS-LOIC-HTTP" recordCount="0"/>
														<ScoreDistribution value="DDoS-LOIC-UDP" recordCount="4"/>
														<ScoreDistribution value="DoS GoldenEye" recordCount="0"/>
														<ScoreDistribution value="DoS Hulk" recordCount="0"/>
														<ScoreDistribution value="DoS Slowloris" recordCount="0"/>
													</Node>
													<Node score="BENIGN" recordCount="3">
														<SimplePredicate field="double(Fwd IAT Min)" operator="lessOrEqual" value="2113.0"/>
														<ScoreDistribution value="BENIGN" recordCount="3"/>
														<ScoreDistribution value="DDoS-HOIC" recordCount="0"/>
														<ScoreDistribution value="DDoS-LOIC-HTTP" recordCount="0"/>
														<ScoreDistribution value="DDoS-LOIC-UDP" recordCount="0"/>
														<ScoreDistribution value="DoS GoldenEye" recordCount="0"/>
														<ScoreDistribution value="DoS Hulk" recordCount="0"/>
														<ScoreDistribution value="DoS Slowloris" recordCount="0"/>
													</Node>
													<Node score="DDoS-LOIC-UDP" recordCount="3">
														<True/>
														<ScoreDistribution value="BENIGN" recordCount="0"/>
														<ScoreDistribution value="DDoS-HOIC" recordCount="0"/>
														<ScoreDistribution value="DDoS-LOIC-HTTP" recordCount="0"/>
														<ScoreDistribution value="DDoS-LOIC-UDP" recordCount="3"/>
														<ScoreDistribution value="DoS GoldenEye" recordCount="0"/>
														<ScoreDistribution value="DoS Hulk" recordCount="0"/>
														<ScoreDistribution value="DoS Slowloris" recordCount="0"/>
													</Node>
												</Node>
												<Node score="BENIGN" recordCount="207">
													<SimplePredicate field="double(Fwd Seg Size Min)" operator="lessOrEqual" value="4.0"/>
													<ScoreDistribution value="BENIGN" recordCount="207"/>
													<ScoreDistribution value="DDoS-HOIC" recordCount="0"/>
													<ScoreDistribution value="DDoS-LOIC-HTTP" recordCount="0"/>
													<ScoreDistribution value="DDoS-LOIC-UDP" recordCount="0"/>
													<ScoreDistribution value="DoS GoldenEye" recordCount="0"/>
													<ScoreDistribution value="DoS Hulk" recordCount="0"/>
													<ScoreDistribution value="DoS Slowloris" recordCount="0"/>
												</Node>
												<Node>
													<SimplePredicate field="double(Fwd IAT Min)" operator="lessOrEqual" value="4017.5"/>
													<Node>
														<SimplePredicate field="double(Fwd IAT Min)" operator="lessOrEqual" value="2949.0"/>
														<Node score="DDoS-LOIC-UDP" recordCount="19">
															<SimplePredicate field="double(Fwd IAT Min)" operator="lessOrEqual" value="2939.0"/>
															<ScoreDistribution value="BENIGN" recordCount="0"/>
															<ScoreDistribution value="DDoS-HOIC" recordCount="0"/>
															<ScoreDistribution value="DDoS-LOIC-HTTP" recordCount="0"/>
															<ScoreDistribution value="DDoS-LOIC-UDP" recordCount="19"/>
															<ScoreDistribution value="DoS GoldenEye" recordCount="0"/>
															<ScoreDistribution value="DoS Hulk" recordCount="0"/>
															<ScoreDistribution value="DoS Slowloris" recordCount="0"/>
														</Node>
														<Node score="BENIGN" recordCount="1">
															<True/>
															<ScoreDistribution value="BENIGN" recordCount="1"/>
															<ScoreDistribution value="DDoS-HOIC" recordCount="0"/>
															<ScoreDistribution value="DDoS-LOIC-HTTP" recordCount="0"/>
															<ScoreDistribution value="DDoS-LOIC-UDP" recordCount="0"/>
															<ScoreDistribution value="DoS GoldenEye" recordCount="0"/>
															<ScoreDistribution value="DoS Hulk" recordCount="0"/>
															<ScoreDistribution value="DoS Slowloris" recordCount="0"/>
														</Node>
													</Node>
													<Node score="DDoS-LOIC-UDP" recordCount="33">
														<True/>
														<ScoreDistribution value="BENIGN" recordCount="0"/>
														<ScoreDistribution value="DDoS-HOIC" recordCount="0"/>
														<ScoreDistribution value="DDoS-LOIC-HTTP" recordCount="0"/>
														<ScoreDistribution value="DDoS-LOIC-UDP" recordCount="33"/>
														<ScoreDistribution value="DoS GoldenEye" recordCount="0"/>
														<ScoreDistribution value="DoS Hulk" recordCount="0"/>
														<ScoreDistribution value="DoS Slowloris" recordCount="0"/>
													</Node>
												</Node>
												<Node score="BENIGN" recordCount="1">
													<SimplePredicate field="double(Fwd IAT Min)" operator="lessOrEqual" value="4080.5"/>
													<ScoreDistribution value="BENIGN" recordCount="1"/>
													<ScoreDistribution value="DDoS-HOIC" recordCount="0"/>
													<ScoreDistribution value="DDoS-LOIC-HTTP" recordCount="0"/>
													<ScoreDistribution value="DDoS-LOIC-UDP" recordCount="0"/>
													<ScoreDistribution value="DoS GoldenEye" recordCount="0"/>
													<ScoreDistribution value="DoS Hulk" recordCount="0"/>
													<ScoreDistribution value="DoS Slowloris" recordCount="0"/>
												</Node>
												<Node>
													<SimplePredicate field="double(Fwd IAT Min)" operator="lessOrEqual" value="6360.5"/>
													<Node>
														<SimplePredicate field="double(Fwd IAT Min)" operator="lessOrEqual" value="5620.0"/>
														<Node>
															<SimplePredicate field="double(Fwd IAT Min)" operator="lessOrEqual" value="5180.5"/>
															<Node score="DDoS-LOIC-UDP" recordCount="3">
																<SimplePredicate field="double(Fwd IAT Min)" operator="lessOrEqual" value="4745.0"/>
																<ScoreDistribution value="BENIGN" recordCount="0"/>
																<ScoreDistribution value="DDoS-HOIC" recordCount="0"/>
																<ScoreDistribution value="DDoS-LOIC-HTTP" recordCount="0"/>
																<ScoreDistribution value="DDoS-LOIC-UDP" recordCount="3"/>
																<ScoreDistribution value="DoS GoldenEye" recordCount="0"/>
																<ScoreDistribution value="DoS Hulk" recordCount="0"/>
																<ScoreDistribution value="DoS Slowloris" recordCount="0"/>
															</Node>
															<Node score="BENIGN" recordCount="1">
																<True/>
																<ScoreDistribution value="BENIGN" recordCount="1"/>
																<ScoreDistribution value="DDoS-HOIC" recordCount="0"/>
																<ScoreDistribution value="DDoS-LOIC-HTTP" recordCount="0"/>
																<ScoreDistribution value="DDoS-LOIC-UDP" recordCount="0"/>
																<ScoreDistribution value="DoS GoldenEye" recordCount="0"/>
																<ScoreDistribution value="DoS Hulk" recordCount="0"/>
																<ScoreDistribution value="DoS Slowloris" recordCount="0"/>
															</Node>
														</Node>
														<Node score="DDoS-LOIC-UDP" recordCount="5">
															<True/>
															<ScoreDistribution value="BENIGN" recordCount="0"/>
															<ScoreDistribution value="DDoS-HOIC" recordCount="0"/>
															<ScoreDistribution value="DDoS-LOIC-HTTP" recordCount="0"/>
															<ScoreDistribution value="DDoS-LOIC-UDP" recordCount="5"/>
															<ScoreDistribution value="DoS GoldenEye" recordCount="0"/>
															<ScoreDistribution value="DoS Hulk" recordCount="0"/>
															<ScoreDistribution value="DoS Slowloris" recordCount="0"/>
														</Node>
													</Node>
													<Node score="BENIGN" recordCount="2">
														<True/>
														<ScoreDistribution value="BENIGN" recordCount="2"/>
														<ScoreDistribution value="DDoS-HOIC" recordCount="0"/>
														<ScoreDistribution value="DDoS-LOIC-HTTP" recordCount="0"/>
														<ScoreDistribution value="DDoS-LOIC-UDP" recordCount="0"/>
														<ScoreDistribution value="DoS GoldenEye" recordCount="0"/>
														<ScoreDistribution value="DoS Hulk" recordCount="0"/>
														<ScoreDistribution value="DoS Slowloris" recordCount="0"/>
													</Node>
												</Node>
												<Node score="DDoS-LOIC-UDP" recordCount="12">
													<True/>
													<ScoreDistribution value="BENIGN" recordCount="0"/>
													<ScoreDistribution value="DDoS-HOIC" recordCount="0"/>
													<ScoreDistribution value="DDoS-LOIC-HTTP" recordCount="0"/>
													<ScoreDistribution value="DDoS-LOIC-UDP" recordCount="12"/>
													<ScoreDistribution value="DoS GoldenEye" recordCount="0"/>
													<ScoreDistribution value="DoS Hulk" recordCount="0"/>
													<ScoreDistribution value="DoS Slowloris" recordCount="0"/>
												</Node>
											</Node>
											<Node score="BENIGN" recordCount="18554">
												<True/>
												<ScoreDistribution value="BENIGN" recordCount="18554"/>
												<ScoreDistribution value="DDoS-HOIC" recordCount="0"/>
												<ScoreDistribution value="DDoS-LOIC-HTTP" recordCount="0"/>
												<ScoreDistribution value="DDoS-LOIC-UDP" recordCount="0"/>
												<ScoreDistribution value="DoS GoldenEye" recordCount="0"/>
												<ScoreDistribution value="DoS Hulk" recordCount="0"/>
												<ScoreDistribution value="DoS Slowloris" recordCount="0"/>
											</Node>
										</Node>
										<Node score="BENIGN" recordCount="2724">
											<True/>
											<ScoreDistribution value="BENIGN" recordCount="2724"/>
											<ScoreDistribution value="DDoS-HOIC" recordCount="0"/>
											<ScoreDistribution value="DDoS-LOIC-HTTP" recordCount="0"/>
											<ScoreDistribution value="DDoS-LOIC-UDP" recordCount="0"/>
											<ScoreDistribution value="DoS GoldenEye" recordCount="0"/>
											<ScoreDistribution value="DoS Hulk" recordCount="0"/>
											<ScoreDistribution value="DoS Slowloris" recordCount="0"/>
										</Node>
									</Node>
									<Node score="BENIGN" recordCount="144288">
										<True/>
										<ScoreDistribution value="BENIGN" recordCount="144288"/>
										<ScoreDistribution value="DDoS-HOIC" recordCount="0"/>
										<ScoreDistribution value="DDoS-LOIC-HTTP" recordCount="0"/>
										<ScoreDistribution value="DDoS-LOIC-UDP" recordCount="0"/>
										<ScoreDistribution value="DoS GoldenEye" recordCount="0"/>
										<ScoreDistribution value="DoS Hulk" recordCount="0"/>
										<ScoreDistribution value="DoS Slowloris" recordCount="0"/>
									</Node>
								</Node>
								<Node score="BENIGN" recordCount="1450121">
									<SimplePredicate field="double(Bwd Packet Length Max)" operator="lessOrEqual" value="934.5"/>
									<ScoreDistribution value="BENIGN" recordCount="1450121"/>
									<ScoreDistribution value="DDoS-HOIC" recordCount="0"/>
									<ScoreDistribution value="DDoS-LOIC-HTTP" recordCount="0"/>
									<ScoreDistribution value="DDoS-LOIC-UDP" recordCount="0"/>
									<ScoreDistribution value="DoS GoldenEye" recordCount="0"/>
									<ScoreDistribution value="DoS Hulk" recordCount="0"/>
									<ScoreDistribution value="DoS Slowloris" recordCount="0"/>
								</Node>
								<Node>
									<SimplePredicate field="double(Bwd Segment Size Avg)" operator="lessOrEqual" value="133.58379364013672"/>
									<Node score="DDoS-HOIC" recordCount="2">
										<SimplePredicate field="double(Bwd Header Length)" operator="lessOrEqual" value="172.0"/>
										<ScoreDistribution value="BENIGN" recordCount="0"/>
										<ScoreDistribution value="DDoS-HOIC" recordCount="2"/>
										<ScoreDistribution value="DDoS-LOIC-HTTP" recordCount="0"/>
										<ScoreDistribution value="DDoS-LOIC-UDP" recordCount="0"/>
										<ScoreDistribution value="DoS GoldenEye" recordCount="0"/>
										<ScoreDistribution value="DoS Hulk" recordCount="0"/>
										<ScoreDistribution value="DoS Slowloris" recordCount="0"/>
									</Node>
									<Node score="BENIGN" recordCount="4217">
										<True/>
										<ScoreDistribution value="BENIGN" recordCount="4217"/>
										<ScoreDistribution value="DDoS-HOIC" recordCount="0"/>
										<ScoreDistribution value="DDoS-LOIC-HTTP" recordCount="0"/>
										<ScoreDistribution value="DDoS-LOIC-UDP" recordCount="0"/>
										<ScoreDistribution value="DoS GoldenEye" recordCount="0"/>
										<ScoreDistribution value="DoS Hulk" recordCount="0"/>
										<ScoreDistribution value="DoS Slowloris" recordCount="0"/>
									</Node>
								</Node>
								<Node score="BENIGN" recordCount="217581">
									<True/>
									<ScoreDistribution value="BENIGN" recordCount="217581"/>
									<ScoreDistribution value="DDoS-HOIC" recordCount="0"/>
									<ScoreDistribution value="DDoS-LOIC-HTTP" recordCount="0"/>
									<ScoreDistribution value="DDoS-LOIC-UDP" recordCount="0"/>
									<ScoreDistribution value="DoS GoldenEye" recordCount="0"/>
									<ScoreDistribution value="DoS Hulk" recordCount="0"/>
									<ScoreDistribution value="DoS Slowloris" recordCount="0"/>
								</Node>
							</Node>
							<Node>
								<SimplePredicate field="double(Bwd Header Length)" operator="lessOrEqual" value="96.0"/>
								<Node score="BENIGN" recordCount="18661">
									<SimplePredicate field="double(Bwd Header Length)" operator="lessOrEqual" value="10.0"/>
									<ScoreDistribution value="BENIGN" recordCount="18661"/>
									<ScoreDistribution value="DDoS-HOIC" recordCount="0"/>
									<ScoreDistribution value="DDoS-LOIC-HTTP" recordCount="0"/>
									<ScoreDistribution value="DDoS-LOIC-UDP" recordCount="0"/>
									<ScoreDistribution value="DoS GoldenEye" recordCount="0"/>
									<ScoreDistribution value="DoS Hulk" recordCount="0"/>
									<ScoreDistribution value="DoS Slowloris" recordCount="0"/>
								</Node>
								<Node>
									<SimplePredicate field="double(Bwd IAT Total)" operator="lessOrEqual" value="19.5"/>
									<Node>
										<SimplePredicate field="double(Fwd IAT Min)" operator="lessOrEqual" value="1500118.0"/>
										<Node>
											<SimplePredicate field="double(CWR Flag Count)" operator="lessOrEqual" value="0.5"/>
											<Node score="DoS Slowloris" recordCount="3">
												<SimplePredicate field="double(FWD Init Win Bytes)" operator="lessOrEqual" value="252.5"/>
												<ScoreDistribution value="BENIGN" recordCount="0"/>
												<ScoreDistribution value="DDoS-HOIC" recordCount="0"/>
												<ScoreDistribution value="DDoS-LOIC-HTTP" recordCount="0"/>
												<ScoreDistribution value="DDoS-LOIC-UDP" recordCount="0"/>
												<ScoreDistribution value="DoS GoldenEye" recordCount="0"/>
												<ScoreDistribution value="DoS Hulk" recordCount="0"/>
												<ScoreDistribution value="DoS Slowloris" recordCount="3"/>
											</Node>
											<Node score="BENIGN" recordCount="7951">
												<True/>
												<ScoreDistribution value="BENIGN" recordCount="7951"/>
												<ScoreDistribution value="DDoS-HOIC" recordCount="0"/>
												<ScoreDistribution value="DDoS-LOIC-HTTP" recordCount="0"/>
												<ScoreDistribution value="DDoS-LOIC-UDP" recordCount="0"/>
												<ScoreDistribution value="DoS GoldenEye" recordCount="0"/>
												<ScoreDistribution value="DoS Hulk" recordCount="0"/>
												<ScoreDistribution value="DoS Slowloris" recordCount="0"/>
											</Node>
										</Node>
										<Node score="BENIGN" recordCount="6284">
											<True/>
											<ScoreDistribution value="BENIGN" recordCount="6284"/>
											<ScoreDistribution value="DDoS-HOIC" recordCount="0"/>
											<ScoreDistribution value="DDoS-LOIC-HTTP" recordCount="0"/>
											<ScoreDistribution value="DDoS-LOIC-UDP" recordCount="0"/>
											<ScoreDistribution value="DoS GoldenEye" recordCount="0"/>
											<ScoreDistribution value="DoS Hulk" recordCount="0"/>
											<ScoreDistribution value="DoS Slowloris" recordCount="0"/>
										</Node>
									</Node>
									<Node score="BENIGN" recordCount="11">
										<True/>
										<ScoreDistribution value="BENIGN" recordCount="11"/>
										<ScoreDistribution value="DDoS-HOIC" recordCount="0"/>
										<ScoreDistribution value="DDoS-LOIC-HTTP" recordCount="0"/>
										<ScoreDistribution value="DDoS-LOIC-UDP" recordCount="0"/>
										<ScoreDistribution value="DoS GoldenEye" recordCount="0"/>
										<ScoreDistribution value="DoS Hulk" recordCount="0"/>
										<ScoreDistribution value="DoS Slowloris" recordCount="0"/>
									</Node>
								</Node>
								<Node score="BENIGN" recordCount="1073">
									<True/>
									<ScoreDistribution value="BENIGN" recordCount="1073"/>
									<ScoreDistribution value="DDoS-HOIC" recordCount="0"/>
									<ScoreDistribution value="DDoS-LOIC-HTTP" recordCount="0"/>
									<ScoreDistribution value="DDoS-LOIC-UDP" recordCount="0"/>
									<ScoreDistribution value="DoS GoldenEye" recordCount="0"/>
									<ScoreDistribution value="DoS Hulk" recordCount="0"/>
									<ScoreDistribution value="DoS Slowloris" recordCount="0"/>
								</Node>
							</Node>
							<Node score="DoS Slowloris" recordCount="3624">
								<SimplePredicate field="double(Bwd Header Length)" operator="lessOrEqual" value="106.0"/>
								<ScoreDistribution value="BENIGN" recordCount="0"/>
								<ScoreDistribution value="DDoS-HOIC" recordCount="0"/>
								<ScoreDistribution value="DDoS-LOIC-HTTP" recordCount="0"/>
								<ScoreDistribution value="DDoS-LOIC-UDP" recordCount="0"/>
								<ScoreDistribution value="DoS GoldenEye" recordCount="0"/>
								<ScoreDistribution value="DoS Hulk" recordCount="0"/>
								<ScoreDistribution value="DoS Slowloris" recordCount="3624"/>
							</Node>
							<Node score="BENIGN" recordCount="3116">
								<SimplePredicate field="double(Bwd Packet Length Max)" operator="lessOrEqual" value="562.0"/>
								<ScoreDistribution value="BENIGN" recordCount="3116"/>
								<ScoreDistribution value="DDoS-HOIC" recordCount="0"/>
								<ScoreDistribution value="DDoS-LOIC-HTTP" recordCount="0"/>
								<ScoreDistribution value="DDoS-LOIC-UDP" recordCount="0"/>
								<ScoreDistribution value="DoS GoldenEye" recordCount="0"/>
								<ScoreDistribution value="DoS Hulk" recordCount="0"/>
								<ScoreDistribution value="DoS Slowloris" recordCount="0"/>
							</Node>
							<Node score="DoS Hulk" recordCount="3197">
								<SimplePredicate field="double(Bwd IAT Total)" operator="lessOrEqual" value="5.3373788E7"/>
								<ScoreDistribution value="BENIGN" recordCount="0"/>
								<ScoreDistribution value="DDoS-HOIC" recordCount="0"/>
								<ScoreDistribution value="DDoS-LOIC-HTTP" recordCount="0"/>
								<ScoreDistribution value="DDoS-LOIC-UDP" recordCount="0"/>
								<ScoreDistribution value="DoS GoldenEye" recordCount="0"/>
								<ScoreDistribution value="DoS Hulk" recordCount="3197"/>
								<ScoreDistribution value="DoS Slowloris" recordCount="0"/>
							</Node>
							<Node score="DoS GoldenEye" recordCount="726">
								<True/>
								<ScoreDistribution value="BENIGN" recordCount="0"/>
								<ScoreDistribution value="DDoS-HOIC" recordCount="0"/>
								<ScoreDistribution value="DDoS-LOIC-HTTP" recordCount="0"/>
								<ScoreDistribution value="DDoS-LOIC-UDP" recordCount="0"/>
								<ScoreDistribution value="DoS GoldenEye" recordCount="726"/>
								<ScoreDistribution value="DoS Hulk" recordCount="0"/>
								<ScoreDistribution value="DoS Slowloris" recordCount="0"/>
							</Node>
						</Node>
						<Node>
							<SimplePredicate field="double(FWD Init Win Bytes)" operator="lessOrEqual" value="65420.0"/>
							<Node>
								<SimplePredicate field="double(Fwd Seg Size Min)" operator="lessOrEqual" value="30.0"/>
								<Node>
									<SimplePredicate field="double(Bwd Init Win Bytes)" operator="lessOrEqual" value="211.5"/>
									<Node score="BENIGN" recordCount="61">
										<SimplePredicate field="double(Bwd Packet Length Std)" operator="lessOrEqual" value="420.5876770019531"/>
										<ScoreDistribution value="BENIGN" recordCount="61"/>
										<ScoreDistribution value="DDoS-HOIC" recordCount="0"/>
										<ScoreDistribution value="DDoS-LOIC-HTTP" recordCount="0"/>
										<ScoreDistribution value="DDoS-LOIC-UDP" recordCount="0"/>
										<ScoreDistribution value="DoS GoldenEye" recordCount="0"/>
										<ScoreDistribution value="DoS Hulk" recordCount="0"/>
										<ScoreDistribution value="DoS Slowloris" recordCount="0"/>
									</Node>
									<Node score="DDoS-LOIC-HTTP" recordCount="230754">
										<SimplePredicate field="double(Bwd IAT Total)" operator="lessOrEqual" value="3551336.5"/>
										<ScoreDistribution value="BENIGN" recordCount="0"/>
										<ScoreDistribution value="DDoS-HOIC" recordCount="0"/>
										<ScoreDistribution value="DDoS-LOIC-HTTP" recordCount="230754"/>
										<ScoreDistribution value="DDoS-LOIC-UDP" recordCount="0"/>
										<ScoreDistribution value="DoS GoldenEye" recordCount="0"/>
										<ScoreDistribution value="DoS Hulk" recordCount="0"/>
										<ScoreDistribution value="DoS Slowloris" recordCount="0"/>
									</Node>
									<Node score="BENIGN" recordCount="32">
										<True/>
										<ScoreDistribution value="BENIGN" recordCount="32"/>
										<ScoreDistribution value="DDoS-HOIC" recordCount="0"/>
										<ScoreDistribution value="DDoS-LOIC-HTTP" recordCount="0"/>
										<ScoreDistribution value="DDoS-LOIC-UDP" recordCount="0"/>
										<ScoreDistribution value="DoS GoldenEye" recordCount="0"/>
										<ScoreDistribution value="DoS Hulk" recordCount="0"/>
										<ScoreDistribution value="DoS Slowloris" recordCount="0"/>
									</Node>
								</Node>
								<Node>
									<SimplePredicate field="double(FIN Flag Count)" operator="lessOrEqual" value="1.5"/>
									<Node>
										<SimplePredicate field="double(Bwd Init Win Bytes)" operator="lessOrEqual" value="219.5"/>
										<Node>
											<SimplePredicate field="double(Bwd Header Length)" operator="lessOrEqual" value="138.0"/>
											<Node score="BENIGN" recordCount="29">
												<SimplePredicate field="double(FIN Flag Count)" operator="lessOrEqual" value="0.5"/>
												<ScoreDistribution value="BENIGN" recordCount="29"/>
												<ScoreDistribution value="DDoS-HOIC" recordCount="0"/>
												<ScoreDistribution value="DDoS-LOIC-HTTP" recordCount="0"/>
												<ScoreDistribution value="DDoS-LOIC-UDP" recordCount="0"/>
												<ScoreDistribution value="DoS GoldenEye" recordCount="0"/>
												<ScoreDistribution value="DoS Hulk" recordCount="0"/>
												<ScoreDistribution value="DoS Slowloris" recordCount="0"/>
											</Node>
											<Node score="DoS GoldenEye" recordCount="2">
												<True/>
												<ScoreDistribution value="BENIGN" recordCount="0"/>
												<ScoreDistribution value="DDoS-HOIC" recordCount="0"/>
												<ScoreDistribution value="DDoS-LOIC-HTTP" recordCount="0"/>
												<ScoreDistribution value="DDoS-LOIC-UDP" recordCount="0"/>
												<ScoreDistribution value="DoS GoldenEye" recordCount="2"/>
												<ScoreDistribution value="DoS Hulk" recordCount="0"/>
												<ScoreDistribution value="DoS Slowloris" recordCount="0"/>
											</Node>
										</Node>
										<Node score="BENIGN" recordCount="533">
											<True/>
											<ScoreDistribution value="BENIGN" recordCount="533"/>
											<ScoreDistribution value="DDoS-HOIC" recordCount="0"/>
											<ScoreDistribution value="DDoS-LOIC-HTTP" recordCount="0"/>
											<ScoreDistribution value="DDoS-LOIC-UDP" recordCount="0"/>
											<ScoreDistribution value="DoS GoldenEye" recordCount="0"/>
											<ScoreDistribution value="DoS Hulk" recordCount="0"/>
											<ScoreDistribution value="DoS Slowloris" recordCount="0"/>
										</Node>
									</Node>
									<Node score="BENIGN" recordCount="532243">
										<True/>
										<ScoreDistribution value="BENIGN" recordCount="532243"/>
										<ScoreDistribution value="DDoS-HOIC" recordCount="0"/>
										<ScoreDistribution value="DDoS-LOIC-HTTP" recordCount="0"/>
										<ScoreDistribution value="DDoS-LOIC-UDP" recordCount="0"/>
										<ScoreDistribution value="DoS GoldenEye" recordCount="0"/>
										<ScoreDistribution value="DoS Hulk" recordCount="0"/>
										<ScoreDistribution value="DoS Slowloris" recordCount="0"/>
									</Node>
								</Node>
								<Node>
									<SimplePredicate field="double(Bwd Init Win Bytes)" operator="lessOrEqual" value="219.5"/>
									<Node>
										<SimplePredicate field="double(Bwd Header Length)" operator="lessOrEqual" value="160.0"/>
										<Node>
											<SimplePredicate field="double(FWD Init Win Bytes)" operator="lessOrEqual" value="232.0"/>
											<Node score="BENIGN" recordCount="6">
												<SimplePredicate field="double(FWD Init Win Bytes)" operator="lessOrEqual" value="105.5"/>
												<ScoreDistribution value="BENIGN" recordCount="6"/>
												<ScoreDistribution value="DDoS-HOIC" recordCount="0"/>
												<ScoreDistribution value="DDoS-LOIC-HTTP" recordCount="0"/>
												<ScoreDistribution value="DDoS-LOIC-UDP" recordCount="0"/>
												<ScoreDistribution value="DoS GoldenEye" recordCount="0"/>
												<ScoreDistribution value="DoS Hulk" recordCount="0"/>
												<ScoreDistribution value="DoS Slowloris" recordCount="0"/>
											</Node>
											<Node score="DoS Slowloris" recordCount="205">
												<True/>
												<ScoreDistribution value="BENIGN" recordCount="0"/>
												<ScoreDistribution value="DDoS-HOIC" recordCount="0"/>
												<ScoreDistribution value="DDoS-LOIC-HTTP" recordCount="0"/>
												<ScoreDistribution value="DDoS-LOIC-UDP" recordCount="0"/>
												<ScoreDistribution value="DoS GoldenEye" recordCount="0"/>
												<ScoreDistribution value="DoS Hulk" recordCount="0"/>
												<ScoreDistribution value="DoS Slowloris" recordCount="205"/>
											</Node>
										</Node>
										<Node>
											<SimplePredicate field="double(CWR Flag Count)" operator="lessOrEqual" value="0.5"/>
											<Node score="BENIGN" recordCount="440">
												<SimplePredicate field="double(Bwd Segment Size Avg)" operator="lessOrEqual" value="77.5714282989502"/>
												<ScoreDistribution value="BENIGN" recordCount="440"/>
												<ScoreDistribution value="DDoS-HOIC" recordCount="0"/>
												<ScoreDistribution value="DDoS-LOIC-HTTP" recordCount="0"/>
												<ScoreDistribution value="DDoS-LOIC-UDP" recordCount="0"/>
												<ScoreDistribution value="DoS GoldenEye" recordCount="0"/>
												<ScoreDistribution value="DoS Hulk" recordCount="0"/>
												<ScoreDistribution value="DoS Slowloris" recordCount="0"/>
											</Node>
											<Node score="DoS Slowloris" recordCount="66">
												<SimplePredicate field="double(Bwd Header Length)" operator="lessOrEqual" value="148.0"/>
												<ScoreDistribution value="BENIGN" recordCount="0"/>
												<ScoreDistribution value="DDoS-HOIC" recordCount="0"/>
												<ScoreDistribution value="DDoS-LOIC-HTTP" recordCount="0"/>
												<ScoreDistribution value="DDoS-LOIC-UDP" recordCount="0"/>
												<ScoreDistribution value="DoS GoldenEye" recordCount="0"/>
												<ScoreDistribution value="DoS Hulk" recordCount="0"/>
												<ScoreDistribution value="DoS Slowloris" recordCount="66"/>
											</Node>
											<Node score="BENIGN" recordCount="6">
												<True/>
												<ScoreDistribution value="BENIGN" recordCount="6"/>
												<ScoreDistribution value="DDoS-HOIC" recordCount="0"/>
												<ScoreDistribution value="DDoS-LOIC-HTTP" recordCount="0"/>
												<ScoreDistribution value="DDoS-LOIC-UDP" recordCount="0"/>
												<ScoreDistribution value="DoS GoldenEye" recordCount="0"/>
												<ScoreDistribution value="DoS Hulk" recordCount="0"/>
												<ScoreDistribution value="DoS Slowloris" recordCount="0"/>
											</Node>
										</Node>
										<Node score="BENIGN" recordCount="914">
											<True/>
											<ScoreDistribution value="BENIGN" recordCount="914"/>
											<ScoreDistribution value="DDoS-HOIC" recordCount="0"/>
											<ScoreDistribution value="DDoS-LOIC-HTTP" recordCount="0"/>
											<ScoreDistribution value="DDoS-LOIC-UDP" recordCount="0"/>
											<ScoreDistribution value="DoS GoldenEye" recordCount="0"/>
											<ScoreDistribution value="DoS Hulk" recordCount="0"/>
											<ScoreDistribution value="DoS Slowloris" recordCount="0"/>
										</Node>
									</Node>
									<Node>
										<SimplePredicate field="double(Bwd Packet Length Max)" operator="lessOrEqual" value="1142.5"/>
										<Node>
											<SimplePredicate field="double(CWR Flag Count)" operator="lessOrEqual" value="0.5"/>
											<Node score="DoS Hulk" recordCount="1423">
												<SimplePredicate field="double(Bwd IAT Total)" operator="lessOrEqual" value="3082080.5"/>
												<ScoreDistribution value="BENIGN" recordCount="0"/>
												<ScoreDistribution value="DDoS-HOIC" recordCount="0"/>
												<ScoreDistribution value="DDoS-LOIC-HTTP" recordCount="0"/>
												<ScoreDistribution value="DDoS-LOIC-UDP" recordCount="0"/>
												<ScoreDistribution value="DoS GoldenEye" recordCount="0"/>
												<ScoreDistribution value="DoS Hulk" recordCount="1423"/>
												<ScoreDistribution value="DoS Slowloris" recordCount="0"/>
											</Node>
											<Node score="BENIGN" recordCount="18">
												<True/>
												<ScoreDistribution value="BENIGN" recordCount="18"/>
												<ScoreDistribution value="DDoS-HOIC" recordCount="0"/>
												<ScoreDistribution value="DDoS-LOIC-HTTP" recordCount="0"/>
												<ScoreDistribution value="DDoS-LOIC-UDP" recordCount="0"/>
												<ScoreDistribution value="DoS GoldenEye" recordCount="0"/>
												<ScoreDistribution value="DoS Hulk" recordCount="0"/>
												<ScoreDistribution value="DoS Slowloris" recordCount="0"/>
											</Node>
										</Node>
										<Node score="BENIGN" recordCount="16">
											<True/>
											<ScoreDistribution value="BENIGN" recordCount="16"/>
											<ScoreDistribution value="DDoS-HOIC" recordCount="0"/>
											<ScoreDistribution value="DDoS-LOIC-HTTP" recordCount="0"/>
											<ScoreDistribution value="DDoS-LOIC-UDP" recordCount="0"/>
											<ScoreDistribution value="DoS GoldenEye" recordCount="0"/>
											<ScoreDistribution value="DoS Hulk" recordCount="0"/>
											<ScoreDistribution value="DoS Slowloris" recordCount="0"/>
										</Node>
									</Node>
									<Node score="BENIGN" recordCount="137">
										<True/>
										<ScoreDistribution value="BENIGN" recordCount="137"/>
										<ScoreDistribution value="DDoS-HOIC" recordCount="0"/>
										<ScoreDistribution value="DDoS-LOIC-HTTP" recordCount="0"/>
										<ScoreDistribution value="DDoS-LOIC-UDP" recordCount="0"/>
										<ScoreDistribution value="DoS GoldenEye" recordCount="0"/>
										<ScoreDistribution value="DoS Hulk" recordCount="0"/>
										<ScoreDistribution value="DoS Slowloris" recordCount="0"/>
									</Node>
								</Node>
								<Node>
									<SimplePredicate field="double(Fwd IAT Min)" operator="lessOrEqual" value="242.5"/>
									<Node score="BENIGN" recordCount="104242">
										<SimplePredicate field="double(FWD Init Win Bytes)" operator="lessOrEqual" value="25888.0"/>
										<ScoreDistribution value="BENIGN" recordCount="104242"/>
										<ScoreDistribution value="DDoS-HOIC" recordCount="0"/>
										<ScoreDistribution value="DDoS-LOIC-HTTP" recordCount="0"/>
										<ScoreDistribution value="DDoS-LOIC-UDP" recordCount="0"/>
										<ScoreDistribution value="DoS GoldenEye" recordCount="0"/>
										<ScoreDistribution value="DoS Hulk" recordCount="0"/>
										<ScoreDistribution value="DoS Slowloris" recordCount="0"/>
									</Node>
									<Node score="DoS Hulk" recordCount="85">
										<SimplePredicate field="double(Bwd Init Win Bytes)" operator="lessOrEqual" value="244.5"/>
										<ScoreDistribution value="BENIGN" recordCount="0"/>
										<ScoreDistribution value="DDoS-HOIC" recordCount="0"/>
										<ScoreDistribution value="DDoS-LOIC-HTTP" recordCount="0"/>
										<ScoreDistribution value="DDoS-LOIC-UDP" recordCount="0"/>
										<ScoreDistribution value="DoS GoldenEye" recordCount="0"/>
										<ScoreDistribution value="DoS Hulk" recordCount="85"/>
										<ScoreDistribution value="DoS Slowloris" recordCount="0"/>
									</Node>
									<Node score="BENIGN" recordCount="1208">
										<True/>
										<ScoreDistribution value="BENIGN" recordCount="1208"/>
										<ScoreDistribution value="DDoS-HOIC" recordCount="0"/>
										<ScoreDistribution value="DDoS-LOIC-HTTP" recordCount="0"/>
										<ScoreDistribution value="DDoS-LOIC-UDP" recordCount="0"/>
										<ScoreDistribution value="DoS GoldenEye" recordCount="0"/>
										<ScoreDistribution value="DoS Hulk" recordCount="0"/>
										<ScoreDistribution value="DoS Slowloris" recordCount="0"/>
									</Node>
								</Node>
								<Node>
									<SimplePredicate field="double(Bwd Init Win Bytes)" operator="lessOrEqual" value="237.5"/>
									<Node score="BENIGN" recordCount="1747">
										<SimplePredicate field="double(Bwd Packet Length Std)" operator="lessOrEqual" value="409.78369140625"/>
										<ScoreDistribution value="BENIGN" recordCount="1747"/>
										<ScoreDistribution value="DDoS-HOIC" recordCount="0"/>
										<ScoreDistribution value="DDoS-LOIC-HTTP" recordCount="0"/>
										<ScoreDistribution value="DDoS-LOIC-UDP" recordCount="0"/>
										<ScoreDistribution value="DoS GoldenEye" recordCount="0"/>
										<ScoreDistribution value="DoS Hulk" recordCount="0"/>
										<ScoreDistribution value="DoS Slowloris" recordCount="0"/>
									</Node>
									<Node score="BENIGN" recordCount="168">
										<SimplePredicate field="double(FWD Init Win Bytes)" operator="lessOrEqual" value="17537.5"/>
										<ScoreDistribution value="BENIGN" recordCount="168"/>
										<ScoreDistribution value="DDoS-HOIC" recordCount="0"/>
										<ScoreDistribution value="DDoS-LOIC-HTTP" recordCount="0"/>
										<ScoreDistribution value="DDoS-LOIC-UDP" recordCount="0"/>
										<ScoreDistribution value="DoS GoldenEye" recordCount="0"/>
										<ScoreDistribution value="DoS Hulk" recordCount="0"/>
										<ScoreDistribution value="DoS Slowloris" recordCount="0"/>
									</Node>
									<Node score="DoS Hulk" recordCount="1329">
										<True/>
										<ScoreDistribution value="BENIGN" recordCount="0"/>
										<ScoreDistribution value="DDoS-HOIC" recordCount="0"/>
										<ScoreDistribution value="DDoS-LOIC-HTTP" recordCount="0"/>
										<ScoreDistribution value="DDoS-LOIC-UDP" recordCount="0"/>
										<ScoreDistribution value="DoS GoldenEye" recordCount="0"/>
										<ScoreDistribution value="DoS Hulk" recordCount="1329"/>
										<ScoreDistribution value="DoS Slowloris" recordCount="0"/>
									</Node>
								</Node>
								<Node score="BENIGN" recordCount="40121">
									<True/>
									<ScoreDistribution value="BENIGN" recordCount="40121"/>
									<ScoreDistribution value="DDoS-HOIC" recordCount="0"/>
									<ScoreDistribution value="DDoS-LOIC-HTTP" recordCount="0"/>
									<ScoreDistribution value="DDoS-LOIC-UDP" recordCount="0"/>
									<ScoreDistribution value="DoS GoldenEye" recordCount="0"/>
									<ScoreDistribution value="DoS Hulk" recordCount="0"/>
									<ScoreDistribution value="DoS Slowloris" recordCount="0"/>
								</Node>
							</Node>
							<Node>
								<SimplePredicate field="double(FIN Flag Count)" operator="lessOrEqual" value="1.5"/>
								<Node>
									<SimplePredicate field="double(FWD Init Win Bytes)" operator="lessOrEqual" value="17537.5"/>
									<Node score="DoS Slowloris" recordCount="2604">
										<SimplePredicate field="double(Bwd Init Win Bytes)" operator="lessOrEqual" value="235.0"/>
										<ScoreDistribution value="BENIGN" recordCount="0"/>
										<ScoreDistribution value="DDoS-HOIC" recordCount="0"/>
										<ScoreDistribution value="DDoS-LOIC-HTTP" recordCount="0"/>
										<ScoreDistribution value="DDoS-LOIC-UDP" recordCount="0"/>
										<ScoreDistribution value="DoS GoldenEye" recordCount="0"/>
										<ScoreDistribution value="DoS Hulk" recordCount="0"/>
										<ScoreDistribution value="DoS Slowloris" recordCount="2604"/>
									</Node>
									<Node score="BENIGN" recordCount="1466">
										<True/>
										<ScoreDistribution value="BENIGN" recordCount="1466"/>
										<ScoreDistribution value="DDoS-HOIC" recordCount="0"/>
										<ScoreDistribution value="DDoS-LOIC-HTTP" recordCount="0"/>
										<ScoreDistribution value="DDoS-LOIC-UDP" recordCount="0"/>
										<ScoreDistribution value="DoS GoldenEye" recordCount="0"/>
										<ScoreDistribution value="DoS Hulk" recordCount="0"/>
										<ScoreDistribution value="DoS Slowloris" recordCount="0"/>
									</Node>
								</Node>
								<Node>
									<SimplePredicate field="double(Bwd IAT Total)" operator="lessOrEqual" value="894109.0"/>
									<Node>
										<SimplePredicate field="double(Fwd IAT Min)" operator="lessOrEqual" value="688.0"/>
										<Node>
											<SimplePredicate field="double(Bwd Packet Length Max)" operator="lessOrEqual" value="66.5"/>
											<Node>
												<SimplePredicate field="double(Fwd IAT Min)" operator="lessOrEqual" value="517.5"/>
												<Node>
													<SimplePredicate field="double(Bwd Init Win Bytes)" operator="lessOrEqual" value="228.0"/>
													<Node score="DoS Slowloris" recordCount="9">
														<SimplePredicate field="double(Bwd IAT Total)" operator="lessOrEqual" value="123042.0"/>
														<ScoreDistribution value="BENIGN" recordCount="0"/>
														<ScoreDistribution value="DDoS-HOIC" recordCount="0"/>
														<ScoreDistribution value="DDoS-LOIC-HTTP" recordCount="0"/>
														<ScoreDistribution value="DDoS-LOIC-UDP" recordCount="0"/>
														<ScoreDistribution value="DoS GoldenEye" recordCount="0"/>
														<ScoreDistribution value="DoS Hulk" recordCount="0"/>
														<ScoreDistribution value="DoS Slowloris" recordCount="9"/>
													</Node>
													<Node score="DoS Hulk" recordCount="3">
														<SimplePredicate field="double(Bwd IAT Total)" operator="lessOrEqual" value="537789.5"/>
														<ScoreDistribution value="BENIGN" recordCount="0"/>
														<ScoreDistribution value="DDoS-HOIC" recordCount="0"/>
														<ScoreDistribution value="DDoS-LOIC-HTTP" recordCount="0"/>
														<ScoreDistribution value="DDoS-LOIC-UDP" recordCount="0"/>
														<ScoreDistribution value="DoS GoldenEye" recordCount="0"/>
														<ScoreDistribution value="DoS Hulk" recordCount="3"/>
														<ScoreDistribution value="DoS Slowloris" recordCount="0"/>
													</Node>
													<Node score="DoS Slowloris" recordCount="2">
														<True/>
														<ScoreDistribution value="BENIGN" recordCount="0"/>
														<ScoreDistribution value="DDoS-HOIC" recordCount="0"/>
														<ScoreDistribution value="DDoS-LOIC-HTTP" recordCount="0"/>
														<ScoreDistribution value="DDoS-LOIC-UDP" recordCount="0"/>
														<ScoreDistribution value="DoS GoldenEye" recordCount="0"/>
														<ScoreDistribution value="DoS Hulk" recordCount="0"/>
														<ScoreDistribution value="DoS Slowloris" recordCount="2"/>
													</Node>
												</Node>
												<Node score="DoS Hulk" recordCount="15">
													<True/>
													<ScoreDistribution value="BENIGN" recordCount="0"/>
													<ScoreDistribution value="DDoS-HOIC" recordCount="0"/>
													<ScoreDistribution value="DDoS-LOIC-HTTP" recordCount="0"/>
													<ScoreDistribution value="DDoS-LOIC-UDP" recordCount="0"/>
													<ScoreDistribution value="DoS GoldenEye" recordCount="0"/>
													<ScoreDistribution value="DoS Hulk" recordCount="15"/>
													<ScoreDistribution value="DoS Slowloris" recordCount="0"/>
												</Node>
											</Node>
											<Node score="DoS Slowloris" recordCount="8">
												<SimplePredicate field="double(Bwd IAT Total)" operator="lessOrEqual" value="121921.0"/>
												<ScoreDistribution value="BENIGN" recordCount="0"/>
												<ScoreDistribution value="DDoS-HOIC" recordCount="0"/>
												<ScoreDistribution value="DDoS-LOIC-HTTP" recordCount="0"/>
												<ScoreDistribution value="DDoS-LOIC-UDP" recordCount="0"/>
												<ScoreDistribution value="DoS GoldenEye" recordCount="0"/>
												<ScoreDistribution value="DoS Hulk" recordCount="0"/>
												<ScoreDistribution value="DoS Slowloris" recordCount="8"/>
											</Node>
											<Node score="DoS Hulk" recordCount="3">
												<SimplePredicate field="double(Bwd IAT Total)" operator="lessOrEqual" value="540520.0"/>
												<ScoreDistribution value="BENIGN" recordCount="0"/>
												<ScoreDistribution value="DDoS-HOIC" recordCount="0"/>
												<ScoreDistribution value="DDoS-LOIC-HTTP" recordCount="0"/>
												<ScoreDistribution value="DDoS-LOIC-UDP" recordCount="0"/>
												<ScoreDistribution value="DoS GoldenEye" recordCount="0"/>
												<ScoreDistribution value="DoS Hulk" recordCount="3"/>
												<ScoreDistribution value="DoS Slowloris" recordCount="0"/>
											</Node>
											<Node score="DoS Slowloris" recordCount="2">
												<True/>
												<ScoreDistribution value="BENIGN" recordCount="0"/>
												<ScoreDistribution value="DDoS-HOIC" recordCount="0"/>
												<ScoreDistribution value="DDoS-LOIC-HTTP" recordCount="0"/>
												<ScoreDistribution value="DDoS-LOIC-UDP" recordCount="0"/>
												<ScoreDistribution value="DoS GoldenEye" recordCount="0"/>
												<ScoreDistribution value="DoS Hulk" recordCount="0"/>
												<ScoreDistribution value="DoS Slowloris" recordCount="2"/>
											</Node>
										</Node>
										<Node score="BENIGN" recordCount="10">
											<SimplePredicate field="double(Bwd Segment Size Avg)" operator="lessOrEqual" value="192.95833587646484"/>
											<ScoreDistribution value="BENIGN" recordCount="10"/>
											<ScoreDistribution value="DDoS-HOIC" recordCount="0"/>
											<ScoreDistribution value="DDoS-LOIC-HTTP" recordCount="0"/>
											<ScoreDistribution value="DDoS-LOIC-UDP" recordCount="0"/>
											<ScoreDistribution value="DoS GoldenEye" recordCount="0"/>
											<ScoreDistribution value="DoS Hulk" recordCount="0"/>
											<ScoreDistribution value="DoS Slowloris" recordCount="0"/>
										</Node>
										<Node score="DoS Hulk" recordCount="4">
											<True/>
											<ScoreDistribution value="BENIGN" recordCount="0"/>
											<ScoreDistribution value="DDoS-HOIC" recordCount="0"/>
											<ScoreDistribution value="DDoS-LOIC-HTTP" recordCount="0"/>
											<ScoreDistribution value="DDoS-LOIC-UDP" recordCount="0"/>
											<ScoreDistribution value="DoS GoldenEye" recordCount="0"/>
											<ScoreDistribution value="DoS Hulk" recordCount="4"/>
											<ScoreDistribution value="DoS Slowloris" recordCount="0"/>
										</Node>
									</Node>
									<Node score="DoS Hulk" recordCount="149">
										<SimplePredicate field="double(Bwd Init Win Bytes)" operator="lessOrEqual" value="4214.5"/>
										<ScoreDistribution value="BENIGN" recordCount="0"/>
										<ScoreDistribution value="DDoS-HOIC" recordCount="0"/>
										<ScoreDistribution value="DDoS-LOIC-HTTP" recordCount="0"/>
										<ScoreDistribution value="DDoS-LOIC-UDP" recordCount="0"/>
										<ScoreDistribution value="DoS GoldenEye" recordCount="0"/>
										<ScoreDistribution value="DoS Hulk" recordCount="149"/>
										<ScoreDistribution value="DoS Slowloris" recordCount="0"/>
									</Node>
									<Node score="DoS Hulk" recordCount="49">
										<SimplePredicate field="double(Fwd IAT Min)" operator="lessOrEqual" value="81481.0"/>
										<ScoreDistribution value="BENIGN" recordCount="0"/>
										<ScoreDistribution value="DDoS-HOIC" recordCount="0"/>
										<ScoreDistribution value="DDoS-LOIC-HTTP" recordCount="0"/>
										<ScoreDistribution value="DDoS-LOIC-UDP" recordCount="0"/>
										<ScoreDistribution value="DoS GoldenEye" recordCount="0"/>
										<ScoreDistribution value="DoS Hulk" recordCount="49"/>
										<ScoreDistribution value="DoS Slowloris" recordCount="0"/>
									</Node>
									<Node score="BENIGN" recordCount="7">
										<True/>
										<ScoreDistribution value="BENIGN" recordCount="7"/>
										<ScoreDistribution value="DDoS-HOIC" recordCount="0"/>
										<ScoreDistribution value="DDoS-LOIC-HTTP" recordCount="0"/>
										<ScoreDistribution value="DDoS-LOIC-UDP" recordCount="0"/>
										<ScoreDistribution value="DoS GoldenEye" recordCount="0"/>
										<ScoreDistribution value="DoS Hulk" recordCount="0"/>
										<ScoreDistribution value="DoS Slowloris" recordCount="0"/>
									</Node>
								</Node>
								<Node>
									<SimplePredicate field="double(Bwd Init Win Bytes)" operator="lessOrEqual" value="241.0"/>
									<Node score="DoS Slowloris" recordCount="205">
										<SimplePredicate field="double(Bwd Segment Size Avg)" operator="lessOrEqual" value="66.19999694824219"/>
										<ScoreDistribution value="BENIGN" recordCount="0"/>
										<ScoreDistribution value="DDoS-HOIC" recordCount="0"/>
										<ScoreDistribution value="DDoS-LOIC-HTTP" recordCount="0"/>
										<ScoreDistribution value="DDoS-LOIC-UDP" recordCount="0"/>
										<ScoreDistribution value="DoS GoldenEye" recordCount="0"/>
										<ScoreDistribution value="DoS Hulk" recordCount="0"/>
										<ScoreDistribution value="DoS Slowloris" recordCount="205"/>
									</Node>
									<Node score="DoS GoldenEye" recordCount="17256">
										<True/>
										<ScoreDistribution value="BENIGN" recordCount="0"/>
										<ScoreDistribution value="DDoS-HOIC" recordCount="0"/>
										<ScoreDistribution value="DDoS-LOIC-HTTP" recordCount="0"/>
										<ScoreDistribution value="DDoS-LOIC-UDP" recordCount="0"/>
										<ScoreDistribution value="DoS GoldenEye" recordCount="17256"/>
										<ScoreDistribution value="DoS Hulk" recordCount="0"/>
										<ScoreDistribution value="DoS Slowloris" recordCount="0"/>
									</Node>
								</Node>
								<Node score="DoS Slowloris" recordCount="19">
									<SimplePredicate field="double(Bwd Packet Length Max)" operator="lessOrEqual" value="204.5"/>
									<ScoreDistribution value="BENIGN" recordCount="0"/>
									<ScoreDistribution value="DDoS-HOIC" recordCount="0"/>
									<ScoreDistribution value="DDoS-LOIC-HTTP" recordCount="0"/>
									<ScoreDistribution value="DDoS-LOIC-UDP" recordCount="0"/>
									<ScoreDistribution value="DoS GoldenEye" recordCount="0"/>
									<ScoreDistribution value="DoS Hulk" recordCount="0"/>
									<ScoreDistribution value="DoS Slowloris" recordCount="19"/>
								</Node>
								<Node score="BENIGN" recordCount="4">
									<True/>
									<ScoreDistribution value="BENIGN" recordCount="4"/>
									<ScoreDistribution value="DDoS-HOIC" recordCount="0"/>
									<ScoreDistribution value="DDoS-LOIC-HTTP" recordCount="0"/>
									<ScoreDistribution value="DDoS-LOIC-UDP" recordCount="0"/>
									<ScoreDistribution value="DoS GoldenEye" recordCount="0"/>
									<ScoreDistribution value="DoS Hulk" recordCount="0"/>
									<ScoreDistribution value="DoS Slowloris" recordCount="0"/>
								</Node>
							</Node>
							<Node score="DoS Hulk" recordCount="1437320">
								<SimplePredicate field="double(Bwd Init Win Bytes)" operator="lessOrEqual" value="246.5"/>
								<ScoreDistribution value="BENIGN" recordCount="0"/>
								<ScoreDistribution value="DDoS-HOIC" recordCount="0"/>
								<ScoreDistribution value="DDoS-LOIC-HTTP" recordCount="0"/>
								<ScoreDistribution value="DDoS-LOIC-UDP" recordCount="0"/>
								<ScoreDistribution value="DoS GoldenEye" recordCount="0"/>
								<ScoreDistribution value="DoS Hulk" recordCount="1437320"/>
								<ScoreDistribution value="DoS Slowloris" recordCount="0"/>
							</Node>
							<Node score="BENIGN" recordCount="81">
								<True/>
								<ScoreDistribution value="BENIGN" recordCount="81"/>
								<ScoreDistribution value="DDoS-HOIC" recordCount="0"/>
								<ScoreDistribution value="DDoS-LOIC-HTTP" recordCount="0"/>
								<ScoreDistribution value="DDoS-LOIC-UDP" recordCount="0"/>
								<ScoreDistribution value="DoS GoldenEye" recordCount="0"/>
								<ScoreDistribution value="DoS Hulk" recordCount="0"/>
								<ScoreDistribution value="DoS Slowloris" recordCount="0"/>
							</Node>
						</Node>
						<Node>
							<SimplePredicate field="double(Bwd Packet Length Mean)" operator="lessOrEqual" value="186.66666412353516"/>
							<Node score="BENIGN" recordCount="1123">
								<SimplePredicate field="double(FIN Flag Count)" operator="lessOrEqual" value="2.5"/>
								<ScoreDistribution value="BENIGN" recordCount="1123"/>
								<ScoreDistribution value="DDoS-HOIC" recordCount="0"/>
								<ScoreDistribution value="DDoS-LOIC-HTTP" recordCount="0"/>
								<ScoreDistribution value="DDoS-LOIC-UDP" recordCount="0"/>
								<ScoreDistribution value="DoS GoldenEye" recordCount="0"/>
								<ScoreDistribution value="DoS Hulk" recordCount="0"/>
								<ScoreDistribution value="DoS Slowloris" recordCount="0"/>
							</Node>
							<Node score="DDoS-HOIC" recordCount="4">
								<SimplePredicate field="double(Bwd IAT Total)" operator="lessOrEqual" value="222575.5"/>
								<ScoreDistribution value="BENIGN" recordCount="0"/>
								<ScoreDistribution value="DDoS-HOIC" recordCount="4"/>
								<ScoreDistribution value="DDoS-LOIC-HTTP" recordCount="0"/>
								<ScoreDistribution value="DDoS-LOIC-UDP" recordCount="0"/>
								<ScoreDistribution value="DoS GoldenEye" recordCount="0"/>
								<ScoreDistribution value="DoS Hulk" recordCount="0"/>
								<ScoreDistribution value="DoS Slowloris" recordCount="0"/>
							</Node>
							<Node score="BENIGN" recordCount="86">
								<True/>
								<ScoreDistribution value="BENIGN" recordCount="86"/>
								<ScoreDistribution value="DDoS-HOIC" recordCount="0"/>
								<ScoreDistribution value="DDoS-LOIC-HTTP" recordCount="0"/>
								<ScoreDistribution value="DDoS-LOIC-UDP" recordCount="0"/>
								<ScoreDistribution value="DoS GoldenEye" recordCount="0"/>
								<ScoreDistribution value="DoS Hulk" recordCount="0"/>
								<ScoreDistribution value="DoS Slowloris" recordCount="0"/>
							</Node>
						</Node>
						<Node score="BENIGN" recordCount="911">
							<SimplePredicate field="double(CWR Flag Count)" operator="lessOrEqual" value="0.5"/>
							<ScoreDistribution value="BENIGN" recordCount="911"/>
							<ScoreDistribution value="DDoS-HOIC" recordCount="0"/>
							<ScoreDistribution value="DDoS-LOIC-HTTP" recordCount="0"/>
							<ScoreDistribution value="DDoS-LOIC-UDP" recordCount="0"/>
							<ScoreDistribution value="DoS GoldenEye" recordCount="0"/>
							<ScoreDistribution value="DoS Hulk" recordCount="0"/>
							<ScoreDistribution value="DoS Slowloris" recordCount="0"/>
						</Node>
						<Node score="DDoS-HOIC" recordCount="865863">
							<True/>
							<ScoreDistribution value="BENIGN" recordCount="0"/>
							<ScoreDistribution value="DDoS-HOIC" recordCount="865863"/>
							<ScoreDistribution value="DDoS-LOIC-HTTP" recordCount="0"/>
							<ScoreDistribution value="DDoS-LOIC-UDP" recordCount="0"/>
							<ScoreDistribution value="DoS GoldenEye" recordCount="0"/>
							<ScoreDistribution value="DoS Hulk" recordCount="0"/>
							<ScoreDistribution value="DoS Slowloris" recordCount="0"/>
						</Node>
					</Node>
				</TreeModel>
			</Segment>
			<Segment id="2">
				<True/>
				<TreeModel functionName="classification" missingValueStrategy="nullPrediction">
					<MiningSchema>
						<MiningField name="double(Bwd Init Win Bytes)"/>
						<MiningField name="double(Fwd Seg Size Min)"/>
						<MiningField name="double(Bwd Packet Length Mean)"/>
						<MiningField name="double(FWD Init Win Bytes)"/>
						<MiningField name="double(Fwd IAT Min)"/>
						<MiningField name="double(Bwd IAT Total)"/>
						<MiningField name="double(Bwd Header Length)"/>
						<MiningField name="double(Bwd Packet Length Max)"/>
						<MiningField name="double(Bwd Segment Size Avg)"/>
						<MiningField name="double(CWR Flag Count)"/>
						<MiningField name="double(Bwd Packet Length Std)"/>
						<MiningField name="double(FIN Flag Count)"/>
					</MiningSchema>
					<Node>
						<True/>
						<Node>
							<SimplePredicate field="double(FIN Flag Count)" operator="lessOrEqual" value="0.5"/>
							<Node>
								<SimplePredicate field="double(Bwd Packet Length Max)" operator="lessOrEqual" value="0.5"/>
								<Node>
									<SimplePredicate field="double(Fwd IAT Min)" operator="lessOrEqual" value="9.9752992E7"/>
									<Node>
										<SimplePredicate field="double(Bwd IAT Total)" operator="lessOrEqual" value="1.05217088E8"/>
										<Node>
											<SimplePredicate field="double(Fwd Seg Size Min)" operator="lessOrEqual" value="14.0"/>
											<Node>
												<SimplePredicate field="double(Bwd Init Win Bytes)" operator="lessOrEqual" value="72.0"/>
												<Node>
													<SimplePredicate field="double(Fwd IAT Min)" operator="lessOrEqual" value="7.0"/>
													<Node>
														<SimplePredicate field="double(Bwd IAT Total)" operator="lessOrEqual" value="0.5"/>
														<Node score="BENIGN" recordCount="1274">
															<SimplePredicate field="double(Fwd Seg Size Min)" operator="lessOrEqual" value="4.0"/>
															<ScoreDistribution value="BENIGN" recordCount="1274"/>
															<ScoreDistribution value="DDoS-HOIC" recordCount="0"/>
															<ScoreDistribution value="DDoS-LOIC-HTTP" recordCount="0"/>
															<ScoreDistribution value="DDoS-LOIC-UDP" recordCount="0"/>
															<ScoreDistribution value="DoS GoldenEye" recordCount="0"/>
															<ScoreDistribution value="DoS Hulk" recordCount="0"/>
															<ScoreDistribution value="DoS Slowloris" recordCount="0"/>
														</Node>
														<Node score="DDoS-LOIC-UDP" recordCount="1392">
															<SimplePredicate field="double(Fwd IAT Min)" operator="lessOrEqual" value="0.5"/>
															<ScoreDistribution value="BENIGN" recordCount="50"/>
															<ScoreDistribution value="DDoS-HOIC" recordCount="0"/>
															<ScoreDistribution value="DDoS-LOIC-HTTP" recordCount="0"/>
															<ScoreDistribution value="DDoS-LOIC-UDP" recordCount="1342"/>
															<ScoreDistribution value="DoS GoldenEye" recordCount="0"/>
															<ScoreDistribution value="DoS Hulk" recordCount="0"/>
															<ScoreDistribution value="DoS Slowloris" recordCount="0"/>
														</Node>
														<Node score="DDoS-LOIC-UDP" recordCount="714">
															<SimplePredicate field="double(Fwd IAT Min)" operator="lessOrEqual" value="1.5"/>
															<ScoreDistribution value="BENIGN" recordCount="38"/>
															<ScoreDistribution value="DDoS-HOIC" recordCount="0"/>
															<ScoreDistribution value="DDoS-LOIC-HTTP" recordCount="0"/>
															<ScoreDistribution value="DDoS-LOIC-UDP" recordCount="676"/>
															<ScoreDistribution value="DoS GoldenEye" recordCount="0"/>
															<ScoreDistribution value="DoS Hulk" recordCount="0"/>
															<ScoreDistribution value="DoS Slowloris" recordCount="0"/>
														</Node>
														<Node score="DDoS-LOIC-UDP" recordCount="2">
															<True/>
															<ScoreDistribution value="BENIGN" recordCount="0"/>
															<ScoreDistribution value="DDoS-HOIC" recordCount="0"/>
															<ScoreDistribution value="DDoS-LOIC-HTTP" recordCount="0"/>
															<ScoreDistribution value="DDoS-LOIC-UDP" recordCount="2"/>
															<ScoreDistribution value="DoS GoldenEye" recordCount="0"/>
															<ScoreDistribution value="DoS Hulk" recordCount="0"/>
															<ScoreDistribution value="DoS Slowloris" recordCount="0"/>
														</Node>
													</Node>
													<Node score="BENIGN" recordCount="27">
														<True/>
														<ScoreDistribution value="BENIGN" recordCount="27"/>
														<ScoreDistribution value="DDoS-HOIC" recordCount="0"/>
														<ScoreDistribution value="DDoS-LOIC-HTTP" recordCount="0"/>
														<ScoreDistribution value="DDoS-LOIC-UDP" recordCount="0"/>
														<ScoreDistribution value="DoS GoldenEye" recordCount="0"/>
														<ScoreDistribution value="DoS Hulk" recordCount="0"/>
														<ScoreDistribution value="DoS Slowloris" recordCount="0"/>
													</Node>
												</Node>
												<Node score="BENIGN" recordCount="6329">
													<SimplePredicate field="double(Fwd Seg Size Min)" operator="lessOrEqual" value="4.0"/>
													<ScoreDistribution value="BENIGN" recordCount="6329"/>
													<ScoreDistribution value="DDoS-HOIC" recordCount="0"/>
													<ScoreDistribution value="DDoS-LOIC-HTTP" recordCount="0"/>
													<ScoreDistribution value="DDoS-LOIC-UDP" recordCount="0"/>
													<ScoreDistribution value="DoS GoldenEye" recordCount="0"/>
													<ScoreDistribution value="DoS Hulk" recordCount="0"/>
													<ScoreDistribution value="DoS Slowloris" recordCount="0"/>
												</Node>
												<Node>
													<SimplePredicate field="double(Fwd IAT Min)" operator="lessOrEqual" value="13921.0"/>
													<Node score="BENIGN" recordCount="123">
														<SimplePredicate field="double(Fwd IAT Min)" operator="lessOrEqual" value="1405.5"/>
														<ScoreDistribution value="BENIGN" recordCount="123"/>
														<ScoreDistribution value="DDoS-HOIC" recordCount="0"/>
														<ScoreDistribution value="DDoS-LOIC-HTTP" recordCount="0"/>
														<ScoreDistribution value="DDoS-LOIC-UDP" recordCount="0"/>
														<ScoreDistribution value="DoS GoldenEye" recordCount="0"/>
														<ScoreDistribution value="DoS Hulk" recordCount="0"/>
														<ScoreDistribution value="DoS Slowloris" recordCount="0"/>
													</Node>
													<Node>
														<SimplePredicate field="double(Fwd IAT Min)" operator="lessOrEqual" value="8006.0"/>
														<Node>
															<SimplePredicate field="double(Fwd IAT Min)" operator="lessOrEqual" value="2717.5"/>
															<Node>
																<SimplePredicate field="double(Fwd IAT Min)" operator="lessOrEqual" value="2659.0"/>
																<Node>
																	<SimplePredicate field="double(Fwd IAT Min)" operator="lessOrEqual" value="2135.0"/>
																	<Node score="DDoS-LOIC-UDP" recordCount="4">
																		<SimplePredicate field="double(Fwd IAT Min)" operator="lessOrEqual" value="1816.5"/>
																		<ScoreDistribution value="BENIGN" recordCount="0"/>
																		<ScoreDistribution value="DDoS-HOIC" recordCount="0"/>
																		<ScoreDistribution value="DDoS-LOIC-HTTP" recordCount="0"/>
																		<ScoreDistribution value="DDoS-LOIC-UDP" recordCount="4"/>
																		<ScoreDistribution value="DoS GoldenEye" recordCount="0"/>
																		<ScoreDistribution value="DoS Hulk" recordCount="0"/>
																		<ScoreDistribution value="DoS Slowloris" recordCount="0"/>
																	</Node>
																	<Node score="BENIGN" recordCount="5">
																		<True/>
																		<ScoreDistribution value="BENIGN" recordCount="5"/>
																		<ScoreDistribution value="DDoS-HOIC" recordCount="0"/>
																		<ScoreDistribution value="DDoS-LOIC-HTTP" recordCount="0"/>
																		<ScoreDistribution value="DDoS-LOIC-UDP" recordCount="0"/>
																		<ScoreDistribution value="DoS GoldenEye" recordCount="0"/>
																		<ScoreDistribution value="DoS Hulk" recordCount="0"/>
																		<ScoreDistribution value="DoS Slowloris" recordCount="0"/>
																	</Node>
																</Node>
																<Node score="DDoS-LOIC-UDP" recordCount="6">
																	<True/>
																	<ScoreDistribution value="BENIGN" recordCount="0"/>
																	<ScoreDistribution value="DDoS-HOIC" recordCount="0"/>
																	<ScoreDistribution value="DDoS-LOIC-HTTP" recordCount="0"/>
																	<ScoreDistribution value="DDoS-LOIC-UDP" recordCount="6"/>
																	<ScoreDistribution value="DoS GoldenEye" recordCount="0"/>
																	<ScoreDistribution value="DoS Hulk" recordCount="0"/>
																	<ScoreDistribution value="DoS Slowloris" recordCount="0"/>
																</Node>
															</Node>
															<Node score="BENIGN" recordCount="3">
																<True/>
																<ScoreDistribution value="BENIGN" recordCount="3"/>
																<ScoreDistribution value="DDoS-HOIC" recordCount="0"/>
																<ScoreDistribution value="DDoS-LOIC-HTTP" recordCount="0"/>
																<ScoreDistribution value="DDoS-LOIC-UDP" recordCount="0"/>
																<ScoreDistribution value="DoS GoldenEye" recordCount="0"/>
																<ScoreDistribution value="DoS Hulk" recordCount="0"/>
																<ScoreDistribution value="DoS Slowloris" recordCount="0"/>
															</Node>
														</Node>
														<Node>
															<SimplePredicate field="double(Fwd IAT Min)" operator="lessOrEqual" value="3012.0"/>
															<Node score="DDoS-LOIC-UDP" recordCount="12">
																<SimplePredicate field="double(Fwd IAT Min)" operator="lessOrEqual" value="2946.5"/>
																<ScoreDistribution value="BENIGN" recordCount="0"/>
																<ScoreDistribution value="DDoS-HOIC" recordCount="0"/>
																<ScoreDistribution value="DDoS-LOIC-HTTP" recordCount="0"/>
																<ScoreDistribution value="DDoS-LOIC-UDP" recordCount="12"/>
																<ScoreDistribution value="DoS GoldenEye" recordCount="0"/>
																<ScoreDistribution value="DoS Hulk" recordCount="0"/>
																<ScoreDistribution value="DoS Slowloris" recordCount="0"/>
															</Node>
															<Node score="BENIGN" recordCount="2">
																<SimplePredicate field="double(Fwd IAT Min)" operator="lessOrEqual" value="2949.0"/>
																<ScoreDistribution value="BENIGN" recordCount="2"/>
																<ScoreDistribution value="DDoS-HOIC" recordCount="0"/>
																<ScoreDistribution value="DDoS-LOIC-HTTP" recordCount="0"/>
																<ScoreDistribution value="DDoS-LOIC-UDP" recordCount="0"/>
																<ScoreDistribution value="DoS GoldenEye" recordCount="0"/>
																<ScoreDistribution value="DoS Hulk" recordCount="0"/>
																<ScoreDistribution value="DoS Slowloris" recordCount="0"/>
															</Node>
															<Node score="DDoS-LOIC-UDP" recordCount="3">
																<SimplePredicate field="double(Fwd IAT Min)" operator="lessOrEqual" value="2981.5"/>
																<ScoreDistribution value="BENIGN" recordCount="0"/>
																<ScoreDistribution value="DDoS-HOIC" recordCount="0"/>
																<ScoreDistribution value="DDoS-LOIC-HTTP" recordCount="0"/>
																<ScoreDistribution value="DDoS-LOIC-UDP" recordCount="3"/>
																<ScoreDistribution value="DoS GoldenEye" recordCount="0"/>
																<ScoreDistribution value="DoS Hulk" recordCount="0"/>
																<ScoreDistribution value="DoS Slowloris" recordCount="0"/>
															</Node>
															<Node score="BENIGN" recordCount="1">
																<True/>
																<ScoreDistribution value="BENIGN" recordCount="1"/>
																<ScoreDistribution value="DDoS-HOIC" recordCount="0"/>
																<ScoreDistribution value="DDoS-LOIC-HTTP" recordCount="0"/>
																<ScoreDistribution value="DDoS-LOIC-UDP" recordCount="0"/>
																<ScoreDistribution value="DoS GoldenEye" recordCount="0"/>
																<ScoreDistribution value="DoS Hulk" recordCount="0"/>
																<ScoreDistribution value="DoS Slowloris" recordCount="0"/>
															</Node>
														</Node>
														<Node score="DDoS-LOIC-UDP" recordCount="30">
															<SimplePredicate field="double(Fwd IAT Min)" operator="lessOrEqual" value="4017.5"/>
															<ScoreDistribution value="BENIGN" recordCount="0"/>
															<ScoreDistribution value="DDoS-HOIC" recordCount="0"/>
															<ScoreDistribution value="DDoS-LOIC-HTTP" recordCount="0"/>
															<ScoreDistribution value="DDoS-LOIC-UDP" recordCount="30"/>
															<ScoreDistribution value="DoS GoldenEye" recordCount="0"/>
															<ScoreDistribution value="DoS Hulk" recordCount="0"/>
															<ScoreDistribution value="DoS Slowloris" recordCount="0"/>
														</Node>
														<Node score="BENIGN" recordCount="1">
															<SimplePredicate field="double(Fwd IAT Min)" operator="lessOrEqual" value="4080.5"/>
															<ScoreDistribution value="BENIGN" recordCount="1"/>
															<ScoreDistribution value="DDoS-HOIC" recordCount="0"/>
															<ScoreDistribution value="DDoS-LOIC-HTTP" recordCount="0"/>
															<ScoreDistribution value="DDoS-LOIC-UDP" recordCount="0"/>
															<ScoreDistribution value="DoS GoldenEye" recordCount="0"/>
															<ScoreDistribution value="DoS Hulk" recordCount="0"/>
															<ScoreDistribution value="DoS Slowloris" recordCount="0"/>
														</Node>
														<Node score="DDoS-LOIC-UDP" recordCount="3">
															<SimplePredicate field="double(Fwd IAT Min)" operator="lessOrEqual" value="6360.5"/>
															<ScoreDistribution value="BENIGN" recordCount="1"/>
															<ScoreDistribution value="DDoS-HOIC" recordCount="0"/>
															<ScoreDistribution value="DDoS-LOIC-HTTP" recordCount="0"/>
															<ScoreDistribution value="DDoS-LOIC-UDP" recordCount="2"/>
															<ScoreDistribution value="DoS GoldenEye" recordCount="0"/>
															<ScoreDistribution value="DoS Hulk" recordCount="0"/>
															<ScoreDistribution value="DoS Slowloris" recordCount="0"/>
														</Node>
														<Node score="DDoS-LOIC-UDP" recordCount="6">
															<True/>
															<ScoreDistribution value="BENIGN" recordCount="0"/>
															<ScoreDistribution value="DDoS-HOIC" recordCount="0"/>
															<ScoreDistribution value="DDoS-LOIC-HTTP" recordCount="0"/>
															<ScoreDistribution value="DDoS-LOIC-UDP" recordCount="6"/>
															<ScoreDistribution value="DoS GoldenEye" recordCount="0"/>
															<ScoreDistribution value="DoS Hulk" recordCount="0"/>
															<ScoreDistribution value="DoS Slowloris" recordCount="0"/>
														</Node>
													</Node>
													<Node>
														<SimplePredicate field="double(Fwd IAT Min)" operator="lessOrEqual" value="11018.5"/>
														<Node score="BENIGN" recordCount="3">
															<SimplePredicate field="double(Fwd IAT Min)" operator="lessOrEqual" value="8232.0"/>
															<ScoreDistribution value="BENIGN" recordCount="3"/>
															<ScoreDistribution value="DDoS-HOIC" recordCount="0"/>
															<ScoreDistribution value="DDoS-LOIC-HTTP" recordCount="0"/>
															<ScoreDistribution value="DDoS-LOIC-UDP" recordCount="0"/>
															<ScoreDistribution value="DoS GoldenEye" recordCount="0"/>
															<ScoreDistribution value="DoS Hulk" recordCount="0"/>
															<ScoreDistribution value="DoS Slowloris" recordCount="0"/>
														</Node>
														<Node score="DDoS-LOIC-UDP" recordCount="4">
															<SimplePredicate field="double(Fwd IAT Min)" operator="lessOrEqual" value="9263.5"/>
															<ScoreDistribution value="BENIGN" recordCount="0"/>
															<ScoreDistribution value="DDoS-HOIC" recordCount="0"/>
															<ScoreDistribution value="DDoS-LOIC-HTTP" recordCount="0"/>
															<ScoreDistribution value="DDoS-LOIC-UDP" recordCount="4"/>
															<ScoreDistribution value="DoS GoldenEye" recordCount="0"/>
															<ScoreDistribution value="DoS Hulk" recordCount="0"/>
															<ScoreDistribution value="DoS Slowloris" recordCount="0"/>
														</Node>
														<Node score="BENIGN" recordCount="4">
															<SimplePredicate field="double(Fwd IAT Min)" operator="lessOrEqual" value="10125.5"/>
															<ScoreDistribution value="BENIGN" recordCount="4"/>
															<ScoreDistribution value="DDoS-HOIC" recordCount="0"/>
															<ScoreDistribution value="DDoS-LOIC-HTTP" recordCount="0"/>
															<ScoreDistribution value="DDoS-LOIC-UDP" recordCount="0"/>
															<ScoreDistribution value="DoS GoldenEye" recordCount="0"/>
															<ScoreDistribution value="DoS Hulk" recordCount="0"/>
															<ScoreDistribution value="DoS Slowloris" recordCount="0"/>
														</Node>
														<Node score="DDoS-LOIC-UDP" recordCount="1">
															<SimplePredicate field="double(Fwd IAT Min)" operator="lessOrEqual" value="10569.5"/>
															<ScoreDistribution value="BENIGN" recordCount="0"/>
															<ScoreDistribution value="DDoS-HOIC" recordCount="0"/>
															<ScoreDistribution value="DDoS-LOIC-HTTP" recordCount="0"/>
															<ScoreDistribution value="DDoS-LOIC-UDP" recordCount="1"/>
															<ScoreDistribution value="DoS GoldenEye" recordCount="0"/>
															<ScoreDistribution value="DoS Hulk" recordCount="0"/>
															<ScoreDistribution value="DoS Slowloris" recordCount="0"/>
														</Node>
														<Node score="BENIGN" recordCount="1">
															<True/>
															<ScoreDistribution value="BENIGN" recordCount="1"/>
															<ScoreDistribution value="DDoS-HOIC" recordCount="0"/>
															<ScoreDistribution value="DDoS-LOIC-HTTP" recordCount="0"/>
															<ScoreDistribution value="DDoS-LOIC-UDP" recordCount="0"/>
															<ScoreDistribution value="DoS GoldenEye" recordCount="0"/>
															<ScoreDistribution value="DoS Hulk" recordCount="0"/>
															<ScoreDistribution value="DoS Slowloris" recordCount="0"/>
														</Node>
													</Node>
													<Node score="DDoS-LOIC-UDP" recordCount="4">
														<True/>
														<ScoreDistribution value="BENIGN" recordCount="0"/>
														<ScoreDistribution value="DDoS-HOIC" recordCount="0"/>
														<ScoreDistribution value="DDoS-LOIC-HTTP" recordCount="0"/>
														<ScoreDistribution value="DDoS-LOIC-UDP" recordCount="4"/>
														<ScoreDistribution value="DoS GoldenEye" recordCount="0"/>
														<ScoreDistribution value="DoS Hulk" recordCount="0"/>
														<ScoreDistribution value="DoS Slowloris" recordCount="0"/>
													</Node>
												</Node>
												<Node score="BENIGN" recordCount="17464">
													<True/>
													<ScoreDistribution value="BENIGN" recordCount="17464"/>
													<ScoreDistribution value="DDoS-HOIC" recordCount="0"/>
													<ScoreDistribution value="DDoS-LOIC-HTTP" recordCount="0"/>
													<ScoreDistribution value="DDoS-LOIC-UDP" recordCount="0"/>
													<ScoreDistribution value="DoS GoldenEye" recordCount="0"/>
													<ScoreDistribution value="DoS Hulk" recordCount="0"/>
													<ScoreDistribution value="DoS Slowloris" recordCount="0"/>
												</Node>
											</Node>
											<Node score="BENIGN" recordCount="9">
												<True/>
												<ScoreDistribution value="BENIGN" recordCount="9"/>
												<ScoreDistribution value="DDoS-HOIC" recordCount="0"/>
												<ScoreDistribution value="DDoS-LOIC-HTTP" recordCount="0"/>
												<ScoreDistribution value="DDoS-LOIC-UDP" recordCount="0"/>
												<ScoreDistribution value="DoS GoldenEye" recordCount="0"/>
												<ScoreDistribution value="DoS Hulk" recordCount="0"/>
												<ScoreDistribution value="DoS Slowloris" recordCount="0"/>
											</Node>
										</Node>
										<Node>
											<SimplePredicate field="double(Bwd IAT Total)" operator="lessOrEqual" value="9.9384076E7"/>
											<Node>
												<SimplePredicate field="double(Bwd Header Length)" operator="lessOrEqual" value="30.0"/>
												<Node>
													<SimplePredicate field="double(Fwd IAT Min)" operator="lessOrEqual" value="0.5"/>
													<Node>
														<SimplePredicate field="double(Bwd Init Win Bytes)" operator="lessOrEqual" value="126.0"/>
														<Node score="BENIGN" recordCount="7097">
															<SimplePredicate field="double(Fwd Seg Size Min)" operator="lessOrEqual" value="30.0"/>
															<ScoreDistribution value="BENIGN" recordCount="7097"/>
															<ScoreDistribution value="DDoS-HOIC" recordCount="0"/>
															<ScoreDistribution value="DDoS-LOIC-HTTP" recordCount="0"/>
															<ScoreDistribution value="DDoS-LOIC-UDP" recordCount="0"/>
															<ScoreDistribution value="DoS GoldenEye" recordCount="0"/>
															<ScoreDistribution value="DoS Hulk" recordCount="0"/>
															<ScoreDistribution value="DoS Slowloris" recordCount="0"/>
														</Node>
														<Node>
															<SimplePredicate field="double(CWR Flag Count)" operator="lessOrEqual" value="0.5"/>
															<Node score="DoS Slowloris" recordCount="7">
																<SimplePredicate field="double(FWD Init Win Bytes)" operator="lessOrEqual" value="4201.5"/>
																<ScoreDistribution value="BENIGN" recordCount="0"/>
																<ScoreDistribution value="DDoS-HOIC" recordCount="0"/>
																<ScoreDistribution value="DDoS-LOIC-HTTP" recordCount="0"/>
																<ScoreDistribution value="DDoS-LOIC-UDP" recordCount="0"/>
																<ScoreDistribution value="DoS GoldenEye" recordCount="0"/>
																<ScoreDistribution value="DoS Hulk" recordCount="0"/>
																<ScoreDistribution value="DoS Slowloris" recordCount="7"/>
															</Node>
															<Node score="BENIGN" recordCount="8094">
																<True/>
																<ScoreDistribution value="BENIGN" recordCount="8094"/>
																<ScoreDistribution value="DDoS-HOIC" recordCount="0"/>
																<ScoreDistribution value="DDoS-LOIC-HTTP" recordCount="0"/>
																<ScoreDistribution value="DDoS-LOIC-UDP" recordCount="0"/>
																<ScoreDistribution value="DoS GoldenEye" recordCount="0"/>
																<ScoreDistribution value="DoS Hulk" recordCount="0"/>
																<ScoreDistribution value="DoS Slowloris" recordCount="0"/>
															</Node>
														</Node>
														<Node score="BENIGN" recordCount="6343">
															<True/>
															<ScoreDistribution value="BENIGN" recordCount="6343"/>
															<ScoreDistribution value="DDoS-HOIC" recordCount="0"/>
															<ScoreDistribution value="DDoS-LOIC-HTTP" recordCount="0"/>
															<ScoreDistribution value="DDoS-LOIC-UDP" recordCount="0"/>
															<ScoreDistribution value="DoS GoldenEye" recordCount="0"/>
															<ScoreDistribution value="DoS Hulk" recordCount="0"/>
															<ScoreDistribution value="DoS Slowloris" recordCount="0"/>
														</Node>
													</Node>
													<Node score="BENIGN" recordCount="16">
														<True/>
														<ScoreDistribution value="BENIGN" recordCount="16"/>
														<ScoreDistribution value="DDoS-HOIC" recordCount="0"/>
														<ScoreDistribution value="DDoS-LOIC-HTTP" recordCount="0"/>
														<ScoreDistribution value="DDoS-LOIC-UDP" recordCount="0"/>
														<ScoreDistribution value="DoS GoldenEye" recordCount="0"/>
														<ScoreDistribution value="DoS Hulk" recordCount="0"/>
														<ScoreDistribution value="DoS Slowloris" recordCount="0"/>
													</Node>
												</Node>
												<Node score="BENIGN" recordCount="27396">
													<True/>
													<ScoreDistribution value="BENIGN" recordCount="27396"/>
													<ScoreDistribution value="DDoS-HOIC" recordCount="0"/>
													<ScoreDistribution value="DDoS-LOIC-HTTP" recordCount="0"/>
													<ScoreDistribution value="DDoS-LOIC-UDP" recordCount="0"/>
													<ScoreDistribution value="DoS GoldenEye" recordCount="0"/>
													<ScoreDistribution value="DoS Hulk" recordCount="0"/>
													<ScoreDistribution value="DoS Slowloris" recordCount="0"/>
												</Node>
											</Node>
											<Node>
												<SimplePredicate field="double(FWD Init Win Bytes)" operator="lessOrEqual" value="231.0"/>
												<Node score="BENIGN" recordCount="7">
													<SimplePredicate field="double(Fwd Seg Size Min)" operator="lessOrEqual" value="30.0"/>
													<ScoreDistribution value="BENIGN" recordCount="7"/>
													<ScoreDistribution value="DDoS-HOIC" recordCount="0"/>
													<ScoreDistribution value="DDoS-LOIC-HTTP" recordCount="0"/>
													<ScoreDistribution value="DDoS-LOIC-UDP" recordCount="0"/>
													<ScoreDistribution value="DoS GoldenEye" recordCount="0"/>
													<ScoreDistribution value="DoS Hulk" recordCount="0"/>
													<ScoreDistribution value="DoS Slowloris" recordCount="0"/>
												</Node>
												<Node score="DoS Slowloris" recordCount="687">
													<SimplePredicate field="double(Fwd IAT Min)" operator="lessOrEqual" value="1504870.5"/>
													<ScoreDistribution value="BENIGN" recordCount="0"/>
													<ScoreDistribution value="DDoS-HOIC" recordCount="0"/>
													<ScoreDistribution value="DDoS-LOIC-HTTP" recordCount="0"/>
													<ScoreDistribution value="DDoS-LOIC-UDP" recordCount="0"/>
													<ScoreDistribution value="DoS GoldenEye" recordCount="0"/>
													<ScoreDistribution value="DoS Hulk" recordCount="0"/>
													<ScoreDistribution value="DoS Slowloris" recordCount="687"/>
												</Node>
												<Node score="BENIGN" recordCount="1">
													<True/>
													<ScoreDistribution value="BENIGN" recordCount="1"/>
													<ScoreDistribution value="DDoS-HOIC" recordCount="0"/>
													<ScoreDistribution value="DDoS-LOIC-HTTP" recordCount="0"/>
													<ScoreDistribution value="DDoS-LOIC-UDP" recordCount="0"/>
													<ScoreDistribution value="DoS GoldenEye" recordCount="0"/>
													<ScoreDistribution value="DoS Hulk" recordCount="0"/>
													<ScoreDistribution value="DoS Slowloris" recordCount="0"/>
												</Node>
											</Node>
											<Node>
												<SimplePredicate field="double(Bwd IAT Total)" operator="lessOrEqual" value="264246.0"/>
												<Node>
													<SimplePredicate field="double(Bwd Header Length)" operator="lessOrEqual" value="70.0"/>
													<Node score="BENIGN" recordCount="1079">
														<SimplePredicate field="double(Bwd Header Length)" operator="lessOrEqual" value="36.0"/>
														<ScoreDistribution value="BENIGN" recordCount="1079"/>
														<ScoreDistribution value="DDoS-HOIC" recordCount="0"/>
														<ScoreDistribution value="DDoS-LOIC-HTTP" recordCount="0"/>
														<ScoreDistribution value="DDoS-LOIC-UDP" recordCount="0"/>
														<ScoreDistribution value="DoS GoldenEye" recordCount="0"/>
														<ScoreDistribution value="DoS Hulk" recordCount="0"/>
														<ScoreDistribution value="DoS Slowloris" recordCount="0"/>
													</Node>
													<Node>
														<SimplePredicate field="double(CWR Flag Count)" operator="lessOrEqual" value="0.5"/>
														<Node score="BENIGN" recordCount="227">
															<SimplePredicate field="double(Fwd Seg Size Min)" operator="lessOrEqual" value="26.0"/>
															<ScoreDistribution value="BENIGN" recordCount="227"/>
															<ScoreDistribution value="DDoS-HOIC" recordCount="0"/>
															<ScoreDistribution value="DDoS-LOIC-HTTP" recordCount="0"/>
															<ScoreDistribution value="DDoS-LOIC-UDP" recordCount="0"/>
															<ScoreDistribution value="DoS GoldenEye" recordCount="0"/>
															<ScoreDistribution value="DoS Hulk" recordCount="0"/>
															<ScoreDistribution value="DoS Slowloris" recordCount="0"/>
														</Node>
														<Node>
															<SimplePredicate field="double(Bwd Header Length)" operator="lessOrEqual" value="50.0"/>
															<Node score="DoS Hulk" recordCount="53">
																<SimplePredicate field="double(Fwd IAT Min)" operator="lessOrEqual" value="81134.5"/>
																<ScoreDistribution value="BENIGN" recordCount="0"/>
																<ScoreDistribution value="DDoS-HOIC" recordCount="0"/>
																<ScoreDistribution value="DDoS-LOIC-HTTP" recordCount="0"/>
																<ScoreDistribution value="DDoS-LOIC-UDP" recordCount="0"/>
																<ScoreDistribution value="DoS GoldenEye" recordCount="0"/>
																<ScoreDistribution value="DoS Hulk" recordCount="53"/>
																<ScoreDistribution value="DoS Slowloris" recordCount="0"/>
															</Node>
															<Node score="BENIGN" recordCount="2">
																<True/>
																<ScoreDistribution value="BENIGN" recordCount="2"/>
																<ScoreDistribution value="DDoS-HOIC" recordCount="0"/>
																<ScoreDistribution value="DDoS-LOIC-HTTP" recordCount="0"/>
																<ScoreDistribution value="DDoS-LOIC-UDP" recordCount="0"/>
																<ScoreDistribution value="DoS GoldenEye" recordCount="0"/>
																<ScoreDistribution value="DoS Hulk" recordCount="0"/>
																<ScoreDistribution value="DoS Slowloris" recordCount="0"/>
															</Node>
														</Node>
														<Node score="BENIGN" recordCount="110">
															<True/>
															<ScoreDistribution value="BENIGN" recordCount="110"/>
															<ScoreDistribution value="DDoS-HOIC" recordCount="0"/>
															<ScoreDistribution value="DDoS-LOIC-HTTP" recordCount="0"/>
															<ScoreDistribution value="DDoS-LOIC-UDP" recordCount="0"/>
															<ScoreDistribution value="DoS GoldenEye" recordCount="0"/>
															<ScoreDistribution value="DoS Hulk" recordCount="0"/>
															<ScoreDistribution value="DoS Slowloris" recordCount="0"/>
														</Node>
													</Node>
													<Node score="BENIGN" recordCount="90">
														<True/>
														<ScoreDistribution value="BENIGN" recordCount="90"/>
														<ScoreDistribution value="DDoS-HOIC" recordCount="0"/>
														<ScoreDistribution value="DDoS-LOIC-HTTP" recordCount="0"/>
														<ScoreDistribution value="DDoS-LOIC-UDP" recordCount="0"/>
														<ScoreDistribution value="DoS GoldenEye" recordCount="0"/>
														<ScoreDistribution value="DoS Hulk" recordCount="0"/>
														<ScoreDistribution value="DoS Slowloris" recordCount="0"/>
													</Node>
												</Node>
												<Node score="DoS Slowloris" recordCount="21">
													<SimplePredicate field="double(Bwd IAT Total)" operator="lessOrEqual" value="6566.5"/>
													<ScoreDistribution value="BENIGN" recordCount="0"/>
													<ScoreDistribution value="DDoS-HOIC" recordCount="0"/>
													<ScoreDistribution value="DDoS-LOIC-HTTP" recordCount="0"/>
													<ScoreDistribution value="DDoS-LOIC-UDP" recordCount="0"/>
													<ScoreDistribution value="DoS GoldenEye" recordCount="0"/>
													<ScoreDistribution value="DoS Hulk" recordCount="0"/>
													<ScoreDistribution value="DoS Slowloris" recordCount="21"/>
												</Node>
												<Node>
													<SimplePredicate field="double(Bwd IAT Total)" operator="lessOrEqual" value="25519.5"/>
													<Node score="BENIGN" recordCount="1">
														<SimplePredicate field="double(Fwd Seg Size Min)" operator="lessOrEqual" value="26.0"/>
														<ScoreDistribution value="BENIGN" recordCount="1"/>
														<ScoreDistribution value="DDoS-HOIC" recordCount="0"/>
														<ScoreDistribution value="DDoS-LOIC-HTTP" recordCount="0"/>
														<ScoreDistribution value="DDoS-LOIC-UDP" recordCount="0"/>
														<ScoreDistribution value="DoS GoldenEye" recordCount="0"/>
														<ScoreDistribution value="DoS Hulk" recordCount="0"/>
														<ScoreDistribution value="DoS Slowloris" recordCount="0"/>
													</Node>
													<Node score="DoS Hulk" recordCount="53">
														<True/>
