<?xml version="1.0" encoding="UTF-8" standalone="yes"?>
<PMML xmlns="http://www.dmg.org/PMML-4_4" xmlns:data="http://jpmml.org/jpmml-model/InlineTable" version="4.4">
	<Header>
		<Application name="SkLearn2PMML package" version="0.103.1"/>
		<Timestamp>2024-02-18T19:34:52Z</Timestamp>
	</Header>
	<MiningBuildTask>
		<Extension name="repr">PMMLPipeline(steps=[('classifier', RandomForestClassifier(max_depth=16, n_estimators=20))])</Extension>
	</MiningBuildTask>
	<DataDictionary>
		<DataField name="y" optype="categorical" dataType="string">
			<Value value="BENIGN"/>
			<Value value="Infiltration - NMAP Portscan"/>
		</DataField>
		<DataField name="Tot Len of Bwd Pkt" optype="continuous" dataType="float"/>
		<DataField name="Fwd Pkt Len Max" optype="continuous" dataType="float"/>
		<DataField name="Fwd Pkt Len Mean" optype="continuous" dataType="float"/>
		<DataField name="Flow Bytes/s" optype="continuous" dataType="float"/>
		<DataField name="Bwd Pkts/s" optype="continuous" dataType="float"/>
		<DataField name="Pkt Len Max" optype="continuous" dataType="float"/>
		<DataField name="Pkt Len Std" optype="continuous" dataType="float"/>
		<DataField name="Fwd Segment Size Avg" optype="continuous" dataType="float"/>
		<DataField name="Bwd Seg Size Avg" optype="continuous" dataType="float"/>
		<DataField name="Subflow Fwd Bytes" optype="continuous" dataType="float"/>
		<DataField name="Fwd Seg Size Min" optype="continuous" dataType="float"/>
	</DataDictionary>
	<MiningModel functionName="classification" algorithmName="sklearn.ensemble._forest.RandomForestClassifier">
		<MiningSchema>
			<MiningField name="y" usageType="target"/>
			<MiningField name="Fwd Segment Size Avg"/>
			<MiningField name="Fwd Pkt Len Mean"/>
			<MiningField name="Bwd Seg Size Avg"/>
			<MiningField name="Bwd Pkts/s"/>
			<MiningField name="Fwd Seg Size Min"/>
			<MiningField name="Pkt Len Max"/>
			<MiningField name="Tot Len of Bwd Pkt"/>
			<MiningField name="Pkt Len Std"/>
			<MiningField name="Fwd Pkt Len Max"/>
			<MiningField name="Subflow Fwd Bytes"/>
			<MiningField name="Flow Bytes/s"/>
		</MiningSchema>
		<Output>
			<OutputField name="probability(BENIGN)" optype="continuous" dataType="double" feature="probability" value="BENIGN"/>
			<OutputField name="probability(Infiltration - NMAP Portscan)" optype="continuous" dataType="double" feature="probability" value="Infiltration - NMAP Portscan"/>
		</Output>
		<LocalTransformations>
			<DerivedField name="double(Fwd Segment Size Avg)" optype="continuous" dataType="double">
				<FieldRef field="Fwd Segment Size Avg"/>
			</DerivedField>
			<DerivedField name="double(Fwd Pkt Len Mean)" optype="continuous" dataType="double">
				<FieldRef field="Fwd Pkt Len Mean"/>
			</DerivedField>
			<DerivedField name="double(Bwd Seg Size Avg)" optype="continuous" dataType="double">
				<FieldRef field="Bwd Seg Size Avg"/>
			</DerivedField>
			<DerivedField name="double(Bwd Pkts/s)" optype="continuous" dataType="double">
				<FieldRef field="Bwd Pkts/s"/>
			</DerivedField>
			<DerivedField name="double(Fwd Seg Size Min)" optype="continuous" dataType="double">
				<FieldRef field="Fwd Seg Size Min"/>
			</DerivedField>
			<DerivedField name="double(Pkt Len Max)" optype="continuous" dataType="double">
				<FieldRef field="Pkt Len Max"/>
			</DerivedField>
			<DerivedField name="double(Tot Len of Bwd Pkt)" optype="continuous" dataType="double">
				<FieldRef field="Tot Len of Bwd Pkt"/>
			</DerivedField>
			<DerivedField name="double(Pkt Len Std)" optype="continuous" dataType="double">
				<FieldRef field="Pkt Len Std"/>
			</DerivedField>
			<DerivedField name="double(Fwd Pkt Len Max)" optype="continuous" dataType="double">
				<FieldRef field="Fwd Pkt Len Max"/>
			</DerivedField>
			<DerivedField name="double(Subflow Fwd Bytes)" optype="continuous" dataType="double">
				<FieldRef field="Subflow Fwd Bytes"/>
			</DerivedField>
			<DerivedField name="double(Flow Bytes/s)" optype="continuous" dataType="double">
				<FieldRef field="Flow Bytes/s"/>
			</DerivedField>
		</LocalTransformations>
		<Segmentation multipleModelMethod="average" missingPredictionTreatment="returnMissing">
			<Segment id="1">
				<True/>
				<TreeModel functionName="classification" missingValueStrategy="nullPrediction">
					<MiningSchema>
						<MiningField name="double(Fwd Segment Size Avg)"/>
						<MiningField name="double(Fwd Pkt Len Mean)"/>
						<MiningField name="double(Bwd Seg Size Avg)"/>
						<MiningField name="double(Bwd Pkts/s)"/>
						<MiningField name="double(Fwd Seg Size Min)"/>
						<MiningField name="double(Pkt Len Max)"/>
						<MiningField name="double(Tot Len of Bwd Pkt)"/>
						<MiningField name="double(Pkt Len Std)"/>
						<MiningField name="double(Fwd Pkt Len Max)"/>
						<MiningField name="double(Subflow Fwd Bytes)"/>
						<MiningField name="double(Flow Bytes/s)"/>
					</MiningSchema>
					<Node>
						<True/>
						<Node>
							<SimplePredicate field="double(Fwd Segment Size Avg)" operator="lessOrEqual" value="11.675000190734863"/>
							<Node>
								<SimplePredicate field="double(Fwd Pkt Len Mean)" operator="lessOrEqual" value="0.1666666716337204"/>
								<Node>
									<SimplePredicate field="double(Bwd Seg Size Avg)" operator="lessOrEqual" value="0.25"/>
									<Node>
										<SimplePredicate field="double(Bwd Pkts/s)" operator="lessOrEqual" value="130.04186248779297"/>
										<Node>
											<SimplePredicate field="double(Bwd Pkts/s)" operator="lessOrEqual" value="0.33389872312545776"/>
											<Node score="BENIGN" recordCount="223">
												<SimplePredicate field="double(Fwd Seg Size Min)" operator="lessOrEqual" value="22.0"/>
												<ScoreDistribution value="BENIGN" recordCount="223"/>
												<ScoreDistribution value="Infiltration - NMAP Portscan" recordCount="0"/>
											</Node>
											<Node>
												<SimplePredicate field="double(Fwd Seg Size Min)" operator="lessOrEqual" value="26.0"/>
												<Node score="BENIGN" recordCount="9">
													<SimplePredicate field="double(Bwd Pkts/s)" operator="lessOrEqual" value="0.07091386616230011"/>
													<ScoreDistribution value="BENIGN" recordCount="9"/>
													<ScoreDistribution value="Infiltration - NMAP Portscan" recordCount="0"/>
												</Node>
												<Node score="Infiltration - NMAP Portscan" recordCount="966">
													<True/>
													<ScoreDistribution value="BENIGN" recordCount="0"/>
													<ScoreDistribution value="Infiltration - NMAP Portscan" recordCount="966"/>
												</Node>
											</Node>
											<Node>
												<SimplePredicate field="double(Bwd Pkts/s)" operator="lessOrEqual" value="0.21603567153215408"/>
												<Node>
													<SimplePredicate field="double(Bwd Pkts/s)" operator="lessOrEqual" value="0.19546721875667572"/>
													<Node>
														<SimplePredicate field="double(Fwd Seg Size Min)" operator="lessOrEqual" value="30.0"/>
														<Node score="Infiltration - NMAP Portscan" recordCount="318">
															<SimplePredicate field="double(Bwd Pkts/s)" operator="lessOrEqual" value="0.09507443010807037"/>
															<ScoreDistribution value="BENIGN" recordCount="125"/>
															<ScoreDistribution value="Infiltration - NMAP Portscan" recordCount="193"/>
														</Node>
														<Node score="BENIGN" recordCount="12">
															<True/>
															<ScoreDistribution value="BENIGN" recordCount="12"/>
															<ScoreDistribution value="Infiltration - NMAP Portscan" recordCount="0"/>
														</Node>
													</Node>
													<Node>
														<SimplePredicate field="double(Fwd Seg Size Min)" operator="lessOrEqual" value="34.0"/>
														<Node score="Infiltration - NMAP Portscan" recordCount="100">
															<SimplePredicate field="double(Bwd Pkts/s)" operator="lessOrEqual" value="0.09486578404903412"/>
															<ScoreDistribution value="BENIGN" recordCount="5"/>
															<ScoreDistribution value="Infiltration - NMAP Portscan" recordCount="95"/>
														</Node>
														<Node>
															<SimplePredicate field="double(Bwd Pkts/s)" operator="lessOrEqual" value="0.193522647023201"/>
															<Node score="BENIGN" recordCount="8">
																<SimplePredicate field="double(Bwd Pkts/s)" operator="lessOrEqual" value="0.19022376835346222"/>
																<ScoreDistribution value="BENIGN" recordCount="8"/>
																<ScoreDistribution value="Infiltration - NMAP Portscan" recordCount="0"/>
															</Node>
															<Node score="Infiltration - NMAP Portscan" recordCount="6">
																<SimplePredicate field="double(Bwd Pkts/s)" operator="lessOrEqual" value="0.19045652449131012"/>
																<ScoreDistribution value="BENIGN" recordCount="0"/>
																<ScoreDistribution value="Infiltration - NMAP Portscan" recordCount="6"/>
															</Node>
															<Node score="BENIGN" recordCount="6">
																<True/>
																<ScoreDistribution value="BENIGN" recordCount="6"/>
																<ScoreDistribution value="Infiltration - NMAP Portscan" recordCount="0"/>
															</Node>
														</Node>
														<Node score="Infiltration - NMAP Portscan" recordCount="16">
															<True/>
															<ScoreDistribution value="BENIGN" recordCount="0"/>
															<ScoreDistribution value="Infiltration - NMAP Portscan" recordCount="16"/>
														</Node>
													</Node>
													<Node score="Infiltration - NMAP Portscan" recordCount="17">
														<SimplePredicate field="double(Fwd Seg Size Min)" operator="lessOrEqual" value="38.0"/>
														<ScoreDistribution value="BENIGN" recordCount="0"/>
														<ScoreDistribution value="Infiltration - NMAP Portscan" recordCount="17"/>
													</Node>
													<Node score="Infiltration - NMAP Portscan" recordCount="1040">
														<SimplePredicate field="double(Bwd Pkts/s)" operator="lessOrEqual" value="0.09509026259183884"/>
														<ScoreDistribution value="BENIGN" recordCount="103"/>
														<ScoreDistribution value="Infiltration - NMAP Portscan" recordCount="937"/>
													</Node>
													<Node score="Infiltration - NMAP Portscan" recordCount="63">
														<True/>
														<ScoreDistribution value="BENIGN" recordCount="0"/>
														<ScoreDistribution value="Infiltration - NMAP Portscan" recordCount="63"/>
													</Node>
												</Node>
												<Node score="BENIGN" recordCount="10">
													<True/>
													<ScoreDistribution value="BENIGN" recordCount="10"/>
													<ScoreDistribution value="Infiltration - NMAP Portscan" recordCount="0"/>
												</Node>
											</Node>
											<Node score="Infiltration - NMAP Portscan" recordCount="734">
												<True/>
												<ScoreDistribution value="BENIGN" recordCount="0"/>
												<ScoreDistribution value="Infiltration - NMAP Portscan" recordCount="734"/>
											</Node>
										</Node>
										<Node>
											<SimplePredicate field="double(Bwd Pkts/s)" operator="lessOrEqual" value="30.94256591796875"/>
											<Node>
												<SimplePredicate field="double(Bwd Pkts/s)" operator="lessOrEqual" value="0.48545248806476593"/>
												<Node score="BENIGN" recordCount="142">
													<SimplePredicate field="double(Fwd Seg Size Min)" operator="lessOrEqual" value="26.0"/>
													<ScoreDistribution value="BENIGN" recordCount="142"/>
													<ScoreDistribution value="Infiltration - NMAP Portscan" recordCount="0"/>
												</Node>
												<Node score="Infiltration - NMAP Portscan" recordCount="62">
													<True/>
													<ScoreDistribution value="BENIGN" recordCount="0"/>
													<ScoreDistribution value="Infiltration - NMAP Portscan" recordCount="62"/>
												</Node>
											</Node>
											<Node>
												<SimplePredicate field="double(Fwd Seg Size Min)" operator="lessOrEqual" value="10.0"/>
												<Node score="BENIGN" recordCount="1">
													<SimplePredicate field="double(Bwd Pkts/s)" operator="lessOrEqual" value="14.615423440933228"/>
													<ScoreDistribution value="BENIGN" recordCount="1"/>
													<ScoreDistribution value="Infiltration - NMAP Portscan" recordCount="0"/>
												</Node>
												<Node score="Infiltration - NMAP Portscan" recordCount="3">
													<True/>
													<ScoreDistribution value="BENIGN" recordCount="0"/>
													<ScoreDistribution value="Infiltration - NMAP Portscan" recordCount="3"/>
												</Node>
											</Node>
											<Node score="BENIGN" recordCount="1418">
												<True/>
												<ScoreDistribution value="BENIGN" recordCount="1418"/>
												<ScoreDistribution value="Infiltration - NMAP Portscan" recordCount="0"/>
											</Node>
										</Node>
										<Node>
											<SimplePredicate field="double(Bwd Pkts/s)" operator="lessOrEqual" value="32.30649375915527"/>
											<Node>
												<SimplePredicate field="double(Fwd Seg Size Min)" operator="lessOrEqual" value="10.0"/>
												<Node score="Infiltration - NMAP Portscan" recordCount="87">
													<SimplePredicate field="double(Bwd Pkts/s)" operator="lessOrEqual" value="32.08573341369629"/>
													<ScoreDistribution value="BENIGN" recordCount="0"/>
													<ScoreDistribution value="Infiltration - NMAP Portscan" recordCount="87"/>
												</Node>
												<Node score="BENIGN" recordCount="3">
													<SimplePredicate field="double(Bwd Pkts/s)" operator="lessOrEqual" value="32.09088134765625"/>
													<ScoreDistribution value="BENIGN" recordCount="3"/>
													<ScoreDistribution value="Infiltration - NMAP Portscan" recordCount="0"/>
												</Node>
												<Node score="Infiltration - NMAP Portscan" recordCount="14">
													<True/>
													<ScoreDistribution value="BENIGN" recordCount="0"/>
													<ScoreDistribution value="Infiltration - NMAP Portscan" recordCount="14"/>
												</Node>
											</Node>
											<Node score="BENIGN" recordCount="13">
												<True/>
												<ScoreDistribution value="BENIGN" recordCount="13"/>
												<ScoreDistribution value="Infiltration - NMAP Portscan" recordCount="0"/>
											</Node>
										</Node>
										<Node score="Infiltration - NMAP Portscan" recordCount="22">
											<SimplePredicate field="double(Fwd Seg Size Min)" operator="lessOrEqual" value="10.0"/>
											<ScoreDistribution value="BENIGN" recordCount="0"/>
											<ScoreDistribution value="Infiltration - NMAP Portscan" recordCount="22"/>
										</Node>
										<Node>
											<SimplePredicate field="double(Fwd Seg Size Min)" operator="lessOrEqual" value="26.0"/>
											<Node score="BENIGN" recordCount="125">
												<SimplePredicate field="double(Fwd Seg Size Min)" operator="lessOrEqual" value="22.0"/>
												<ScoreDistribution value="BENIGN" recordCount="125"/>
												<ScoreDistribution value="Infiltration - NMAP Portscan" recordCount="0"/>
											</Node>
											<Node score="Infiltration - NMAP Portscan" recordCount="24">
												<True/>
												<ScoreDistribution value="BENIGN" recordCount="0"/>
												<ScoreDistribution value="Infiltration - NMAP Portscan" recordCount="24"/>
											</Node>
										</Node>
										<Node score="BENIGN" recordCount="184">
											<True/>
											<ScoreDistribution value="BENIGN" recordCount="184"/>
											<ScoreDistribution value="Infiltration - NMAP Portscan" recordCount="0"/>
										</Node>
									</Node>
									<Node score="BENIGN" recordCount="45">
										<SimplePredicate field="double(Fwd Seg Size Min)" operator="lessOrEqual" value="22.0"/>
										<ScoreDistribution value="BENIGN" recordCount="45"/>
										<ScoreDistribution value="Infiltration - NMAP Portscan" recordCount="0"/>
									</Node>
									<Node score="Infiltration - NMAP Portscan" recordCount="17022">
										<SimplePredicate field="double(Bwd Pkts/s)" operator="lessOrEqual" value="29040.404296875"/>
										<ScoreDistribution value="BENIGN" recordCount="0"/>
										<ScoreDistribution value="Infiltration - NMAP Portscan" recordCount="17022"/>
									</Node>
									<Node>
										<SimplePredicate field="double(Bwd Pkts/s)" operator="lessOrEqual" value="48809.5234375"/>
										<Node score="Infiltration - NMAP Portscan" recordCount="70">
											<SimplePredicate field="double(Fwd Seg Size Min)" operator="lessOrEqual" value="26.0"/>
											<ScoreDistribution value="BENIGN" recordCount="0"/>
											<ScoreDistribution value="Infiltration - NMAP Portscan" recordCount="70"/>
										</Node>
										<Node score="BENIGN" recordCount="20">
											<SimplePredicate field="double(Fwd Seg Size Min)" operator="lessOrEqual" value="36.0"/>
											<ScoreDistribution value="BENIGN" recordCount="20"/>
											<ScoreDistribution value="Infiltration - NMAP Portscan" recordCount="0"/>
										</Node>
										<Node score="Infiltration - NMAP Portscan" recordCount="6">
											<True/>
											<ScoreDistribution value="BENIGN" recordCount="0"/>
											<ScoreDistribution value="Infiltration - NMAP Portscan" recordCount="6"/>
										</Node>
									</Node>
									<Node>
										<SimplePredicate field="double(Bwd Pkts/s)" operator="lessOrEqual" value="54093.56640625"/>
										<Node score="Infiltration - NMAP Portscan" recordCount="247">
											<SimplePredicate field="double(Fwd Seg Size Min)" operator="lessOrEqual" value="26.0"/>
											<ScoreDistribution value="BENIGN" recordCount="0"/>
											<ScoreDistribution value="Infiltration - NMAP Portscan" recordCount="247"/>
										</Node>
										<Node score="BENIGN" recordCount="8">
											<SimplePredicate field="double(Fwd Seg Size Min)" operator="lessOrEqual" value="36.0"/>
											<ScoreDistribution value="BENIGN" recordCount="8"/>
											<ScoreDistribution value="Infiltration - NMAP Portscan" recordCount="0"/>
										</Node>
										<Node score="Infiltration - NMAP Portscan" recordCount="12">
											<True/>
											<ScoreDistribution value="BENIGN" recordCount="0"/>
											<ScoreDistribution value="Infiltration - NMAP Portscan" recordCount="12"/>
										</Node>
									</Node>
									<Node>
										<SimplePredicate field="double(Fwd Seg Size Min)" operator="lessOrEqual" value="32.0"/>
										<Node>
											<SimplePredicate field="double(Bwd Pkts/s)" operator="lessOrEqual" value="87121.21484375"/>
											<Node score="Infiltration - NMAP Portscan" recordCount="79">
												<SimplePredicate field="double(Bwd Pkts/s)" operator="lessOrEqual" value="80128.20703125"/>
												<ScoreDistribution value="BENIGN" recordCount="0"/>
												<ScoreDistribution value="Infiltration - NMAP Portscan" recordCount="79"/>
											</Node>
											<Node score="BENIGN" recordCount="1">
												<True/>
												<ScoreDistribution value="BENIGN" recordCount="1"/>
												<ScoreDistribution value="Infiltration - NMAP Portscan" recordCount="0"/>
											</Node>
										</Node>
										<Node score="Infiltration - NMAP Portscan" recordCount="16405">
											<True/>
											<ScoreDistribution value="BENIGN" recordCount="0"/>
											<ScoreDistribution value="Infiltration - NMAP Portscan" recordCount="16405"/>
										</Node>
									</Node>
									<Node score="Infiltration - NMAP Portscan" recordCount="60">
										<True/>
										<ScoreDistribution value="BENIGN" recordCount="0"/>
										<ScoreDistribution value="Infiltration - NMAP Portscan" recordCount="60"/>
									</Node>
								</Node>
								<Node score="BENIGN" recordCount="95">
									<SimplePredicate field="double(Fwd Seg Size Min)" operator="lessOrEqual" value="10.0"/>
									<ScoreDistribution value="BENIGN" recordCount="95"/>
									<ScoreDistribution value="Infiltration - NMAP Portscan" recordCount="0"/>
								</Node>
								<Node score="Infiltration - NMAP Portscan" recordCount="30">
									<True/>
									<ScoreDistribution value="BENIGN" recordCount="0"/>
									<ScoreDistribution value="Infiltration - NMAP Portscan" recordCount="30"/>
								</Node>
							</Node>
							<Node score="BENIGN" recordCount="124">
								<SimplePredicate field="double(Fwd Segment Size Avg)" operator="lessOrEqual" value="1.1666666865348816"/>
								<ScoreDistribution value="BENIGN" recordCount="124"/>
								<ScoreDistribution value="Infiltration - NMAP Portscan" recordCount="0"/>
							</Node>
							<Node>
								<SimplePredicate field="double(Bwd Seg Size Avg)" operator="lessOrEqual" value="954.3446350097656"/>
								<Node>
									<SimplePredicate field="double(Pkt Len Max)" operator="lessOrEqual" value="97.5"/>
									<Node>
										<SimplePredicate field="double(Tot Len of Bwd Pkt)" operator="lessOrEqual" value="75.0"/>
										<Node>
											<SimplePredicate field="double(Pkt Len Std)" operator="lessOrEqual" value="15.893108367919922"/>
											<Node>
												<SimplePredicate field="double(Fwd Pkt Len Max)" operator="lessOrEqual" value="29.0"/>
												<Node>
													<SimplePredicate field="double(Bwd Seg Size Avg)" operator="lessOrEqual" value="3.2083333134651184"/>
													<Node>
														<SimplePredicate field="double(Fwd Pkt Len Mean)" operator="lessOrEqual" value="2.774999976158142"/>
														<Node score="Infiltration - NMAP Portscan" recordCount="28">
															<SimplePredicate field="double(Fwd Pkt Len Max)" operator="lessOrEqual" value="10.0"/>
															<ScoreDistribution value="BENIGN" recordCount="0"/>
															<ScoreDistribution value="Infiltration - NMAP Portscan" recordCount="28"/>
														</Node>
														<Node score="BENIGN" recordCount="1">
															<True/>
															<ScoreDistribution value="BENIGN" recordCount="1"/>
															<ScoreDistribution value="Infiltration - NMAP Portscan" recordCount="0"/>
														</Node>
													</Node>
													<Node score="Infiltration - NMAP Portscan" recordCount="205">
														<True/>
														<ScoreDistribution value="BENIGN" recordCount="0"/>
														<ScoreDistribution value="Infiltration - NMAP Portscan" recordCount="205"/>
													</Node>
												</Node>
												<Node score="BENIGN" recordCount="1">
													<SimplePredicate field="double(Bwd Pkts/s)" operator="lessOrEqual" value="34.32514572143555"/>
													<ScoreDistribution value="BENIGN" recordCount="1"/>
													<ScoreDistribution value="Infiltration - NMAP Portscan" recordCount="0"/>
												</Node>
												<Node score="BENIGN" recordCount="1">
													<SimplePredicate field="double(Bwd Seg Size Avg)" operator="lessOrEqual" value="10.083333492279053"/>
													<ScoreDistribution value="BENIGN" recordCount="1"/>
													<ScoreDistribution value="Infiltration - NMAP Portscan" recordCount="0"/>
												</Node>
												<Node score="Infiltration - NMAP Portscan" recordCount="58">
													<True/>
													<ScoreDistribution value="BENIGN" recordCount="0"/>
													<ScoreDistribution value="Infiltration - NMAP Portscan" recordCount="58"/>
												</Node>
											</Node>
											<Node score="BENIGN" recordCount="24">
												<SimplePredicate field="double(Subflow Fwd Bytes)" operator="lessOrEqual" value="3.5"/>
												<ScoreDistribution value="BENIGN" recordCount="24"/>
												<ScoreDistribution value="Infiltration - NMAP Portscan" recordCount="0"/>
											</Node>
											<Node>
												<SimplePredicate field="double(Subflow Fwd Bytes)" operator="lessOrEqual" value="5.5"/>
												<Node score="BENIGN" recordCount="10">
													<SimplePredicate field="double(Fwd Pkt Len Max)" operator="lessOrEqual" value="31.5"/>
													<ScoreDistribution value="BENIGN" recordCount="10"/>
													<ScoreDistribution value="Infiltration - NMAP Portscan" recordCount="0"/>
												</Node>
												<Node score="BENIGN" recordCount="2">
													<SimplePredicate field="double(Bwd Pkts/s)" operator="lessOrEqual" value="0.1582677625119686"/>
													<ScoreDistribution value="BENIGN" recordCount="2"/>
													<ScoreDistribution value="Infiltration - NMAP Portscan" recordCount="0"/>
												</Node>
												<Node>
													<SimplePredicate field="double(Bwd Seg Size Avg)" operator="lessOrEqual" value="5.541666746139526"/>
													<Node score="Infiltration - NMAP Portscan" recordCount="110">
														<SimplePredicate field="double(Bwd Seg Size Avg)" operator="lessOrEqual" value="4.274999976158142"/>
														<ScoreDistribution value="BENIGN" recordCount="0"/>
														<ScoreDistribution value="Infiltration - NMAP Portscan" recordCount="110"/>
													</Node>
													<Node score="Infiltration - NMAP Portscan" recordCount="4">
														<SimplePredicate field="double(Pkt Len Std)" operator="lessOrEqual" value="15.01285171508789"/>
														<ScoreDistribution value="BENIGN" recordCount="0"/>
														<ScoreDistribution value="Infiltration - NMAP Portscan" recordCount="4"/>
													</Node>
													<Node score="BENIGN" recordCount="1">
														<SimplePredicate field="double(Flow Bytes/s)" operator="lessOrEqual" value="2525.229736328125"/>
														<ScoreDistribution value="BENIGN" recordCount="1"/>
														<ScoreDistribution value="Infiltration - NMAP Portscan" recordCount="0"/>
													</Node>
													<Node score="Infiltration - NMAP Portscan" recordCount="76">
														<True/>
														<ScoreDistribution value="BENIGN" recordCount="0"/>
														<ScoreDistribution value="Infiltration - NMAP Portscan" recordCount="76"/>
													</Node>
												</Node>
												<Node score="Infiltration - NMAP Portscan" recordCount="2">
													<SimplePredicate field="double(Fwd Pkt Len Max)" operator="lessOrEqual" value="42.5"/>
													<ScoreDistribution value="BENIGN" recordCount="0"/>
													<ScoreDistribution value="Infiltration - NMAP Portscan" recordCount="2"/>
												</Node>
												<Node score="BENIGN" recordCount="1">
													<True/>
													<ScoreDistribution value="BENIGN" recordCount="1"/>
													<ScoreDistribution value="Infiltration - NMAP Portscan" recordCount="0"/>
												</Node>
											</Node>
											<Node score="Infiltration - NMAP Portscan" recordCount="5">
												<SimplePredicate field="double(Pkt Len Std)" operator="lessOrEqual" value="13.678003311157227"/>
												<ScoreDistribution value="BENIGN" recordCount="0"/>
												<ScoreDistribution value="Infiltration - NMAP Portscan" recordCount="5"/>
											</Node>
											<Node score="BENIGN" recordCount="17">
												<True/>
												<ScoreDistribution value="BENIGN" recordCount="17"/>
												<ScoreDistribution value="Infiltration - NMAP Portscan" recordCount="0"/>
											</Node>
										</Node>
										<Node score="BENIGN" recordCount="54">
											<True/>
											<ScoreDistribution value="BENIGN" recordCount="54"/>
											<ScoreDistribution value="Infiltration - NMAP Portscan" recordCount="0"/>
										</Node>
									</Node>
									<Node score="BENIGN" recordCount="16">
										<True/>
										<ScoreDistribution value="BENIGN" recordCount="16"/>
										<ScoreDistribution value="Infiltration - NMAP Portscan" recordCount="0"/>
									</Node>
								</Node>
								<Node score="Infiltration - NMAP Portscan" recordCount="441">
									<True/>
									<ScoreDistribution value="BENIGN" recordCount="0"/>
									<ScoreDistribution value="Infiltration - NMAP Portscan" recordCount="441"/>
								</Node>
							</Node>
							<Node score="BENIGN" recordCount="24">
								<True/>
								<ScoreDistribution value="BENIGN" recordCount="24"/>
								<ScoreDistribution value="Infiltration - NMAP Portscan" recordCount="0"/>
							</Node>
						</Node>
						<Node>
							<SimplePredicate field="double(Bwd Seg Size Avg)" operator="lessOrEqual" value="35.75188064575195"/>
							<Node>
								<SimplePredicate field="double(Fwd Pkt Len Max)" operator="lessOrEqual" value="50.5"/>
								<Node>
									<SimplePredicate field="double(Fwd Pkt Len Mean)" operator="lessOrEqual" value="19.225000381469727"/>
									<Node>
										<SimplePredicate field="double(Bwd Seg Size Avg)" operator="lessOrEqual" value="1.3571428060531616"/>
										<Node score="BENIGN" recordCount="5">
											<SimplePredicate field="double(Fwd Pkt Len Max)" operator="lessOrEqual" value="22.5"/>
											<ScoreDistribution value="BENIGN" recordCount="5"/>
											<ScoreDistribution value="Infiltration - NMAP Portscan" recordCount="0"/>
										</Node>
										<Node>
											<SimplePredicate field="double(Fwd Pkt Len Mean)" operator="lessOrEqual" value="15.833333492279053"/>
											<Node score="Infiltration - NMAP Portscan" recordCount="6">
												<SimplePredicate field="double(Pkt Len Std)" operator="lessOrEqual" value="17.20594596862793"/>
												<ScoreDistribution value="BENIGN" recordCount="0"/>
												<ScoreDistribution value="Infiltration - NMAP Portscan" recordCount="6"/>
											</Node>
											<Node score="BENIGN" recordCount="10">
												<SimplePredicate field="double(Flow Bytes/s)" operator="lessOrEqual" value="63095.96765136719"/>
												<ScoreDistribution value="BENIGN" recordCount="10"/>
												<ScoreDistribution value="Infiltration - NMAP Portscan" recordCount="0"/>
											</Node>
											<Node score="Infiltration - NMAP Portscan" recordCount="2">
												<True/>
												<ScoreDistribution value="BENIGN" recordCount="0"/>
												<ScoreDistribution value="Infiltration - NMAP Portscan" recordCount="2"/>
											</Node>
										</Node>
										<Node score="Infiltration - NMAP Portscan" recordCount="17">
											<True/>
											<ScoreDistribution value="BENIGN" recordCount="0"/>
											<ScoreDistribution value="Infiltration - NMAP Portscan" recordCount="17"/>
										</Node>
									</Node>
									<Node>
										<SimplePredicate field="double(Flow Bytes/s)" operator="lessOrEqual" value="77.00624942779541"/>
										<Node score="BENIGN" recordCount="60">
											<SimplePredicate field="double(Flow Bytes/s)" operator="lessOrEqual" value="9.285607814788818"/>
											<ScoreDistribution value="BENIGN" recordCount="60"/>
											<ScoreDistribution value="Infiltration - NMAP Portscan" recordCount="0"/>
										</Node>
										<Node score="BENIGN" recordCount="15">
											<SimplePredicate field="double(Fwd Segment Size Avg)" operator="lessOrEqual" value="13.642857074737549"/>
											<ScoreDistribution value="BENIGN" recordCount="15"/>
											<ScoreDistribution value="Infiltration - NMAP Portscan" recordCount="0"/>
										</Node>
										<Node score="Infiltration - NMAP Portscan" recordCount="1">
											<SimplePredicate field="double(Subflow Fwd Bytes)" operator="lessOrEqual" value="8.0"/>
											<ScoreDistribution value="BENIGN" recordCount="0"/>
											<ScoreDistribution value="Infiltration - NMAP Portscan" recordCount="1"/>
										</Node>
										<Node score="BENIGN" recordCount="2">
											<True/>
											<ScoreDistribution value="BENIGN" recordCount="2"/>
											<ScoreDistribution value="Infiltration - NMAP Portscan" recordCount="0"/>
										</Node>
									</Node>
									<Node score="Infiltration - NMAP Portscan" recordCount="4">
										<SimplePredicate field="double(Bwd Pkts/s)" operator="lessOrEqual" value="7.227301120758057"/>
										<ScoreDistribution value="BENIGN" recordCount="0"/>
										<ScoreDistribution value="Infiltration - NMAP Portscan" recordCount="4"/>
									</Node>
									<Node score="BENIGN" recordCount="9">
										<True/>
										<ScoreDistribution value="BENIGN" recordCount="9"/>
										<ScoreDistribution value="Infiltration - NMAP Portscan" recordCount="0"/>
									</Node>
								</Node>
								<Node>
									<SimplePredicate field="double(Pkt Len Max)" operator="lessOrEqual" value="45.0"/>
									<Node score="BENIGN" recordCount="140">
										<SimplePredicate field="double(Fwd Pkt Len Max)" operator="lessOrEqual" value="42.0"/>
										<ScoreDistribution value="BENIGN" recordCount="140"/>
										<ScoreDistribution value="Infiltration - NMAP Portscan" recordCount="0"/>
									</Node>
									<Node score="Infiltration - NMAP Portscan" recordCount="1">
										<True/>
										<ScoreDistribution value="BENIGN" recordCount="0"/>
										<ScoreDistribution value="Infiltration - NMAP Portscan" recordCount="1"/>
									</Node>
								</Node>
								<Node score="BENIGN" recordCount="1170">
									<True/>
									<ScoreDistribution value="BENIGN" recordCount="1170"/>
									<ScoreDistribution value="Infiltration - NMAP Portscan" recordCount="0"/>
								</Node>
							</Node>
							<Node>
								<SimplePredicate field="double(Pkt Len Std)" operator="lessOrEqual" value="78.47042083740234"/>
								<Node>
									<SimplePredicate field="double(Tot Len of Bwd Pkt)" operator="lessOrEqual" value="137.0"/>
									<Node>
										<SimplePredicate field="double(Fwd Pkt Len Mean)" operator="lessOrEqual" value="44.91666603088379"/>
										<Node>
											<SimplePredicate field="double(Pkt Len Max)" operator="lessOrEqual" value="161.5"/>
											<Node score="BENIGN" recordCount="2">
												<SimplePredicate field="double(Bwd Pkts/s)" operator="lessOrEqual" value="0.11716526374220848"/>
												<ScoreDistribution value="BENIGN" recordCount="2"/>
												<ScoreDistribution value="Infiltration - NMAP Portscan" recordCount="0"/>
											</Node>
											<Node>
												<SimplePredicate field="double(Bwd Seg Size Avg)" operator="lessOrEqual" value="1.25"/>
												<Node>
													<SimplePredicate field="double(Flow Bytes/s)" operator="lessOrEqual" value="1018.27294921875"/>
													<Node score="Infiltration - NMAP Portscan" recordCount="156">
														<SimplePredicate field="double(Fwd Seg Size Min)" operator="lessOrEqual" value="26.0"/>
														<ScoreDistribution value="BENIGN" recordCount="0"/>
														<ScoreDistribution value="Infiltration - NMAP Portscan" recordCount="156"/>
													</Node>
													<Node score="BENIGN" recordCount="1">
														<True/>
														<ScoreDistribution value="BENIGN" recordCount="1"/>
														<ScoreDistribution value="Infiltration - NMAP Portscan" recordCount="0"/>
													</Node>
												</Node>
												<Node score="BENIGN" recordCount="1">
													<SimplePredicate field="double(Flow Bytes/s)" operator="lessOrEqual" value="44472.223571777344"/>
													<ScoreDistribution value="BENIGN" recordCount="1"/>
													<ScoreDistribution value="Infiltration - NMAP Portscan" recordCount="0"/>
												</Node>
												<Node score="Infiltration - NMAP Portscan" recordCount="13">
													<True/>
													<ScoreDistribution value="BENIGN" recordCount="0"/>
													<ScoreDistribution value="Infiltration - NMAP Portscan" recordCount="13"/>
												</Node>
											</Node>
											<Node score="BENIGN" recordCount="9">
												<SimplePredicate field="double(Tot Len of Bwd Pkt)" operator="lessOrEqual" value="92.0"/>
												<ScoreDistribution value="BENIGN" recordCount="9"/>
												<ScoreDistribution value="Infiltration - NMAP Portscan" recordCount="0"/>
											</Node>
											<Node score="Infiltration - NMAP Portscan" recordCount="23">
												<True/>
												<ScoreDistribution value="BENIGN" recordCount="0"/>
												<ScoreDistribution value="Infiltration - NMAP Portscan" recordCount="23"/>
											</Node>
										</Node>
										<Node score="Infiltration - NMAP Portscan" recordCount="303">
											<True/>
											<ScoreDistribution value="BENIGN" recordCount="0"/>
											<ScoreDistribution value="Infiltration - NMAP Portscan" recordCount="303"/>
										</Node>
									</Node>
									<Node>
										<SimplePredicate field="double(Fwd Pkt Len Max)" operator="lessOrEqual" value="258.0"/>
										<Node score="BENIGN" recordCount="62">
											<SimplePredicate field="double(Bwd Pkts/s)" operator="lessOrEqual" value="0.21523743495345116"/>
											<ScoreDistribution value="BENIGN" recordCount="62"/>
											<ScoreDistribution value="Infiltration - NMAP Portscan" recordCount="0"/>
										</Node>
										<Node>
											<SimplePredicate field="double(Tot Len of Bwd Pkt)" operator="lessOrEqual" value="12.0"/>
											<Node>
												<SimplePredicate field="double(Subflow Fwd Bytes)" operator="lessOrEqual" value="31.0"/>
												<Node score="Infiltration - NMAP Portscan" recordCount="2">
													<SimplePredicate field="double(Pkt Len Std)" operator="lessOrEqual" value="58.889883041381836"/>
													<ScoreDistribution value="BENIGN" recordCount="0"/>
													<ScoreDistribution value="Infiltration - NMAP Portscan" recordCount="2"/>
												</Node>
												<Node score="BENIGN" recordCount="6">
													<True/>
													<ScoreDistribution value="BENIGN" recordCount="6"/>
													<ScoreDistribution value="Infiltration - NMAP Portscan" recordCount="0"/>
												</Node>
											</Node>
											<Node score="Infiltration - NMAP Portscan" recordCount="6">
												<True/>
												<ScoreDistribution value="BENIGN" recordCount="0"/>
												<ScoreDistribution value="Infiltration - NMAP Portscan" recordCount="6"/>
											</Node>
										</Node>
										<Node score="Infiltration - NMAP Portscan" recordCount="19">
											<True/>
											<ScoreDistribution value="BENIGN" recordCount="0"/>
											<ScoreDistribution value="Infiltration - NMAP Portscan" recordCount="19"/>
										</Node>
									</Node>
									<Node score="Infiltration - NMAP Portscan" recordCount="229">
										<SimplePredicate field="double(Fwd Segment Size Avg)" operator="lessOrEqual" value="400.0"/>
										<ScoreDistribution value="BENIGN" recordCount="0"/>
										<ScoreDistribution value="Infiltration - NMAP Portscan" recordCount="229"/>
									</Node>
									<Node score="BENIGN" recordCount="1">
										<True/>
										<ScoreDistribution value="BENIGN" recordCount="1"/>
										<ScoreDistribution value="Infiltration - NMAP Portscan" recordCount="0"/>
									</Node>
								</Node>
								<Node>
									<SimplePredicate field="double(Fwd Pkt Len Mean)" operator="lessOrEqual" value="37.41250038146973"/>
									<Node>
										<SimplePredicate field="double(Fwd Pkt Len Mean)" operator="lessOrEqual" value="26.392857551574707"/>
										<Node score="BENIGN" recordCount="4">
											<SimplePredicate field="double(Tot Len of Bwd Pkt)" operator="lessOrEqual" value="173.0"/>
											<ScoreDistribution value="BENIGN" recordCount="4"/>
											<ScoreDistribution value="Infiltration - NMAP Portscan" recordCount="0"/>
										</Node>
										<Node score="Infiltration - NMAP Portscan" recordCount="1">
											<True/>
											<ScoreDistribution value="BENIGN" recordCount="0"/>
											<ScoreDistribution value="Infiltration - NMAP Portscan" recordCount="1"/>
										</Node>
									</Node>
									<Node score="Infiltration - NMAP Portscan" recordCount="82">
										<SimplePredicate field="double(Fwd Pkt Len Mean)" operator="lessOrEqual" value="35.54166603088379"/>
										<ScoreDistribution value="BENIGN" recordCount="0"/>
										<ScoreDistribution value="Infiltration - NMAP Portscan" recordCount="82"/>
									</Node>
									<Node score="BENIGN" recordCount="1">
										<SimplePredicate field="double(Tot Len of Bwd Pkt)" operator="lessOrEqual" value="296.0"/>
										<ScoreDistribution value="BENIGN" recordCount="1"/>
										<ScoreDistribution value="Infiltration - NMAP Portscan" recordCount="0"/>
									</Node>
									<Node score="Infiltration - NMAP Portscan" recordCount="2">
										<True/>
										<ScoreDistribution value="BENIGN" recordCount="0"/>
										<ScoreDistribution value="Infiltration - NMAP Portscan" recordCount="2"/>
									</Node>
								</Node>
								<Node>
									<SimplePredicate field="double(Subflow Fwd Bytes)" operator="lessOrEqual" value="26.5"/>
									<Node>
										<SimplePredicate field="double(Bwd Seg Size Avg)" operator="lessOrEqual" value="33.61428451538086"/>
										<Node>
											<SimplePredicate field="double(Pkt Len Max)" operator="lessOrEqual" value="152.0"/>
											<Node score="BENIGN" recordCount="19">
												<SimplePredicate field="double(Fwd Pkt Len Max)" operator="lessOrEqual" value="122.5"/>
												<ScoreDistribution value="BENIGN" recordCount="19"/>
												<ScoreDistribution value="Infiltration - NMAP Portscan" recordCount="0"/>
											</Node>
											<Node score="Infiltration - NMAP Portscan" recordCount="12">
												<True/>
												<ScoreDistribution value="BENIGN" recordCount="0"/>
												<ScoreDistribution value="Infiltration - NMAP Portscan" recordCount="12"/>
											</Node>
										</Node>
										<Node score="BENIGN" recordCount="36">
											<True/>
											<ScoreDistribution value="BENIGN" recordCount="36"/>
											<ScoreDistribution value="Infiltration - NMAP Portscan" recordCount="0"/>
										</Node>
									</Node>
									<Node score="Infiltration - NMAP Portscan" recordCount="3">
										<True/>
										<ScoreDistribution value="BENIGN" recordCount="0"/>
										<ScoreDistribution value="Infiltration - NMAP Portscan" recordCount="3"/>
									</Node>
								</Node>
								<Node score="BENIGN" recordCount="104">
									<True/>
									<ScoreDistribution value="BENIGN" recordCount="104"/>
									<ScoreDistribution value="Infiltration - NMAP Portscan" recordCount="0"/>
								</Node>
							</Node>
							<Node>
								<SimplePredicate field="double(Bwd Seg Size Avg)" operator="lessOrEqual" value="0.7142341136932373"/>
								<Node>
									<SimplePredicate field="double(Fwd Pkt Len Max)" operator="lessOrEqual" value="259.0"/>
									<Node score="BENIGN" recordCount="5">
										<SimplePredicate field="double(Pkt Len Max)" operator="lessOrEqual" value="211.5"/>
										<ScoreDistribution value="BENIGN" recordCount="5"/>
										<ScoreDistribution value="Infiltration - NMAP Portscan" recordCount="0"/>
									</Node>
									<Node score="Infiltration - NMAP Portscan" recordCount="14">
										<True/>
										<ScoreDistribution value="BENIGN" recordCount="0"/>
										<ScoreDistribution value="Infiltration - NMAP Portscan" recordCount="14"/>
									</Node>
								</Node>
								<Node score="BENIGN" recordCount="35">
									<True/>
									<ScoreDistribution value="BENIGN" recordCount="35"/>
									<ScoreDistribution value="Infiltration - NMAP Portscan" recordCount="0"/>
								</Node>
							</Node>
							<Node score="BENIGN" recordCount="289">
								<True/>
								<ScoreDistribution value="BENIGN" recordCount="289"/>
								<ScoreDistribution value="Infiltration - NMAP Portscan" recordCount="0"/>
							</Node>
						</Node>
						<Node>
							<SimplePredicate field="double(Fwd Pkt Len Mean)" operator="lessOrEqual" value="22.04395580291748"/>
							<Node>
								<SimplePredicate field="double(Fwd Segment Size Avg)" operator="lessOrEqual" value="21.17894744873047"/>
								<Node score="BENIGN" recordCount="601">
									<SimplePredicate field="double(Subflow Fwd Bytes)" operator="lessOrEqual" value="8.5"/>
									<ScoreDistribution value="BENIGN" recordCount="601"/>
									<ScoreDistribution value="Infiltration - NMAP Portscan" recordCount="0"/>
								</Node>
								<Node score="BENIGN" recordCount="36">
									<SimplePredicate field="double(Pkt Len Max)" operator="lessOrEqual" value="1666.5"/>
									<ScoreDistribution value="BENIGN" recordCount="36"/>
									<ScoreDistribution value="Infiltration - NMAP Portscan" recordCount="0"/>
								</Node>
								<Node score="Infiltration - NMAP Portscan" recordCount="13">
									<True/>
									<ScoreDistribution value="BENIGN" recordCount="0"/>
									<ScoreDistribution value="Infiltration - NMAP Portscan" recordCount="13"/>
								</Node>
							</Node>
							<Node>
								<SimplePredicate field="double(Flow Bytes/s)" operator="lessOrEqual" value="4484.9498291015625"/>
								<Node score="BENIGN" recordCount="6">
									<SimplePredicate field="double(Subflow Fwd Bytes)" operator="lessOrEqual" value="8.5"/>
									<ScoreDistribution value="BENIGN" recordCount="6"/>
									<ScoreDistribution value="Infiltration - NMAP Portscan" recordCount="0"/>
								</Node>
								<Node score="Infiltration - NMAP Portscan" recordCount="157">
									<SimplePredicate field="double(Bwd Seg Size Avg)" operator="lessOrEqual" value="94.89374923706055"/>
									<ScoreDistribution value="BENIGN" recordCount="0"/>
									<ScoreDistribution value="Infiltration - NMAP Portscan" recordCount="157"/>
								</Node>
								<Node score="Infiltration - NMAP Portscan" recordCount="88">
									<SimplePredicate field="double(Fwd Pkt Len Max)" operator="lessOrEqual" value="235.0"/>
									<ScoreDistribution value="BENIGN" recordCount="0"/>
									<ScoreDistribution value="Infiltration - NMAP Portscan" recordCount="88"/>
								</Node>
								<Node score="BENIGN" recordCount="2">
									<True/>
									<ScoreDistribution value="BENIGN" recordCount="2"/>
									<ScoreDistribution value="Infiltration - NMAP Portscan" recordCount="0"/>
								</Node>
							</Node>
							<Node score="BENIGN" recordCount="11">
								<True/>
								<ScoreDistribution value="BENIGN" recordCount="11"/>
								<ScoreDistribution value="Infiltration - NMAP Portscan" recordCount="0"/>
							</Node>
						</Node>
						<Node>
							<SimplePredicate field="double(Bwd Pkts/s)" operator="lessOrEqual" value="8393.03271484375"/>
							<Node>
								<SimplePredicate field="double(Pkt Len Std)" operator="lessOrEqual" value="516.3714599609375"/>
								<Node>
									<SimplePredicate field="double(Flow Bytes/s)" operator="lessOrEqual" value="8082.92626953125"/>
									<Node>
										<SimplePredicate field="double(Fwd Pkt Len Mean)" operator="lessOrEqual" value="33.60769081115723"/>
										<Node>
											<SimplePredicate field="double(Fwd Pkt Len Mean)" operator="lessOrEqual" value="33.54999923706055"/>
											<Node score="BENIGN" recordCount="904">
												<SimplePredicate field="double(Pkt Len Max)" operator="lessOrEqual" value="138.5"/>
												<ScoreDistribution value="BENIGN" recordCount="904"/>
												<ScoreDistribution value="Infiltration - NMAP Portscan" recordCount="0"/>
											</Node>
											<Node score="Infiltration - NMAP Portscan" recordCount="11">
												<SimplePredicate field="double(Pkt Len Max)" operator="lessOrEqual" value="139.5"/>
												<ScoreDistribution value="BENIGN" recordCount="0"/>
												<ScoreDistribution value="Infiltration - NMAP Portscan" recordCount="11"/>
											</Node>
											<Node score="BENIGN" recordCount="655">
												<True/>
												<ScoreDistribution value="BENIGN" recordCount="655"/>
												<ScoreDistribution value="Infiltration - NMAP Portscan" recordCount="0"/>
											</Node>
										</Node>
										<Node score="Infiltration - NMAP Portscan" recordCount="7">
											<True/>
											<ScoreDistribution value="BENIGN" recordCount="0"/>
											<ScoreDistribution value="Infiltration - NMAP Portscan" recordCount="7"/>
										</Node>
									</Node>
									<Node>
										<SimplePredicate field="double(Bwd Seg Size Avg)" operator="lessOrEqual" value="278.7857208251953"/>
										<Node>
											<SimplePredicate field="double(Fwd Pkt Len Max)" operator="lessOrEqual" value="50.5"/>
											<Node score="BENIGN" recordCount="2173">
												<SimplePredicate field="double(Fwd Pkt Len Max)" operator="lessOrEqual" value="49.5"/>
												<ScoreDistribution value="BENIGN" recordCount="2173"/>
												<ScoreDistribution value="Infiltration - NMAP Portscan" recordCount="0"/>
											</Node>
											<Node score="BENIGN" recordCount="21">
												<SimplePredicate field="double(Pkt Len Max)" operator="lessOrEqual" value="147.0"/>
												<ScoreDistribution value="BENIGN" recordCount="21"/>
												<ScoreDistribution value="Infiltration - NMAP Portscan" recordCount="0"/>
											</Node>
											<Node score="Infiltration - NMAP Portscan" recordCount="3">
												<SimplePredicate field="double(Bwd Seg Size Avg)" operator="lessOrEqual" value="166.5"/>
												<ScoreDistribution value="BENIGN" recordCount="0"/>
												<ScoreDistribution value="Infiltration - NMAP Portscan" recordCount="3"/>
											</Node>
											<Node score="BENIGN" recordCount="16">
												<True/>
												<ScoreDistribution value="BENIGN" recordCount="16"/>
												<ScoreDistribution value="Infiltration - NMAP Portscan" recordCount="0"/>
											</Node>
										</Node>
										<Node score="BENIGN" recordCount="13234">
											<True/>
											<ScoreDistribution value="BENIGN" recordCount="13234"/>
											<ScoreDistribution value="Infiltration - NMAP Portscan" recordCount="0"/>
										</Node>
									</Node>
									<Node>
										<SimplePredicate field="double(Bwd Pkts/s)" operator="lessOrEqual" value="5.389132261276245"/>
										<Node score="BENIGN" recordCount="1543">
											<SimplePredicate field="double(Subflow Fwd Bytes)" operator="lessOrEqual" value="74.5"/>
											<ScoreDistribution value="BENIGN" recordCount="1543"/>
											<ScoreDistribution value="Infiltration - NMAP Portscan" recordCount="0"/>
										</Node>
										<Node score="Infiltration - NMAP Portscan" recordCount="4">
											<SimplePredicate field="double(Fwd Pkt Len Mean)" operator="lessOrEqual" value="131.5500030517578"/>
											<ScoreDistribution value="BENIGN" recordCount="0"/>
											<ScoreDistribution value="Infiltration - NMAP Portscan" recordCount="4"/>
										</Node>
										<Node score="BENIGN" recordCount="121">
											<True/>
											<ScoreDistribution value="BENIGN" recordCount="121"/>
											<ScoreDistribution value="Infiltration - NMAP Portscan" recordCount="0"/>
										</Node>
									</Node>
									<Node score="BENIGN" recordCount="133">
										<SimplePredicate field="double(Pkt Len Max)" operator="lessOrEqual" value="1669.0"/>
										<ScoreDistribution value="BENIGN" recordCount="133"/>
										<ScoreDistribution value="Infiltration - NMAP Portscan" recordCount="0"/>
									</Node>
									<Node score="Infiltration - NMAP Portscan" recordCount="10">
										<True/>
										<ScoreDistribution value="BENIGN" recordCount="0"/>
										<ScoreDistribution value="Infiltration - NMAP Portscan" recordCount="10"/>
									</Node>
								</Node>
								<Node>
									<SimplePredicate field="double(Fwd Pkt Len Mean)" operator="lessOrEqual" value="80.4000015258789"/>
									<Node score="BENIGN" recordCount="11715">
										<SimplePredicate field="double(Bwd Seg Size Avg)" operator="lessOrEqual" value="156.5"/>
										<ScoreDistribution value="BENIGN" recordCount="11715"/>
										<ScoreDistribution value="Infiltration - NMAP Portscan" recordCount="0"/>
									</Node>
									<Node>
										<SimplePredicate field="double(Tot Len of Bwd Pkt)" operator="lessOrEqual" value="157.5"/>
										<Node>
											<SimplePredicate field="double(Bwd Pkts/s)" operator="lessOrEqual" value="1170.0297241210938"/>
											<Node>
												<SimplePredicate field="double(Pkt Len Std)" operator="lessOrEqual" value="80.25661849975586"/>
												<Node score="BENIGN" recordCount="1">
													<SimplePredicate field="double(Pkt Len Std)" operator="lessOrEqual" value="71.77133560180664"/>
													<ScoreDistribution value="BENIGN" recordCount="1"/>
													<ScoreDistribution value="Infiltration - NMAP Portscan" recordCount="0"/>
												</Node>
												<Node score="Infiltration - NMAP Portscan" recordCount="12">
													<True/>
													<ScoreDistribution value="BENIGN" recordCount="0"/>
													<ScoreDistribution value="Infiltration - NMAP Portscan" recordCount="12"/>
												</Node>
											</Node>
											<Node score="BENIGN" recordCount="25">
												<True/>
												<ScoreDistribution value="BENIGN" recordCount="25"/>
												<ScoreDistribution value="Infiltration - NMAP Portscan" recordCount="0"/>
											</Node>
										</Node>
										<Node score="Infiltration - NMAP Portscan" recordCount="41">
											<SimplePredicate field="double(Flow Bytes/s)" operator="lessOrEqual" value="489550.3125"/>
											<ScoreDistribution value="BENIGN" recordCount="0"/>
											<ScoreDistribution value="Infiltration - NMAP Portscan" recordCount="41"/>
										</Node>
										<Node score="BENIGN" recordCount="12">
											<SimplePredicate field="double(Subflow Fwd Bytes)" operator="lessOrEqual" value="19.5"/>
											<ScoreDistribution value="BENIGN" recordCount="12"/>
											<ScoreDistribution value="Infiltration - NMAP Portscan" recordCount="0"/>
										</Node>
										<Node score="BENIGN" recordCount="11">
											<SimplePredicate field="double(Pkt Len Std)" operator="lessOrEqual" value="71.77133560180664"/>
											<ScoreDistribution value="BENIGN" recordCount="11"/>
											<ScoreDistribution value="Infiltration - NMAP Portscan" recordCount="0"/>
										</Node>
										<Node score="Infiltration - NMAP Portscan" recordCount="44">
											<True/>
											<ScoreDistribution value="BENIGN" recordCount="0"/>
											<ScoreDistribution value="Infiltration - NMAP Portscan" recordCount="44"/>
										</Node>
									</Node>
									<Node score="BENIGN" recordCount="1741">
										<True/>
										<ScoreDistribution value="BENIGN" recordCount="1741"/>
										<ScoreDistribution value="Infiltration - NMAP Portscan" recordCount="0"/>
									</Node>
								</Node>
								<Node>
									<SimplePredicate field="double(Fwd Pkt Len Max)" operator="lessOrEqual" value="452.0"/>
									<Node score="BENIGN" recordCount="272">
										<SimplePredicate field="double(Pkt Len Max)" operator="lessOrEqual" value="1669.0"/>
										<ScoreDistribution value="BENIGN" recordCount="272"/>
										<ScoreDistribution value="Infiltration - NMAP Portscan" recordCount="0"/>
									</Node>
									<Node score="Infiltration - NMAP Portscan" recordCount="3">
										<True/>
										<ScoreDistribution value="BENIGN" recordCount="0"/>
										<ScoreDistribution value="Infiltration - NMAP Portscan" recordCount="3"/>
									</Node>
								</Node>
								<Node score="Infiltration - NMAP Portscan" recordCount="190">
									<SimplePredicate field="double(Fwd Pkt Len Max)" operator="lessOrEqual" value="466.5"/>
									<ScoreDistribution value="BENIGN" recordCount="0"/>
									<ScoreDistribution value="Infiltration - NMAP Portscan" recordCount="190"/>
								</Node>
								<Node score="BENIGN" recordCount="84">
									<True/>
									<ScoreDistribution value="BENIGN" recordCount="84"/>
									<ScoreDistribution value="Infiltration - NMAP Portscan" recordCount="0"/>
								</Node>
							</Node>
							<Node>
								<SimplePredicate field="double(Fwd Pkt Len Mean)" operator="lessOrEqual" value="30.058823585510254"/>
								<Node score="BENIGN" recordCount="34">
									<SimplePredicate field="double(Pkt Len Max)" operator="lessOrEqual" value="1666.5"/>
									<ScoreDistribution value="BENIGN" recordCount="34"/>
									<ScoreDistribution value="Infiltration - NMAP Portscan" recordCount="0"/>
								</Node>
								<Node score="BENIGN" recordCount="1">
									<SimplePredicate field="double(Fwd Segment Size Avg)" operator="lessOrEqual" value="29.214285850524902"/>
									<ScoreDistribution value="BENIGN" recordCount="1"/>
									<ScoreDistribution value="Infiltration - NMAP Portscan" recordCount="0"/>
								</Node>
								<Node score="Infiltration - NMAP Portscan" recordCount="111">
									<True/>
									<ScoreDistribution value="BENIGN" recordCount="0"/>
									<ScoreDistribution value="Infiltration - NMAP Portscan" recordCount="111"/>
								</Node>
							</Node>
							<Node>
								<SimplePredicate field="double(Fwd Pkt Len Max)" operator="lessOrEqual" value="167.5"/>
								<Node score="BENIGN" recordCount="1">
									<SimplePredicate field="double(Subflow Fwd Bytes)" operator="lessOrEqual" value="14.5"/>
									<ScoreDistribution value="BENIGN" recordCount="1"/>
									<ScoreDistribution value="Infiltration - NMAP Portscan" recordCount="0"/>
								</Node>
								<Node score="Infiltration - NMAP Portscan" recordCount="25">
									<True/>
									<ScoreDistribution value="BENIGN" recordCount="0"/>
									<ScoreDistribution value="Infiltration - NMAP Portscan" recordCount="25"/>
								</Node>
							</Node>
							<Node>
								<SimplePredicate field="double(Bwd Pkts/s)" operator="lessOrEqual" value="27.07828998565674"/>
								<Node score="BENIGN" recordCount="998">
									<SimplePredicate field="double(Pkt Len Max)" operator="lessOrEqual" value="1877.5"/>
									<ScoreDistribution value="BENIGN" recordCount="998"/>
									<ScoreDistribution value="Infiltration - NMAP Portscan" recordCount="0"/>
								</Node>
								<Node>
									<SimplePredicate field="double(Fwd Segment Size Avg)" operator="lessOrEqual" value="119.3297119140625"/>
									<Node score="Infiltration - NMAP Portscan" recordCount="9">
										<SimplePredicate field="double(Bwd Seg Size Avg)" operator="lessOrEqual" value="845.71875"/>
										<ScoreDistribution value="BENIGN" recordCount="0"/>
										<ScoreDistribution value="Infiltration - NMAP Portscan" recordCount="9"/>
									</Node>
									<Node score="BENIGN" recordCount="2">
										<True/>
										<ScoreDistribution value="BENIGN" recordCount="2"/>
										<ScoreDistribution value="Infiltration - NMAP Portscan" recordCount="0"/>
									</Node>
								</Node>
								<Node score="BENIGN" recordCount="304">
									<True/>
									<ScoreDistribution value="BENIGN" recordCount="304"/>
									<ScoreDistribution value="Infiltration - NMAP Portscan" recordCount="0"/>
								</Node>
							</Node>
							<Node>
								<SimplePredicate field="double(Flow Bytes/s)" operator="lessOrEqual" value="26618.2880859375"/>
								<Node>
									<SimplePredicate field="double(Fwd Pkt Len Mean)" operator="lessOrEqual" value="96.86805725097656"/>
									<Node score="BENIGN" recordCount="3">
										<SimplePredicate field="double(Pkt Len Max)" operator="lessOrEqual" value="1669.0"/>
										<ScoreDistribution value="BENIGN" recordCount="3"/>
										<ScoreDistribution value="Infiltration - NMAP Portscan" recordCount="0"/>
									</Node>
									<Node score="Infiltration - NMAP Portscan" recordCount="58">
										<True/>
										<ScoreDistribution value="BENIGN" recordCount="0"/>
										<ScoreDistribution value="Infiltration - NMAP Portscan" recordCount="58"/>
									</Node>
								</Node>
								<Node score="BENIGN" recordCount="11">
									<True/>
									<ScoreDistribution value="BENIGN" recordCount="11"/>
									<ScoreDistribution value="Infiltration - NMAP Portscan" recordCount="0"/>
								</Node>
							</Node>
							<Node score="BENIGN" recordCount="196">
								<SimplePredicate field="double(Pkt Len Max)" operator="lessOrEqual" value="1850.5"/>
								<ScoreDistribution value="BENIGN" recordCount="196"/>
								<ScoreDistribution value="Infiltration - NMAP Portscan" recordCount="0"/>
							</Node>
							<Node score="Infiltration - NMAP Portscan" recordCount="5">
								<SimplePredicate field="double(Fwd Segment Size Avg)" operator="lessOrEqual" value="97.99768447875977"/>
								<ScoreDistribution value="BENIGN" recordCount="0"/>
								<ScoreDistribution value="Infiltration - NMAP Portscan" recordCount="5"/>
							</Node>
							<Node score="BENIGN" recordCount="21">
								<True/>
								<ScoreDistribution value="BENIGN" recordCount="21"/>
								<ScoreDistribution value="Infiltration - NMAP Portscan" recordCount="0"/>
							</Node>
						</Node>
						<Node score="Infiltration - NMAP Portscan" recordCount="92">
							<True/>
							<ScoreDistribution value="BENIGN" recordCount="0"/>
							<ScoreDistribution value="Infiltration - NMAP Portscan" recordCount="92"/>
						</Node>
					</Node>
				</TreeModel>
			</Segment>
			<Segment id="2">
				<True/>
				<TreeModel functionName="classification" missingValueStrategy="nullPrediction">
					<MiningSchema>
						<MiningField name="double(Fwd Segment Size Avg)"/>
						<MiningField name="double(Fwd Pkt Len Mean)"/>
						<MiningField name="double(Bwd Seg Size Avg)"/>
						<MiningField name="double(Bwd Pkts/s)"/>
						<MiningField name="double(Fwd Seg Size Min)"/>
						<MiningField name="double(Pkt Len Max)"/>
						<MiningField name="double(Tot Len of Bwd Pkt)"/>
						<MiningField name="double(Pkt Len Std)"/>
						<MiningField name="double(Fwd Pkt Len Max)"/>
						<MiningField name="double(Subflow Fwd Bytes)"/>
						<MiningField name="double(Flow Bytes/s)"/>
					</MiningSchema>
					<Node>
						<True/>
						<Node>
							<SimplePredicate field="double(Fwd Seg Size Min)" operator="lessOrEqual" value="22.0"/>
							<Node>
								<SimplePredicate field="double(Bwd Pkts/s)" operator="lessOrEqual" value="0.004166672006249428"/>
								<Node score="BENIGN" recordCount="224">
									<SimplePredicate field="double(Pkt Len Max)" operator="lessOrEqual" value="258.0"/>
									<ScoreDistribution value="BENIGN" recordCount="224"/>
									<ScoreDistribution value="Infiltration - NMAP Portscan" recordCount="0"/>
								</Node>
								<Node score="Infiltration - NMAP Portscan" recordCount="249">
									<SimplePredicate field="double(Fwd Pkt Len Mean)" operator="lessOrEqual" value="400.0"/>
									<ScoreDistribution value="BENIGN" recordCount="0"/>
									<ScoreDistribution value="Infiltration - NMAP Portscan" recordCount="249"/>
								</Node>
								<Node score="BENIGN" recordCount="1">
									<True/>
									<ScoreDistribution value="BENIGN" recordCount="1"/>
									<ScoreDistribution value="Infiltration - NMAP Portscan" recordCount="0"/>
								</Node>
							</Node>
							<Node>
								<SimplePredicate field="double(Subflow Fwd Bytes)" operator="lessOrEqual" value="11.5"/>
								<Node>
									<SimplePredicate field="double(Fwd Segment Size Avg)" operator="lessOrEqual" value="1.1666666865348816"/>
									<Node>
										<SimplePredicate field="double(Pkt Len Max)" operator="lessOrEqual" value="36.5"/>
										<Node>
											<SimplePredicate field="double(Pkt Len Max)" operator="lessOrEqual" value="0.5"/>
											<Node>
												<SimplePredicate field="double(Fwd Seg Size Min)" operator="lessOrEqual" value="10.0"/>
												<Node score="BENIGN" recordCount="57">
													<SimplePredicate field="double(Bwd Pkts/s)" operator="lessOrEqual" value="14.615423440933228"/>
													<ScoreDistribution value="BENIGN" recordCount="57"/>
													<ScoreDistribution value="Infiltration - NMAP Portscan" recordCount="0"/>
												</Node>
												<Node>
													<SimplePredicate field="double(Bwd Pkts/s)" operator="lessOrEqual" value="107.16254997253418"/>
													<Node>
														<SimplePredicate field="double(Bwd Pkts/s)" operator="lessOrEqual" value="28.593314170837402"/>
														<Node score="Infiltration - NMAP Portscan" recordCount="1">
															<SimplePredicate field="double(Bwd Pkts/s)" operator="lessOrEqual" value="24.959975242614746"/>
															<ScoreDistribution value="BENIGN" recordCount="0"/>
															<ScoreDistribution value="Infiltration - NMAP Portscan" recordCount="1"/>
														</Node>
														<Node score="BENIGN" recordCount="1">
															<True/>
															<ScoreDistribution value="BENIGN" recordCount="1"/>
															<ScoreDistribution value="Infiltration - NMAP Portscan" recordCount="0"/>
														</Node>
													</Node>
													<Node score="Infiltration - NMAP Portscan" recordCount="89">
														<SimplePredicate field="double(Bwd Pkts/s)" operator="lessOrEqual" value="32.08985137939453"/>
														<ScoreDistribution value="BENIGN" recordCount="0"/>
														<ScoreDistribution value="Infiltration - NMAP Portscan" recordCount="89"/>
													</Node>
													<Node score="BENIGN" recordCount="1">
														<SimplePredicate field="double(Bwd Pkts/s)" operator="lessOrEqual" value="32.09345626831055"/>
														<ScoreDistribution value="BENIGN" recordCount="1"/>
														<ScoreDistribution value="Infiltration - NMAP Portscan" recordCount="0"/>
													</Node>
													<Node score="Infiltration - NMAP Portscan" recordCount="33">
														<True/>
														<ScoreDistribution value="BENIGN" recordCount="0"/>
														<ScoreDistribution value="Infiltration - NMAP Portscan" recordCount="33"/>
													</Node>
												</Node>
												<Node score="BENIGN" recordCount="20">
													<True/>
													<ScoreDistribution value="BENIGN" recordCount="20"/>
													<ScoreDistribution value="Infiltration - NMAP Portscan" recordCount="0"/>
												</Node>
											</Node>
											<Node score="BENIGN" recordCount="1659">
												<True/>
												<ScoreDistribution value="BENIGN" recordCount="1659"/>
												<ScoreDistribution value="Infiltration - NMAP Portscan" recordCount="0"/>
											</Node>
										</Node>
										<Node score="BENIGN" recordCount="191">
											<True/>
											<ScoreDistribution value="BENIGN" recordCount="191"/>
											<ScoreDistribution value="Infiltration - NMAP Portscan" recordCount="0"/>
										</Node>
									</Node>
									<Node score="Infiltration - NMAP Portscan" recordCount="34">
										<SimplePredicate field="double(Pkt Len Max)" operator="lessOrEqual" value="43.5"/>
										<ScoreDistribution value="BENIGN" recordCount="0"/>
										<ScoreDistribution value="Infiltration - NMAP Portscan" recordCount="34"/>
									</Node>
									<Node score="BENIGN" recordCount="31">
										<True/>
										<ScoreDistribution value="BENIGN" recordCount="31"/>
										<ScoreDistribution value="Infiltration - NMAP Portscan" recordCount="0"/>
									</Node>
								</Node>
								<Node>
									<SimplePredicate field="double(Fwd Pkt Len Mean)" operator="lessOrEqual" value="11.627869129180908"/>
									<Node>
										<SimplePredicate field="double(Tot Len of Bwd Pkt)" operator="lessOrEqual" value="65306.5"/>
										<Node>
											<SimplePredicate field="double(Bwd Seg Size Avg)" operator="lessOrEqual" value="24.975000381469727"/>
											<Node>
												<SimplePredicate field="double(Fwd Segment Size Avg)" operator="lessOrEqual" value="10.708333492279053"/>
												<Node>
													<SimplePredicate field="double(Pkt Len Max)" operator="lessOrEqual" value="42.5"/>
													<Node score="BENIGN" recordCount="6">
														<SimplePredicate field="double(Fwd Seg Size Min)" operator="lessOrEqual" value="14.0"/>
														<ScoreDistribution value="BENIGN" recordCount="6"/>
														<ScoreDistribution value="Infiltration - NMAP Portscan" recordCount="0"/>
													</Node>
													<Node>
														<SimplePredicate field="double(Pkt Len Max)" operator="lessOrEqual" value="31.5"/>
														<Node score="Infiltration - NMAP Portscan" recordCount="229">
															<SimplePredicate field="double(Pkt Len Max)" operator="lessOrEqual" value="27.0"/>
															<ScoreDistribution value="BENIGN" recordCount="0"/>
															<ScoreDistribution value="Infiltration - NMAP Portscan" recordCount="229"/>
														</Node>
														<Node score="BENIGN" recordCount="50">
															<True/>
															<ScoreDistribution value="BENIGN" recordCount="50"/>
															<ScoreDistribution value="Infiltration - NMAP Portscan" recordCount="0"/>
														</Node>
													</Node>
													<Node>
														<SimplePredicate field="double(Pkt Len Std)" operator="lessOrEqual" value="17.064964771270752"/>
														<Node score="Infiltration - NMAP Portscan" recordCount="186">
															<SimplePredicate field="double(Fwd Pkt Len Max)" operator="lessOrEqual" value="37.0"/>
															<ScoreDistribution value="BENIGN" recordCount="0"/>
															<ScoreDistribution value="Infiltration - NMAP Portscan" recordCount="186"/>
														</Node>
														<Node>
															<SimplePredicate field="double(Flow Bytes/s)" operator="lessOrEqual" value="260.16522216796875"/>
															<Node score="Infiltration - NMAP Portscan" recordCount="6">
																<SimplePredicate field="double(Pkt Len Std)" operator="lessOrEqual" value="14.291361331939697"/>
																<ScoreDistribution value="BENIGN" recordCount="0"/>
																<ScoreDistribution value="Infiltration - NMAP Portscan" recordCount="6"/>
															</Node>
															<Node score="Infiltration - NMAP Portscan" recordCount="1">
																<SimplePredicate field="double(Bwd Pkts/s)" operator="lessOrEqual" value="3.694815531373024"/>
																<ScoreDistribution value="BENIGN" recordCount="0"/>
																<ScoreDistribution value="Infiltration - NMAP Portscan" recordCount="1"/>
															</Node>
															<Node score="BENIGN" recordCount="2">
																<True/>
																<ScoreDistribution value="BENIGN" recordCount="2"/>
																<ScoreDistribution value="Infiltration - NMAP Portscan" recordCount="0"/>
															</Node>
														</Node>
														<Node score="Infiltration - NMAP Portscan" recordCount="85">
															<True/>
															<ScoreDistribution value="BENIGN" recordCount="0"/>
															<ScoreDistribution value="Infiltration - NMAP Portscan" recordCount="85"/>
														</Node>
													</Node>
													<Node score="BENIGN" recordCount="2">
														<True/>
														<ScoreDistribution value="BENIGN" recordCount="2"/>
														<ScoreDistribution value="Infiltration - NMAP Portscan" recordCount="0"/>
													</Node>
												</Node>
												<Node score="BENIGN" recordCount="20">
													<True/>
													<ScoreDistribution value="BENIGN" recordCount="20"/>
													<ScoreDistribution value="Infiltration - NMAP Portscan" recordCount="0"/>
												</Node>
											</Node>
											<Node score="BENIGN" recordCount="41">
												<SimplePredicate field="double(Fwd Pkt Len Mean)" operator="lessOrEqual" value="10.9375"/>
												<ScoreDistribution value="BENIGN" recordCount="41"/>
												<ScoreDistribution value="Infiltration - NMAP Portscan" recordCount="0"/>
											</Node>
											<Node>
												<SimplePredicate field="double(Flow Bytes/s)" operator="lessOrEqual" value="7.4226484298706055"/>
												<Node score="Infiltration - NMAP Portscan" recordCount="7">
													<SimplePredicate field="double(Subflow Fwd Bytes)" operator="lessOrEqual" value="5.5"/>
													<ScoreDistribution value="BENIGN" recordCount="0"/>
													<ScoreDistribution value="Infiltration - NMAP Portscan" recordCount="7"/>
												</Node>
												<Node score="BENIGN" recordCount="1">
													<True/>
													<ScoreDistribution value="BENIGN" recordCount="1"/>
													<ScoreDistribution value="Infiltration - NMAP Portscan" recordCount="0"/>
												</Node>
											</Node>
											<Node score="BENIGN" recordCount="12">
												<True/>
												<ScoreDistribution value="BENIGN" recordCount="12"/>
												<ScoreDistribution value="Infiltration - NMAP Portscan" recordCount="0"/>
											</Node>
										</Node>
										<Node score="Infiltration - NMAP Portscan" recordCount="419">
											<True/>
											<ScoreDistribution value="BENIGN" recordCount="0"/>
											<ScoreDistribution value="Infiltration - NMAP Portscan" recordCount="419"/>
										</Node>
									</Node>
									<Node score="BENIGN" recordCount="27">
										<True/>
										<ScoreDistribution value="BENIGN" recordCount="27"/>
										<ScoreDistribution value="Infiltration - NMAP Portscan" recordCount="0"/>
									</Node>
								</Node>
								<Node>
									<SimplePredicate field="double(Bwd Pkts/s)" operator="lessOrEqual" value="0.23257320374250412"/>
									<Node>
										<SimplePredicate field="double(Pkt Len Std)" operator="lessOrEqual" value="18.957351684570312"/>
										<Node score="BENIGN" recordCount="3">
											<SimplePredicate field="double(Pkt Len Max)" operator="lessOrEqual" value="45.5"/>
											<ScoreDistribution value="BENIGN" recordCount="3"/>
											<ScoreDistribution value="Infiltration - NMAP Portscan" recordCount="0"/>
										</Node>
										<Node score="Infiltration - NMAP Portscan" recordCount="1">
											<True/>
											<ScoreDistribution value="BENIGN" recordCount="0"/>
											<ScoreDistribution value="Infiltration - NMAP Portscan" recordCount="1"/>
										</Node>
									</Node>
									<Node score="BENIGN" recordCount="582">
										<True/>
										<ScoreDistribution value="BENIGN" recordCount="582"/>
										<ScoreDistribution value="Infiltration - NMAP Portscan" recordCount="0"/>
									</Node>
								</Node>
								<Node>
									<SimplePredicate field="double(Flow Bytes/s)" operator="lessOrEqual" value="1875.3656616210938"/>
									<Node>
										<SimplePredicate field="double(Tot Len of Bwd Pkt)" operator="lessOrEqual" value="3991.5"/>
										<Node>
											<SimplePredicate field="double(Fwd Pkt Len Max)" operator="lessOrEqual" value="47.5"/>
											<Node>
												<SimplePredicate field="double(Flow Bytes/s)" operator="lessOrEqual" value="136.89622497558594"/>
												<Node>
													<SimplePredicate field="double(Tot Len of Bwd Pkt)" operator="lessOrEqual" value="9.5"/>
													<Node score="Infiltration - NMAP Portscan" recordCount="15">
														<SimplePredicate field="double(Fwd Segment Size Avg)" operator="lessOrEqual" value="18.425000190734863"/>
														<ScoreDistribution value="BENIGN" recordCount="0"/>
														<ScoreDistribution value="Infiltration - NMAP Portscan" recordCount="15"/>
													</Node>
													<Node score="BENIGN" recordCount="3">
														<True/>
														<ScoreDistribution value="BENIGN" recordCount="3"/>
														<ScoreDistribution value="Infiltration - NMAP Portscan" recordCount="0"/>
													</Node>
												</Node>
												<Node score="BENIGN" recordCount="39">
													<SimplePredicate field="double(Pkt Len Std)" operator="lessOrEqual" value="17.097580909729004"/>
													<ScoreDistribution value="BENIGN" recordCount="39"/>
													<ScoreDistribution value="Infiltration - NMAP Portscan" recordCount="0"/>
												</Node>
												<Node>
													<SimplePredicate field="double(Tot Len of Bwd Pkt)" operator="lessOrEqual" value="27.0"/>
													<Node score="Infiltration - NMAP Portscan" recordCount="8">
														<SimplePredicate field="double(Bwd Seg Size Avg)" operator="lessOrEqual" value="5.0666667222976685"/>
														<ScoreDistribution value="BENIGN" recordCount="0"/>
														<ScoreDistribution value="Infiltration - NMAP Portscan" recordCount="8"/>
													</Node>
													<Node score="BENIGN" recordCount="2">
														<True/>
														<ScoreDistribution value="BENIGN" recordCount="2"/>
														<ScoreDistribution value="Infiltration - NMAP Portscan" recordCount="0"/>
													</Node>
												</Node>
												<Node score="BENIGN" recordCount="8">
													<True/>
													<ScoreDistribution value="BENIGN" recordCount="8"/>
													<ScoreDistribution value="Infiltration - NMAP Portscan" recordCount="0"/>
												</Node>
											</Node>
											<Node score="BENIGN" recordCount="82">
												<SimplePredicate field="double(Bwd Pkts/s)" operator="lessOrEqual" value="55.71052360534668"/>
												<ScoreDistribution value="BENIGN" recordCount="82"/>
												<ScoreDistribution value="Infiltration - NMAP Portscan" recordCount="0"/>
											</Node>
											<Node score="Infiltration - NMAP Portscan" recordCount="1">
												<True/>
												<ScoreDistribution value="BENIGN" recordCount="0"/>
												<ScoreDistribution value="Infiltration - NMAP Portscan" recordCount="1"/>
											</Node>
										</Node>
										<Node>
											<SimplePredicate field="double(Fwd Segment Size Avg)" operator="lessOrEqual" value="16.958333015441895"/>
											<Node>
												<SimplePredicate field="double(Fwd Pkt Len Mean)" operator="lessOrEqual" value="15.497354507446289"/>
												<Node>
													<SimplePredicate field="double(Flow Bytes/s)" operator="lessOrEqual" value="1025.7422180175781"/>
													<Node>
														<SimplePredicate field="double(Pkt Len Max)" operator="lessOrEqual" value="53.5"/>
														<Node score="Infiltration - NMAP Portscan" recordCount="5">
															<SimplePredicate field="double(Bwd Seg Size Avg)" operator="lessOrEqual" value="6.625"/>
															<ScoreDistribution value="BENIGN" recordCount="0"/>
															<ScoreDistribution value="Infiltration - NMAP Portscan" recordCount="5"/>
														</Node>
														<Node score="BENIGN" recordCount="3">
															<True/>
															<ScoreDistribution value="BENIGN" recordCount="3"/>
															<ScoreDistribution value="Infiltration - NMAP Portscan" recordCount="0"/>
														</Node>
													</Node>
													<Node score="Infiltration - NMAP Portscan" recordCount="26">
														<True/>
														<ScoreDistribution value="BENIGN" recordCount="0"/>
														<ScoreDistribution value="Infiltration - NMAP Portscan" recordCount="26"/>
													</Node>
												</Node>
												<Node score="BENIGN" recordCount="2">
													<True/>
													<ScoreDistribution value="BENIGN" recordCount="2"/>
													<ScoreDistribution value="Infiltration - NMAP Portscan" recordCount="0"/>
												</Node>
											</Node>
											<Node score="BENIGN" recordCount="5">
												<True/>
												<ScoreDistribution value="BENIGN" recordCount="5"/>
												<ScoreDistribution value="Infiltration - NMAP Portscan" recordCount="0"/>
											</Node>
										</Node>
										<Node>
											<SimplePredicate field="double(Fwd Pkt Len Max)" operator="lessOrEqual" value="113.0"/>
											<Node>
												<SimplePredicate field="double(Bwd Pkts/s)" operator="lessOrEqual" value="0.822221577167511"/>
												<Node>
													<SimplePredicate field="double(Fwd Pkt Len Mean)" operator="lessOrEqual" value="19.699999809265137"/>
													<Node>
														<SimplePredicate field="double(Bwd Seg Size Avg)" operator="lessOrEqual" value="216.1750030517578"/>
														<Node score="Infiltration - NMAP Portscan" recordCount="6">
															<SimplePredicate field="double(Fwd Segment Size Avg)" operator="lessOrEqual" value="19.300000190734863"/>
															<ScoreDistribution value="BENIGN" recordCount="0"/>
															<ScoreDistribution value="Infiltration - NMAP Portscan" recordCount="6"/>
														</Node>
														<Node score="BENIGN" recordCount="3">
															<True/>
															<ScoreDistribution value="BENIGN" recordCount="3"/>
															<ScoreDistribution value="Infiltration - NMAP Portscan" recordCount="0"/>
														</Node>
													</Node>
													<Node score="Infiltration - NMAP Portscan" recordCount="16">
														<True/>
														<ScoreDistribution value="BENIGN" recordCount="0"/>
														<ScoreDistribution value="Infiltration - NMAP Portscan" recordCount="16"/>
													</Node>
												</Node>
												<Node score="Infiltration - NMAP Portscan" recordCount="99">
													<True/>
													<ScoreDistribution value="BENIGN" recordCount="0"/>
													<ScoreDistribution value="Infiltration - NMAP Portscan" recordCount="99"/>
												</Node>
											</Node>
											<Node score="Infiltration - NMAP Portscan" recordCount="255">
												<True/>
												<ScoreDistribution value="BENIGN" recordCount="0"/>
												<ScoreDistribution value="Infiltration - NMAP Portscan" recordCount="255"/>
											</Node>
										</Node>
										<Node score="BENIGN" recordCount="1">
											<True/>
											<ScoreDistribution value="BENIGN" recordCount="1"/>
											<ScoreDistribution value="Infiltration - NMAP Portscan" recordCount="0"/>
										</Node>
									</Node>
									<Node score="BENIGN" recordCount="104">
										<True/>
										<ScoreDistribution value="BENIGN" recordCount="104"/>
										<ScoreDistribution value="Infiltration - NMAP Portscan" recordCount="0"/>
									</Node>
								</Node>
								<Node>
									<SimplePredicate field="double(Fwd Segment Size Avg)" operator="lessOrEqual" value="18.430319786071777"/>
									<Node>
										<SimplePredicate field="double(Fwd Pkt Len Max)" operator="lessOrEqual" value="118.5"/>
										<Node score="BENIGN" recordCount="7">
											<SimplePredicate field="double(Bwd Pkts/s)" operator="lessOrEqual" value="1869.8091278076172"/>
											<ScoreDistribution value="BENIGN" recordCount="7"/>
											<ScoreDistribution value="Infiltration - NMAP Portscan" recordCount="0"/>
										</Node>
										<Node score="Infiltration - NMAP Portscan" recordCount="9">
											<True/>
											<ScoreDistribution value="BENIGN" recordCount="0"/>
											<ScoreDistribution value="Infiltration - NMAP Portscan" recordCount="9"/>
										</Node>
									</Node>
									<Node score="BENIGN" recordCount="21">
										<True/>
										<ScoreDistribution value="BENIGN" recordCount="21"/>
										<ScoreDistribution value="Infiltration - NMAP Portscan" recordCount="0"/>
									</Node>
								</Node>
								<Node>
									<SimplePredicate field="double(Flow Bytes/s)" operator="lessOrEqual" value="3084.2886962890625"/>
									<Node score="BENIGN" recordCount="6">
										<SimplePredicate field="double(Fwd Pkt Len Max)" operator="lessOrEqual" value="52.0"/>
										<ScoreDistribution value="BENIGN" recordCount="6"/>
										<ScoreDistribution value="Infiltration - NMAP Portscan" recordCount="0"/>
									</Node>
									<Node score="Infiltration - NMAP Portscan" recordCount="10">
										<SimplePredicate field="double(Pkt Len Std)" operator="lessOrEqual" value="617.8697509765625"/>
										<ScoreDistribution value="BENIGN" recordCount="0"/>
										<ScoreDistribution value="Infiltration - NMAP Portscan" recordCount="10"/>
									</Node>
									<Node score="BENIGN" recordCount="6">
										<True/>
										<ScoreDistribution value="BENIGN" recordCount="6"/>
										<ScoreDistribution value="Infiltration - NMAP Portscan" recordCount="0"/>
									</Node>
								</Node>
								<Node score="BENIGN" recordCount="247">
									<True/>
									<ScoreDistribution value="BENIGN" recordCount="247"/>
									<ScoreDistribution value="Infiltration - NMAP Portscan" recordCount="0"/>
								</Node>
							</Node>
							<Node>
								<SimplePredicate field="double(Flow Bytes/s)" operator="lessOrEqual" value="1592733.8125"/>
								<Node>
									<SimplePredicate field="double(Pkt Len Max)" operator="lessOrEqual" value="1872.0"/>
									<Node>
										<SimplePredicate field="double(Tot Len of Bwd Pkt)" operator="lessOrEqual" value="27.0"/>
										<Node>
											<SimplePredicate field="double(Fwd Pkt Len Max)" operator="lessOrEqual" value="50.0"/>
											<Node>
												<SimplePredicate field="double(Subflow Fwd Bytes)" operator="lessOrEqual" value="13.5"/>
												<Node score="Infiltration - NMAP Portscan" recordCount="1">
													<SimplePredicate field="double(Flow Bytes/s)" operator="lessOrEqual" value="251.8529920578003"/>
													<ScoreDistribution value="BENIGN" recordCount="0"/>
													<ScoreDistribution value="Infiltration - NMAP Portscan" recordCount="1"/>
												</Node>
												<Node score="BENIGN" recordCount="513">
													<True/>
													<ScoreDistribution value="BENIGN" recordCount="513"/>
													<ScoreDistribution value="Infiltration - NMAP Portscan" recordCount="0"/>
												</Node>
											</Node>
											<Node score="BENIGN" recordCount="282">
												<True/>
												<ScoreDistribution value="BENIGN" recordCount="282"/>
												<ScoreDistribution value="Infiltration - NMAP Portscan" recordCount="0"/>
											</Node>
										</Node>
										<Node>
											<SimplePredicate field="double(Subflow Fwd Bytes)" operator="lessOrEqual" value="31.0"/>
											<Node>
												<SimplePredicate field="double(Subflow Fwd Bytes)" operator="lessOrEqual" value="28.5"/>
												<Node>
													<SimplePredicate field="double(Pkt Len Std)" operator="lessOrEqual" value="43.74761390686035"/>
													<Node score="Infiltration - NMAP Portscan" recordCount="28">
														<SimplePredicate field="double(Tot Len of Bwd Pkt)" operator="lessOrEqual" value="9.5"/>
														<ScoreDistribution value="BENIGN" recordCount="0"/>
														<ScoreDistribution value="Infiltration - NMAP Portscan" recordCount="28"/>
													</Node>
													<Node score="BENIGN" recordCount="4">
														<True/>
														<ScoreDistribution value="BENIGN" recordCount="4"/>
														<ScoreDistribution value="Infiltration - NMAP Portscan" recordCount="0"/>
													</Node>
												</Node>
												<Node score="Infiltration - NMAP Portscan" recordCount="222">
													<SimplePredicate field="double(Pkt Len Max)" operator="lessOrEqual" value="186.0"/>
													<ScoreDistribution value="BENIGN" recordCount="0"/>
													<ScoreDistribution value="Infiltration - NMAP Portscan" recordCount="222"/>
												</Node>
												<Node score="BENIGN" recordCount="1">
													<SimplePredicate field="double(Fwd Pkt Len Mean)" operator="lessOrEqual" value="52.5"/>
													<ScoreDistribution value="BENIGN" recordCount="1"/>
													<ScoreDistribution value="Infiltration - NMAP Portscan" recordCount="0"/>
												</Node>
												<Node score="Infiltration - NMAP Portscan" recordCount="9">
													<True/>
													<ScoreDistribution value="BENIGN" recordCount="0"/>
													<ScoreDistribution value="Infiltration - NMAP Portscan" recordCount="9"/>
												</Node>
											</Node>
											<Node score="BENIGN" recordCount="6">
												<SimplePredicate field="double(Bwd Pkts/s)" operator="lessOrEqual" value="18.61766815185547"/>
												<ScoreDistribution value="BENIGN" recordCount="6"/>
												<ScoreDistribution value="Infiltration - NMAP Portscan" recordCount="0"/>
											</Node>
											<Node score="Infiltration - NMAP Portscan" recordCount="8">
												<True/>
												<ScoreDistribution value="BENIGN" recordCount="0"/>
												<ScoreDistribution value="Infiltration - NMAP Portscan" recordCount="8"/>
											</Node>
										</Node>
										<Node>
											<SimplePredicate field="double(Flow Bytes/s)" operator="lessOrEqual" value="215461.8387451172"/>
											<Node>
												<SimplePredicate field="double(Bwd Pkts/s)" operator="lessOrEqual" value="4.970977306365967"/>
												<Node>
													<SimplePredicate field="double(Flow Bytes/s)" operator="lessOrEqual" value="38.61263465881348"/>
													<Node score="BENIGN" recordCount="1">
														<SimplePredicate field="double(Flow Bytes/s)" operator="lessOrEqual" value="15.021191000938416"/>
														<ScoreDistribution value="BENIGN" recordCount="1"/>
														<ScoreDistribution value="Infiltration - NMAP Portscan" recordCount="0"/>
													</Node>
													<Node score="Infiltration - NMAP Portscan" recordCount="2">
														<True/>
														<ScoreDistribution value="BENIGN" recordCount="0"/>
														<ScoreDistribution value="Infiltration - NMAP Portscan" recordCount="2"/>
													</Node>
												</Node>
												<Node score="BENIGN" recordCount="37">
													<True/>
													<ScoreDistribution value="BENIGN" recordCount="37"/>
													<ScoreDistribution value="Infiltration - NMAP Portscan" recordCount="0"/>
												</Node>
											</Node>
											<Node score="BENIGN" recordCount="39">
												<True/>
												<ScoreDistribution value="BENIGN" recordCount="39"/>
												<ScoreDistribution value="Infiltration - NMAP Portscan" recordCount="0"/>
											</Node>
										</Node>
										<Node score="Infiltration - NMAP Portscan" recordCount="2">
											<True/>
											<ScoreDistribution value="BENIGN" recordCount="0"/>
											<ScoreDistribution value="Infiltration - NMAP Portscan" recordCount="2"/>
										</Node>
									</Node>
									<Node>
										<SimplePredicate field="double(Subflow Fwd Bytes)" operator="lessOrEqual" value="54.5"/>
										<Node>
											<SimplePredicate field="double(Fwd Pkt Len Mean)" operator="lessOrEqual" value="107.65584182739258"/>
											<Node>
												<SimplePredicate field="double(Bwd Seg Size Avg)" operator="lessOrEqual" value="35.75188064575195"/>
												<Node>
													<SimplePredicate field="double(Bwd Seg Size Avg)" operator="lessOrEqual" value="33.17499923706055"/>
													<Node>
														<SimplePredicate field="double(Bwd Pkts/s)" operator="lessOrEqual" value="10.364119052886963"/>
														<Node>
															<SimplePredicate field="double(Fwd Pkt Len Max)" operator="lessOrEqual" value="171.5"/>
															<Node>
																<SimplePredicate field="double(Tot Len of Bwd Pkt)" operator="lessOrEqual" value="210.0"/>
																<Node score="BENIGN" recordCount="204">
																	<SimplePredicate field="double(Fwd Pkt Len Max)" operator="lessOrEqual" value="166.0"/>
																	<ScoreDistribution value="BENIGN" recordCount="204"/>
																	<ScoreDistribution value="Infiltration - NMAP Portscan" recordCount="0"/>
																</Node>
																<Node score="Infiltration - NMAP Portscan" recordCount="4">
																	<True/>
																	<ScoreDistribution value="BENIGN" recordCount="0"/>
																	<ScoreDistribution value="Infiltration - NMAP Portscan" recordCount="4"/>
																</Node>
															</Node>
															<Node score="BENIGN" recordCount="2">
																<SimplePredicate field="double(Fwd Seg Size Min)" operator="lessOrEqual" value="10.0"/>
																<ScoreDistribution value="BENIGN" recordCount="2"/>
																<ScoreDistribution value="Infiltration - NMAP Portscan" recordCount="0"/>
															</Node>
															<Node score="Infiltration - NMAP Portscan" recordCount="9">
																<True/>
																<ScoreDistribution value="BENIGN" recordCount="0"/>
																<ScoreDistribution value="Infiltration - NMAP Portscan" recordCount="9"/>
															</Node>
														</Node>
														<Node score="BENIGN" recordCount="236">
															<True/>
															<ScoreDistribution value="BENIGN" recordCount="236"/>
															<ScoreDistribution value="Infiltration - NMAP Portscan" recordCount="0"/>
														</Node>
													</Node>
													<Node score="BENIGN" recordCount="13">
														<SimplePredicate field="double(Bwd Seg Size Avg)" operator="lessOrEqual" value="19.472222328186035"/>
														<ScoreDistribution value="BENIGN" recordCount="13"/>
														<ScoreDistribution value="Infiltration - NMAP Portscan" recordCount="0"/>
													</Node>
													<Node score="BENIGN" recordCount="1">
														<SimplePredicate field="double(Fwd Pkt Len Max)" operator="lessOrEqual" value="121.0"/>
														<ScoreDistribution value="BENIGN" recordCount="1"/>
														<ScoreDistribution value="Infiltration - NMAP Portscan" recordCount="0"/>
													</Node>
													<Node score="Infiltration - NMAP Portscan" recordCount="14">
														<True/>
														<ScoreDistribution value="BENIGN" recordCount="0"/>
														<ScoreDistribution value="Infiltration - NMAP Portscan" recordCount="14"/>
													</Node>
												</Node>
												<Node>
													<SimplePredicate field="double(Subflow Fwd Bytes)" operator="lessOrEqual" value="21.5"/>
													<Node score="BENIGN" recordCount="21">
														<SimplePredicate field="double(Fwd Pkt Len Mean)" operator="lessOrEqual" value="25.25"/>
														<ScoreDistribution value="BENIGN" recordCount="21"/>
														<ScoreDistribution value="Infiltration - NMAP Portscan" recordCount="0"/>
													</Node>
													<Node score="BENIGN" recordCount="3">
														<SimplePredicate field="double(Flow Bytes/s)" operator="lessOrEqual" value="20.688947200775146"/>
														<ScoreDistribution value="BENIGN" recordCount="3"/>
														<ScoreDistribution value="Infiltration - NMAP Portscan" recordCount="0"/>
													</Node>
													<Node score="Infiltration - NMAP Portscan" recordCount="177">
														<True/>
														<ScoreDistribution value="BENIGN" recordCount="0"/>
														<ScoreDistribution value="Infiltration - NMAP Portscan" recordCount="177"/>
													</Node>
												</Node>
												<Node score="BENIGN" recordCount="121">
													<True/>
													<ScoreDistribution value="BENIGN" recordCount="121"/>
													<ScoreDistribution value="Infiltration - NMAP Portscan" recordCount="0"/>
												</Node>
											</Node>
											<Node>
												<SimplePredicate field="double(Fwd Pkt Len Mean)" operator="lessOrEqual" value="80.45000076293945"/>
												<Node>
													<SimplePredicate field="double(Pkt Len Max)" operator="lessOrEqual" value="156.5"/>
													<Node>
														<SimplePredicate field="double(Bwd Seg Size Avg)" operator="lessOrEqual" value="47.9375"/>
														<Node score="BENIGN" recordCount="1207">
															<SimplePredicate field="double(Tot Len of Bwd Pkt)" operator="lessOrEqual" value="339.0"/>
															<ScoreDistribution value="BENIGN" recordCount="1207"/>
															<ScoreDistribution value="Infiltration - NMAP Portscan" recordCount="0"/>
														</Node>
														<Node score="Infiltration - NMAP Portscan" recordCount="7">
															<True/>
															<ScoreDistribution value="BENIGN" recordCount="0"/>
															<ScoreDistribution value="Infiltration - NMAP Portscan" recordCount="7"/>
														</Node>
													</Node>
													<Node score="BENIGN" recordCount="13757">
														<True/>
														<ScoreDistribution value="BENIGN" recordCount="13757"/>
														<ScoreDistribution value="Infiltration - NMAP Portscan" recordCount="0"/>
													</Node>
												</Node>
												<Node>
													<SimplePredicate field="double(Fwd Pkt Len Max)" operator="lessOrEqual" value="50.5"/>
													<Node>
														<SimplePredicate field="double(Tot Len of Bwd Pkt)" operator="lessOrEqual" value="157.5"/>
														<Node score="BENIGN" recordCount="38">
															<SimplePredicate field="double(Fwd Pkt Len Max)" operator="lessOrEqual" value="43.5"/>
															<ScoreDistribution value="BENIGN" recordCount="38"/>
															<ScoreDistribution value="Infiltration - NMAP Portscan" recordCount="0"/>
														</Node>
														<Node score="Infiltration - NMAP Portscan" recordCount="97">
															<True/>
															<ScoreDistribution value="BENIGN" recordCount="0"/>
															<ScoreDistribution value="Infiltration - NMAP Portscan" recordCount="97"/>
														</Node>
													</Node>
													<Node score="BENIGN" recordCount="1381">
														<True/>
														<ScoreDistribution value="BENIGN" recordCount="1381"/>
														<ScoreDistribution value="Infiltration - NMAP Portscan" recordCount="0"/>
													</Node>
												</Node>
												<Node>
													<SimplePredicate field="double(Tot Len of Bwd Pkt)" operator="lessOrEqual" value="271.0"/>
													<Node score="BENIGN" recordCount="533">
														<SimplePredicate field="double(Fwd Pkt Len Max)" operator="lessOrEqual" value="162.5"/>
														<ScoreDistribution value="BENIGN" recordCount="533"/>
														<ScoreDistribution value="Infiltration - NMAP Portscan" recordCount="0"/>
													</Node>
													<Node score="Infiltration - NMAP Portscan" recordCount="4">
														<SimplePredicate field="double(Fwd Pkt Len Mean)" operator="lessOrEqual" value="39.5"/>
														<ScoreDistribution value="BENIGN" recordCount="0"/>
														<ScoreDistribution value="Infiltration - NMAP Portscan" recordCount="4"/>
													</Node>
													<Node score="BENIGN" recordCount="9">
														<True/>
														<ScoreDistribution value="BENIGN" recordCount="9"/>
														<ScoreDistribution value="Infiltration - NMAP Portscan" recordCount="0"/>
													</Node>
												</Node>
												<Node score="BENIGN" recordCount="4965">
													<True/>
													<ScoreDistribution value="BENIGN" recordCount="4965"/>
													<ScoreDistribution value="Infiltration - NMAP Portscan" recordCount="0"/>
												</Node>
											</Node>
											<Node>
												<SimplePredicate field="double(Subflow Fwd Bytes)" operator="lessOrEqual" value="40.5"/>
												<Node>
													<SimplePredicate field="double(Tot Len of Bwd Pkt)" operator="lessOrEqual" value="1126.0"/>
													<Node score="BENIGN" recordCount="6">
														<SimplePredicate field="double(Pkt Len Max)" operator="lessOrEqual" value="561.5"/>
														<ScoreDistribution value="BENIGN" recordCount="6"/>
														<ScoreDistribution value="Infiltration - NMAP Portscan" recordCount="0"/>
													</Node>
													<Node score="Infiltration - NMAP Portscan" recordCount="110">
														<True/>
														<ScoreDistribution value="BENIGN" recordCount="0"/>
														<ScoreDistribution value="Infiltration - NMAP Portscan" recordCount="110"/>
													</Node>
												</Node>
												<Node score="BENIGN" recordCount="191">
													<True/>
													<ScoreDistribution value="BENIGN" recordCount="191"/>
													<ScoreDistribution value="Infiltration - NMAP Portscan" recordCount="0"/>
												</Node>
											</Node>
											<Node score="BENIGN" recordCount="949">
												<True/>
												<ScoreDistribution value="BENIGN" recordCount="949"/>
												<ScoreDistribution value="Infiltration - NMAP Portscan" recordCount="0"/>
											</Node>
										</Node>
